{"learner":{"attributes":{"scikit_learn":"{\"_estimator_type\": \"regressor\"}"},"feature_names":["Temperature(C)","Humidity(%)","Condition Code","DayOfYear_Sin","HourOfDay_Sin","Clear sky GHI"],"feature_types":["float","float","float","float","float","float"],"gradient_booster":{"model":{"cats":{"enc":[],"feature_segments":[],"sorted_idx":[]},"gbtree_model_param":{"num_parallel_tree":"1","num_trees":"100"},"iteration_indptr":[0,1,2,3,4,5,6,7,8,9,10,11,12,13,14,15,16,17,18,19,20,21,22,23,24,25,26,27,28,29,30,31,32,33,34,35,36,37,38,39,40,41,42,43,44,45,46,47,48,49,50,51,52,53,54,55,56,57,58,59,60,61,62,63,64,65,66,67,68,69,70,71,72,73,74,75,76,77,78,79,80,81,82,83,84,85,86,87,88,89,90,91,92,93,94,95,96,97,98,99,100],"tree_info":[0,0,0,0,0,0,0,0,0,0,0,0,0,0,0,0,0,0,0,0,0,0,0,0,0,0,0,0,0,0,0,0,0,0,0,0,0,0,0,0,0,0,0,0,0,0,0,0,0,0,0,0,0,0,0,0,0,0,0,0,0,0,0,0,0,0,0,0,0,0,0,0,0,0,0,0,0,0,0,0,0,0,0,0,0,0,0,0,0,0,0,0,0,0,0,0,0,0,0,0],"trees":[{"base_weights":[-3.576007E-4,-4.406927E3,5.8417397E3,-6.293341E1,-6.1020674E3,1.1226597E4,1.6352666E3,1.7502886E3,-4.330905E3,-7.870964E3,-4.8640234E3,6.9914653E3,1.3698862E4,3.979628E3,-1.8897047E3,-4.3979657E2,4.1472314E3,-5.051823E3,2.524647E2,-6.00091E3,-8.754614E3,-2.0212932E3,-5.7930815E3,9.473854E3,3.9432288E3,9.816394E3,1.49306E4,1.269843E3,6.099767E3,-3.133151E2,-6.0775845E3,1.5776756E1,-6.321132E2,5.627292E2,1.1149916E1,-5.6166565E2,-8.4413246E1,-8.444052E1,3.2057407E2,-3.119058E2,-6.9355225E2,-8.7951447E2,1.8232716E1,-2.9644357E2,2.00015E1,-6.4051215E2,-4.0360535E2,7.039528E2,1.1439614E3,2.691407E2,5.6053705E2,9.9663885E2,4.8332714E1,1.620988E3,1.1231886E3,-3.9387424E1,2.592423E2,4.836131E2,8.8588617E2,-1.1887058E2,5.416252E2,-6.4927344E2,-1.7434547E2],"categories":[],"categories_nodes":[],"categories_segments":[],"categories_sizes":[],"default_left":[0,0,0,0,0,0,0,0,0,0,0,0,0,0,0,0,0,0,0,0,0,0,0,0,0,0,0,0,0,0,0,0,0,0,0,0,0,0,0,0,0,0,0,0,0,0,0,0,0,0,0,0,0,0,0,0,0,0,0,0,0,0,0],"id":0,"left_children":[1,3,5,7,9,11,13,15,17,19,21,23,25,27,29,31,33,35,37,39,41,43,45,47,49,51,53,55,57,59,61,-1,-1,-1,-1,-1,-1,-1,-1,-1,-1,-1,-1,-1,-1,-1,-1,-1,-1,-1,-1,-1,-1,-1,-1,-1,-1,-1,-1,-1,-1,-1,-1],"loss_changes":[5.1488236E10,8.3942093E9,1.9461722E10,2.4917284E9,1.7574912E9,3.8515548E9,4.0072028E9,1.188213E9,3.1848218E8,5.0269594E8,1.269205E9,1.0295762E9,9.868124E8,1.664084E9,1.2788315E9,4.1921987E8,6.4447014E8,1.9251994E8,4.8057976E7,2.7733658E8,8.346419E7,2.5408912E8,3.666596E8,2.8793856E8,1.2015962E8,7.917875E7,6.601728E8,2.8487258E8,5.2545536E8,7.186548E8,8.404365E7,0E0,0E0,0E0,0E0,0E0,0E0,0E0,0E0,0E0,0E0,0E0,0E0,0E0,0E0,0E0,0E0,0E0,0E0,0E0,0E0,0E0,0E0,0E0,0E0,0E0,0E0,0E0,0E0,0E0,0E0,0E0,0E0],"parents":[2147483647,0,0,1,1,2,2,3,3,4,4,5,5,6,6,7,7,8,8,9,9,10,10,11,11,12,12,13,13,14,14,15,15,16,16,17,17,18,18,19,19,20,20,21,21,22,22,23,23,24,24,25,25,26,26,27,27,28,28,29,29,30,30],"right_children":[2,4,6,8,10,12,14,16,18,20,22,24,26,28,30,32,34,36,38,40,42,44,46,48,50,52,54,56,58,60,62,-1,-1,-1,-1,-1,-1,-1,-1,-1,-1,-1,-1,-1,-1,-1,-1,-1,-1,-1,-1,-1,-1,-1,-1,-1,-1,-1,-1,-1,-1,-1,-1],"split_conditions":[4.44373E2,7.3166664E1,3.6666667E0,3.6666667E0,2.157264E2,5.78594E2,7.875E1,2.994419E2,3.998435E2,3.6666667E0,3.6666667E0,1.2246469E-16,-2.2192152E-1,6.441426E2,9.0583336E1,5E-1,1.2246469E-16,7.3333335E0,7.0916664E1,2.5881904E-1,1.7833334E1,3.522475E2,3.76785E2,-1.8822671E-1,5.300741E2,7.7E1,2.5881904E-1,5.382386E2,4.171936E-1,7.646622E2,1.6308332E1,1.5776756E1,-6.321132E2,5.627292E2,1.1149916E1,-5.6166565E2,-8.4413246E1,-8.444052E1,3.2057407E2,-3.119058E2,-6.9355225E2,-8.7951447E2,1.8232716E1,-2.9644357E2,2.00015E1,-6.4051215E2,-4.0360535E2,7.039528E2,1.1439614E3,2.691407E2,5.6053705E2,9.9663885E2,4.8332714E1,1.620988E3,1.1231886E3,-3.9387424E1,2.592423E2,4.836131E2,8.8588617E2,-1.1887058E2,5.416252E2,-6.4927344E2,-1.7434547E2],"split_indices":[5,1,2,2,5,5,1,5,5,2,2,4,3,5,1,4,4,2,1,4,2,5,5,3,5,1,4,5,3,5,0,0,0,0,0,0,0,0,0,0,0,0,0,0,0,0,0,0,0,0,0,0,0,0,0,0,0,0,0,0,0,0,0],"split_type":[0,0,0,0,0,0,0,0,0,0,0,0,0,0,0,0,0,0,0,0,0,0,0,0,0,0,0,0,0,0,0,0,0,0,0,0,0,0,0,0,0,0,0,0,0,0,0,0,0,0,0,0,0,0,0,0,0,0,0,0,0,0,0],"sum_hessian":[1.998E3,1.139E3,8.59E2,3.2E2,8.19E2,3.76E2,4.83E2,2.25E2,9.5E1,3.35E2,4.84E2,1.4E2,2.36E2,2.9E2,1.93E2,1.18E2,1.07E2,8.2E1,1.3E1,1.1E2,2.25E2,1.2E2,3.64E2,7.6E1,6.4E1,5.9E1,1.77E2,1.28E2,1.62E2,1.41E2,5.2E1,1.08E2,1E1,7.8E1,2.9E1,7.2E1,1E1,1E1,3E0,2.8E1,8.2E1,2.24E2,1E0,8.4E1,3.6E1,2.68E2,9.6E1,3.6E1,4E1,3.8E1,2.6E1,5.8E1,1E0,1.29E2,4.8E1,5.7E1,7.1E1,1.13E2,4.9E1,1.23E2,1.8E1,4.7E1,5E0],"tree_param":{"num_deleted":"0","num_feature":"6","num_nodes":"63","size_leaf_vector":"1"}},{"base_weights":[2.008429E0,-3.786142E3,5.532799E3,1.9597058E2,-5.411341E3,1.0555143E4,1.6942753E3,1.8043514E3,-3.818838E3,-7.089423E3,-4.2907764E3,8.585396E3,1.4020042E4,3.7183672E3,-1.4686431E3,-8.71839E2,3.5115442E3,-4.554425E3,-2.8050897E0,-5.409877E3,-7.8829634E3,-1.6789045E3,-5.1298213E3,1.0818382E4,6.068784E3,1.4284561E4,2.3811133E3,2.4816833E3,7.290894E3,2.7377167E1,-5.3887637E3,-3.8275177E2,4.619367E0,4.7805264E2,-9.9585045E1,-5.062684E2,-7.6739334E1,-8.506377E1,2.96531E2,-2.817907E2,-6.250326E2,-7.9195386E2,1.7321095E1,-2.5879837E2,6.404296E1,-4.536755E2,-6.861762E2,1.3160038E3,8.7385675E2,2.804443E2,7.7073425E2,1.00790643E3,1.4955958E3,2.8687106E2,4.5916065E1,-2.2447592E1,3.3456747E2,4.4628018E2,1.0887313E3,-1.19573875E2,3.3222348E2,-3.895021E2,-6.972939E2],"categories":[],"categories_nodes":[],"categories_segments":[],"categories_sizes":[],"default_left":[0,0,0,0,0,0,0,0,0,0,0,0,0,0,0,0,0,0,0,0,0,0,0,0,0,0,0,0,0,0,0,0,0,0,0,0,0,0,0,0,0,0,0,0,0,0,0,0,0,0,0,0,0,0,0,0,0,0,0,0,0,0,0],"id":1,"left_children":[1,3,5,7,9,11,13,15,17,19,21,23,25,27,29,31,33,35,37,39,41,43,45,47,49,51,53,55,57,59,61,-1,-1,-1,-1,-1,-1,-1,-1,-1,-1,-1,-1,-1,-1,-1,-1,-1,-1,-1,-1,-1,-1,-1,-1,-1,-1,-1,-1,-1,-1,-1,-1],"loss_changes":[4.190293E10,7.6829983E9,1.5655442E10,2.2346732E9,1.5547576E9,2.2820209E9,2.963202E9,1.1315484E9,2.7788262E8,4.051712E8,1.1046584E9,1.209986E9,3.5390464E8,1.2278067E9,1.06163635E9,2.6337754E8,8.6845094E8,1.5587277E8,4.5302308E7,2.2419123E8,6.79639E7,2.6521469E8,3.632978E8,4.64555E8,5.6140595E8,1.965568E8,2.431358E6,4.940896E8,6.837243E8,5.3593152E8,9.115789E7,0E0,0E0,0E0,0E0,0E0,0E0,0E0,0E0,0E0,0E0,0E0,0E0,0E0,0E0,0E0,0E0,0E0,0E0,0E0,0E0,0E0,0E0,0E0,0E0,0E0,0E0,0E0,0E0,0E0,0E0,0E0,0E0],"parents":[2147483647,0,0,1,1,2,2,3,3,4,4,5,5,6,6,7,7,8,8,9,9,10,10,11,11,12,12,13,13,14,14,15,15,16,16,17,17,18,18,19,19,20,20,21,21,22,22,23,23,24,24,25,25,26,26,27,27,28,28,29,29,30,30],"right_children":[2,4,6,8,10,12,14,16,18,20,22,24,26,28,30,32,34,36,38,40,42,44,46,48,50,52,54,56,58,60,62,-1,-1,-1,-1,-1,-1,-1,-1,-1,-1,-1,-1,-1,-1,-1,-1,-1,-1,-1,-1,-1,-1,-1,-1,-1,-1,-1,-1,-1,-1,-1,-1],"split_conditions":[4.671408E2,7.3166664E1,3.6666667E0,3.6666667E0,2.157264E2,7.002746E2,7.875E1,2.561214E2,3.998435E2,3.6666667E0,3.6666667E0,1.2246469E-16,7.4833336E1,7.604255E2,9.0583336E1,1.367913E2,2.5881904E-1,7.3333335E0,7.1083336E1,2.5881904E-1,1.7833334E1,3.70291E2,9.1E1,2.6666667E0,5.46502E2,-2.2192152E-1,1.7383333E1,5.404436E2,1.2020805E-1,6.691879E2,9.5E1,-3.8275177E2,4.619367E0,4.7805264E2,-9.9585045E1,-5.062684E2,-7.6739334E1,-8.506377E1,2.96531E2,-2.817907E2,-6.250326E2,-7.9195386E2,1.7321095E1,-2.5879837E2,6.404296E1,-4.536755E2,-6.861762E2,1.3160038E3,8.7385675E2,2.804443E2,7.7073425E2,1.00790643E3,1.4955958E3,2.8687106E2,4.5916065E1,-2.2447592E1,3.3456747E2,4.4628018E2,1.0887313E3,-1.19573875E2,3.3222348E2,-3.895021E2,-6.972939E2],"split_indices":[5,1,2,2,5,5,1,5,5,2,2,4,1,5,1,5,4,2,1,4,2,5,1,2,5,3,0,5,3,5,1,0,0,0,0,0,0,0,0,0,0,0,0,0,0,0,0,0,0,0,0,0,0,0,0,0,0,0,0,0,0,0,0],"split_type":[0,0,0,0,0,0,0,0,0,0,0,0,0,0,0,0,0,0,0,0,0,0,0,0,0,0,0,0,0,0,0,0,0,0,0,0,0,0,0,0,0,0,0,0,0,0,0,0,0,0,0,0,0,0,0,0,0,0,0,0,0,0,0],"sum_hessian":[1.998E3,1.186E3,8.12E2,3.44E2,8.42E2,3.51E2,4.61E2,2.46E2,9.8E1,3.35E2,5.07E2,2.26E2,1.25E2,2.81E2,1.8E2,9.6E1,1.5E2,8.2E1,1.6E1,1.1E2,2.25E2,1.24E2,3.83E2,1.18E2,1.08E2,1.22E2,3E0,2.1E2,7.1E1,1.31E2,4.9E1,2.2E1,7.4E1,1.17E2,3.3E1,7.2E1,1E1,1.3E1,3E0,2.8E1,8.2E1,2.24E2,1E0,8.9E1,3.5E1,2.88E2,9.5E1,5.3E1,6.5E1,3.7E1,7.1E1,1.9E1,1.03E2,2E0,1E0,5.1E1,1.59E2,4.1E1,3E1,9.6E1,3.5E1,2.7E1,2.2E1],"tree_param":{"num_deleted":"0","num_feature":"6","num_nodes":"63","size_leaf_vector":"1"}},{"base_weights":[3.6400993E0,-3.4103813E3,4.988191E3,1.7529759E2,-4.8737847E3,9.516894E3,1.5269537E3,1.6239176E3,-3.440707E3,-6.117011E3,-3.6307913E3,6.0662725E3,1.1165649E4,3.0684077E3,-1.8641448E3,-6.6064655E2,3.2626035E3,-5.601203E3,-2.275592E3,-3.609324E3,-6.5494346E3,-1.2263297E3,-4.5539946E3,8.93455E3,3.7579626E3,7.952669E3,1.2185948E4,8.385715E2,4.8175005E3,-2.7833157E2,-4.871623E3,-3.4614072E2,1.329893E1,4.4442856E2,-8.468204E1,-5.7675305E2,-5.620557E0,-3.0071524E2,9.914407E-1,8.181003E1,-4.2564224E2,-6.059594E2,-7.566857E2,-2.3219873E2,9.083512E0,-4.9090512E2,-9.9331276E1,9.271784E2,-3.9635776E2,2.28491E1,4.240847E2,9.290876E2,6.091472E2,1.3258909E3,9.090628E2,2.2476587E2,-6.1869617E0,3.4045544E2,6.62663E2,-3.7258282E2,9.880522E1,-3.51943E2,-6.305962E2],"categories":[],"categories_nodes":[],"categories_segments":[],"categories_sizes":[],"default_left":[0,0,0,0,0,0,0,0,0,0,0,0,0,0,0,0,0,0,0,0,0,0,0,0,0,0,0,0,0,0,0,0,0,0,0,0,0,0,0,0,0,0,0,0,0,0,0,0,0,0,0,0,0,0,0,0,0,0,0,0,0,0,0],"id":2,"left_children":[1,3,5,7,9,11,13,15,17,19,21,23,25,27,29,31,33,35,37,39,41,43,45,47,49,51,53,55,57,59,61,-1,-1,-1,-1,-1,-1,-1,-1,-1,-1,-1,-1,-1,-1,-1,-1,-1,-1,-1,-1,-1,-1,-1,-1,-1,-1,-1,-1,-1,-1,-1,-1],"loss_changes":[3.403472E10,6.2293934E9,1.2729174E10,1.8127722E9,1.2804977E9,1.9348726E9,2.4206966E9,9.268451E8,2.3645926E8,4.3180237E8,9.3561344E8,7.344456E8,6.800261E8,1.2362209E9,6.901924E8,2.3162986E8,7.0303206E8,3.1033472E7,1.1038086E8,1.8684077E8,1.3206733E8,1.7194714E8,3.8198272E8,2.585838E8,1.1151654E8,9.28448E7,4.7063245E8,1.7903987E8,4.324434E8,4.2280326E8,7.478182E7,0E0,0E0,0E0,0E0,0E0,0E0,0E0,0E0,0E0,0E0,0E0,0E0,0E0,0E0,0E0,0E0,0E0,0E0,0E0,0E0,0E0,0E0,0E0,0E0,0E0,0E0,0E0,0E0,0E0,0E0,0E0,0E0],"parents":[2147483647,0,0,1,1,2,2,3,3,4,4,5,5,6,6,7,7,8,8,9,9,10,10,11,11,12,12,13,13,14,14,15,15,16,16,17,17,18,18,19,19,20,20,21,21,22,22,23,23,24,24,25,25,26,26,27,27,28,28,29,29,30,30],"right_children":[2,4,6,8,10,12,14,16,18,20,22,24,26,28,30,32,34,36,38,40,42,44,46,48,50,52,54,56,58,60,62,-1,-1,-1,-1,-1,-1,-1,-1,-1,-1,-1,-1,-1,-1,-1,-1,-1,-1,-1,-1,-1,-1,-1,-1,-1,-1,-1,-1,-1,-1,-1,-1],"split_conditions":[4.671408E2,7.3166664E1,3.6666667E0,3.6666667E0,2.461044E2,5.78594E2,8.1583336E1,2.604235E2,2.266657E2,2.8333333E0,4E0,-2.5881904E-1,-2.2192152E-1,6.464169E2,9.0583336E1,1.367913E2,2.5881904E-1,7.2666664E1,3.998435E2,2.5881904E-1,5E0,3.422681E2,9E0,7.7166664E1,-9.911141E-1,1.2246469E-16,2.5881904E-1,6.9916664E1,8.59648E-2,-8.9963084E-1,9.5E1,-3.4614072E2,1.329893E1,4.4442856E2,-8.468204E1,-5.7675305E2,-5.620557E0,-3.0071524E2,9.914407E-1,8.181003E1,-4.2564224E2,-6.059594E2,-7.566857E2,-2.3219873E2,9.083512E0,-4.9090512E2,-9.9331276E1,9.271784E2,-3.9635776E2,2.28491E1,4.240847E2,9.290876E2,6.091472E2,1.3258909E3,9.090628E2,2.2476587E2,-6.1869617E0,3.4045544E2,6.62663E2,-3.7258282E2,9.880522E1,-3.51943E2,-6.305962E2],"split_indices":[5,1,2,2,5,5,1,5,5,2,2,4,3,5,1,5,4,1,5,4,2,5,2,1,3,4,4,1,3,3,1,0,0,0,0,0,0,0,0,0,0,0,0,0,0,0,0,0,0,0,0,0,0,0,0,0,0,0,0,0,0,0,0],"split_type":[0,0,0,0,0,0,0,0,0,0,0,0,0,0,0,0,0,0,0,0,0,0,0,0,0,0,0,0,0,0,0,0,0,0,0,0,0,0,0,0,0,0,0,0,0,0,0,0,0,0,0,0,0,0,0,0,0,0,0,0,0,0,0],"sum_hessian":[1.998E3,1.186E3,8.12E2,3.44E2,8.42E2,3.51E2,4.61E2,2.46E2,9.8E1,4.19E2,4.23E2,1.15E2,2.36E2,3.17E2,1.44E2,1.03E2,1.43E2,3.3E1,6.5E1,6.3E1,3.56E2,1.18E2,3.05E2,5E1,6.5E1,5.9E1,1.77E2,1.4E2,1.77E2,9.5E1,4.9E1,2.2E1,8.1E1,1.11E2,3.2E1,3.2E1,1E0,4.9E1,1.6E1,8E0,5.5E1,2.45E2,1.11E2,6.4E1,5.4E1,2.77E2,2.8E1,4.9E1,1E0,8E0,5.7E1,3.2E1,2.7E1,1.29E2,4.8E1,5.4E1,8.6E1,1.01E2,7.6E1,2.5E1,7E1,2.7E1,2.2E1],"tree_param":{"num_deleted":"0","num_feature":"6","num_nodes":"63","size_leaf_vector":"1"}},{"base_weights":[3.9470332E0,-3.2275886E3,4.287606E3,-5.2552555E1,-4.466563E3,8.232358E3,1.2060781E3,1.2715358E3,-3.1691296E3,-5.79308E3,-3.5613716E3,5.0935674E3,1.0065005E4,2.9469834E3,-1.4114967E3,-1.7195763E3,2.2669585E3,-5.058212E3,-2.0993215E3,-4.4288228E3,-6.4429683E3,-1.434257E3,-4.254994E3,6.6114087E3,2.2853887E3,7.183039E3,1.097991E4,1.9032482E3,6.0952437E3,-2.5260443E2,-4.4898213E3,1.24290016E2,-2.4550142E2,3.4257022E2,-1.0279006E2,-5.213532E2,3.36709E0,-5.5878815E1,-3.2391995E2,-2.1030663E2,-5.1973364E2,-6.4770355E2,5.4289307E1,2.4861394E2,-1.8451624E2,-4.610068E2,-2.0017519E2,6.9641174E2,-8.480013E1,9.0237785E1,2.9503534E2,8.3899426E2,5.50408E2,1.1943217E3,8.200117E2,-3.0783094E1,2.6783362E2,4.8564648E2,1.252334E3,-8.018122E1,5.763964E2,-4.6444406E2,1.7751866E2],"categories":[],"categories_nodes":[],"categories_segments":[],"categories_sizes":[],"default_left":[0,0,0,0,0,0,0,0,0,0,0,0,0,0,0,0,0,0,0,0,0,0,0,0,0,0,0,0,0,0,0,0,0,0,0,0,0,0,0,0,0,0,0,0,0,0,0,0,0,0,0,0,0,0,0,0,0,0,0,0,0,0,0],"id":3,"left_children":[1,3,5,7,9,11,13,15,17,19,21,23,25,27,29,31,33,35,37,39,41,43,45,47,49,51,53,55,57,59,61,-1,-1,-1,-1,-1,-1,-1,-1,-1,-1,-1,-1,-1,-1,-1,-1,-1,-1,-1,-1,-1,-1,-1,-1,-1,-1,-1,-1,-1,-1,-1,-1],"loss_changes":[2.7685587E10,4.4842854E9,1.0444116E10,1.3286758E9,9.6398336E8,2.1173494E9,2.2097231E9,6.7679526E8,1.8339283E8,2.649344E8,7.168502E8,5.858844E8,5.4603366E8,9.446108E8,6.909505E8,1.2723822E8,6.5256384E8,2.7065088E7,1.0881923E8,1.856809E8,5.6349696E7,2.011186E8,2.8599706E8,2.4532634E8,4.4239984E7,7.540173E7,3.7871206E8,3.7785626E8,5.1251635E8,4.738388E8,5.9585344E7,0E0,0E0,0E0,0E0,0E0,0E0,0E0,0E0,0E0,0E0,0E0,0E0,0E0,0E0,0E0,0E0,0E0,0E0,0E0,0E0,0E0,0E0,0E0,0E0,0E0,0E0,0E0,0E0,0E0,0E0,0E0,0E0],"parents":[2147483647,0,0,1,1,2,2,3,3,4,4,5,5,6,6,7,7,8,8,9,9,10,10,11,11,12,12,13,13,14,14,15,15,16,16,17,17,18,18,19,19,20,20,21,21,22,22,23,23,24,24,25,25,26,26,27,27,28,28,29,29,30,30],"right_children":[2,4,6,8,10,12,14,16,18,20,22,24,26,28,30,32,34,36,38,40,42,44,46,48,50,52,54,56,58,60,62,-1,-1,-1,-1,-1,-1,-1,-1,-1,-1,-1,-1,-1,-1,-1,-1,-1,-1,-1,-1,-1,-1,-1,-1,-1,-1,-1,-1,-1,-1,-1,-1],"split_conditions":[4.44373E2,7.3166664E1,3.6666667E0,3.6666667E0,2.14387E2,5.78594E2,7.875E1,1.954194E2,2.266657E2,3.6666667E0,3.6666667E0,2.5881904E-1,-2.2192152E-1,7.604255E2,9.0583336E1,2E0,1.2246469E-16,9.0701383E-1,-4.7873384E-1,2.5881904E-1,1.7833334E1,-5E-1,4.054959E2,7.7166664E1,5.142566E2,1.2246469E-16,2.5881904E-1,5.382386E2,6.870528E-1,8.189768E2,8.101683E2,1.24290016E2,-2.4550142E2,3.4257022E2,-1.0279006E2,-5.213532E2,3.36709E0,-5.5878815E1,-3.2391995E2,-2.1030663E2,-5.1973364E2,-6.4770355E2,5.4289307E1,2.4861394E2,-1.8451624E2,-4.610068E2,-2.0017519E2,6.9641174E2,-8.480013E1,9.0237785E1,2.9503534E2,8.3899426E2,5.50408E2,1.1943217E3,8.200117E2,-3.0783094E1,2.6783362E2,4.8564648E2,1.252334E3,-8.018122E1,5.763964E2,-4.6444406E2,1.7751866E2],"split_indices":[5,1,2,2,5,5,1,5,5,2,2,4,3,5,1,2,4,3,3,4,2,4,5,1,5,4,4,5,3,5,5,0,0,0,0,0,0,0,0,0,0,0,0,0,0,0,0,0,0,0,0,0,0,0,0,0,0,0,0,0,0,0,0],"split_type":[0,0,0,0,0,0,0,0,0,0,0,0,0,0,0,0,0,0,0,0,0,0,0,0,0,0,0,0,0,0,0,0,0,0,0,0,0,0,0,0,0,0,0,0,0,0,0,0,0,0,0,0,0,0,0,0,0,0,0,0,0,0,0],"sum_hessian":[1.998E3,1.139E3,8.59E2,3.2E2,8.19E2,3.76E2,4.83E2,2.25E2,9.5E1,3.3E2,4.89E2,1.4E2,2.36E2,2.9E2,1.93E2,5.6E1,1.69E2,3.3E1,6.2E1,1.09E2,2.21E2,1.21E2,3.68E2,9E1,5E1,5.9E1,1.77E2,2.19E2,7.1E1,1.41E2,5.2E1,1.1E1,4.5E1,1.25E2,4.4E1,3.2E1,1E0,2.7E1,3.5E1,2.8E1,8.1E1,2.2E2,1E0,1.1E1,1.1E2,3.17E2,5.1E1,8.6E1,4E0,1.7E1,3.3E1,3.2E1,2.7E1,1.29E2,4.8E1,5.7E1,1.62E2,6.1E1,1E1,1.3E2,1.1E1,5.1E1,1E0],"tree_param":{"num_deleted":"0","num_feature":"6","num_nodes":"63","size_leaf_vector":"1"}},{"base_weights":[5.4958096E0,-2.7733447E3,4.0626646E3,-3.844263E2,-4.2419253E3,7.7464077E3,1.2472094E3,8.9590393E2,-2.7120806E3,-5.0936465E3,-3.1753828E3,6.2225913E3,1.0430216E4,2.4560383E3,-1.6383777E3,-4.4694788E2,2.9197405E3,-3.5157168E3,-1.8317846E1,-3.1428616E3,-5.448478E3,-1.1066443E3,-3.8246775E3,8.300088E3,4.636792E3,1.0742712E4,2.3898467E3,1.4882927E3,5.4132524E3,-2.9963632E2,-3.9617952E3,4.1793568E1,-3.621599E2,4.1617697E2,6.027411E1,-3.9106354E2,1.570963E1,-6.5231346E1,4.2965158E2,-4.787749E2,-1.5022954E2,-4.9508932E2,-6.30926E2,3.749067E2,-1.4803459E2,-3.1055884E2,-4.7722556E2,8.4641095E2,-3.722999E2,2.3546716E2,5.84412E2,1.2504592E3,9.3699805E2,5.474398E2,6.780569E1,6.03108E1,2.7618954E2,2.7917316E2,7.96498E2,-3.9278122E2,8.961773E1,-2.7551263E2,-5.2585315E2],"categories":[],"categories_nodes":[],"categories_segments":[],"categories_sizes":[],"default_left":[0,0,0,0,0,0,0,0,0,0,0,0,0,0,0,0,0,0,0,0,0,0,0,0,0,0,0,0,0,0,0,0,0,0,0,0,0,0,0,0,0,0,0,0,0,0,0,0,0,0,0,0,0,0,0,0,0,0,0,0,0,0,0],"id":4,"left_children":[1,3,5,7,9,11,13,15,17,19,21,23,25,27,29,31,33,35,37,39,41,43,45,47,49,51,53,55,57,59,61,-1,-1,-1,-1,-1,-1,-1,-1,-1,-1,-1,-1,-1,-1,-1,-1,-1,-1,-1,-1,-1,-1,-1,-1,-1,-1,-1,-1,-1,-1,-1,-1],"loss_changes":[2.2548443E10,4.1627433E9,8.4222976E9,1.352445E9,6.514975E8,1.3746463E9,1.6155635E9,7.9759475E8,3.4846938E8,2.646016E8,4.376873E8,7.0936474E8,2.9091226E8,9.249006E8,4.2494518E8,4.8750314E8,3.3419187E8,1.8047142E8,1.0675491E8,1.6821286E8,1.1567514E8,1.5071693E8,1.5552768E8,2.2280038E8,3.47179E8,1.7548083E8,2.7968664E7,2.7679552E8,5.1291648E8,3.853188E8,6.374867E7,0E0,0E0,0E0,0E0,0E0,0E0,0E0,0E0,0E0,0E0,0E0,0E0,0E0,0E0,0E0,0E0,0E0,0E0,0E0,0E0,0E0,0E0,0E0,0E0,0E0,0E0,0E0,0E0,0E0,0E0,0E0,0E0],"parents":[2147483647,0,0,1,1,2,2,3,3,4,4,5,5,6,6,7,7,8,8,9,9,10,10,11,11,12,12,13,13,14,14,15,15,16,16,17,17,18,18,19,19,20,20,21,21,22,22,23,23,24,24,25,25,26,26,27,27,28,28,29,29,30,30],"right_children":[2,4,6,8,10,12,14,16,18,20,22,24,26,28,30,32,34,36,38,40,42,44,46,48,50,52,54,56,58,60,62,-1,-1,-1,-1,-1,-1,-1,-1,-1,-1,-1,-1,-1,-1,-1,-1,-1,-1,-1,-1,-1,-1,-1,-1,-1,-1,-1,-1,-1,-1,-1,-1],"split_conditions":[4.671408E2,7.6583336E1,3.6666667E0,3.6666667E0,2.58956E2,7.002746E2,8.2333336E1,3.357721E2,3.871667E2,3E0,4E0,-2.5881904E-1,7.45E1,7.604255E2,9.0583336E1,2.5881904E-1,1.2246469E-16,7.3333335E0,7.575E1,1.679441E2,5E0,-5E-1,6.5E0,7.7166664E1,5.492615E2,2.6666667E0,2.6666667E0,6.464169E2,8.59648E-2,-8.9963084E-1,9.5E1,4.1793568E1,-3.621599E2,4.1617697E2,6.027411E1,-3.9106354E2,1.570963E1,-6.5231346E1,4.2965158E2,-4.787749E2,-1.5022954E2,-4.9508932E2,-6.30926E2,3.749067E2,-1.4803459E2,-3.1055884E2,-4.7722556E2,8.4641095E2,-3.722999E2,2.3546716E2,5.84412E2,1.2504592E3,9.3699805E2,5.474398E2,6.780569E1,6.03108E1,2.7618954E2,2.7917316E2,7.96498E2,-3.9278122E2,8.961773E1,-2.7551263E2,-5.2585315E2],"split_indices":[5,1,2,2,5,5,1,5,5,2,2,4,1,5,1,4,4,2,1,5,2,4,2,1,5,2,2,5,3,3,1,0,0,0,0,0,0,0,0,0,0,0,0,0,0,0,0,0,0,0,0,0,0,0,0,0,0,0,0,0,0,0,0],"split_type":[0,0,0,0,0,0,0,0,0,0,0,0,0,0,0,0,0,0,0,0,0,0,0,0,0,0,0,0,0,0,0,0,0,0,0,0,0,0,0,0,0,0,0,0,0,0,0,0,0,0,0,0,0,0,0,0,0,0,0,0,0,0,0],"sum_hessian":[1.998E3,1.186E3,8.12E2,4.52E2,7.34E2,3.51E2,4.61E2,2.92E2,1.6E2,4.06E2,3.28E2,2.26E2,1.25E2,3.25E2,1.36E2,1.76E2,1.16E2,1.23E2,3.7E1,6.4E1,3.42E2,7.9E1,2.49E2,9.6E1,1.3E2,1.2E2,5E0,2.46E2,7.9E1,8.7E1,4.9E1,1.39E2,3.7E1,7.5E1,4.1E1,1.11E2,1.2E1,3.3E1,4E0,3.1E1,3.3E1,2.21E2,1.21E2,5E0,7.4E1,1.44E2,1.05E2,9.5E1,1E0,4.6E1,8.4E1,4.9E1,7.1E1,1E0,4E0,1.46E2,1E2,4E1,3.9E1,2.1E1,6.6E1,2.7E1,2.2E1],"tree_param":{"num_deleted":"0","num_feature":"6","num_nodes":"63","size_leaf_vector":"1"}},{"base_weights":[6.063508E0,-2.4401553E3,3.752796E3,-1.0665503E1,-3.6760918E3,7.0972515E3,1.1969905E3,1.102628E3,-2.463307E3,-4.556259E3,-2.6617249E3,5.7219854E3,9.409438E3,2.6123315E3,-9.725023E2,-7.6152576E2,2.2815544E3,-3.0391497E3,1.475381E3,-3.4369592E3,-5.038385E3,-8.465588E2,-3.3008577E3,6.9498765E3,3.5323494E3,1.1047259E4,7.8500137E3,1.7475359E3,4.99027E3,-1.4202872E3,4.820174E3,1.6435442E2,-1.5255182E2,3.327634E2,-6.7887375E1,-4.7437442E2,-2.3282092E2,4.884352E2,3.9600494E1,-4.4368307E2,-2.3052701E2,-4.4857315E2,-5.677166E2,-2.0362909E2,1.8259382E1,-3.607717E2,-1.9972773E1,8.789788E2,5.4645013E2,2.3963904E2,5.7994794E2,1.1299713E3,2.568224E2,8.291904E2,6.2381214E1,-3.2076126E1,2.2316833E2,3.9037265E2,1.0660765E3,-4.9294167E1,-3.689742E2,6.6007416E2,6.511172E1],"categories":[],"categories_nodes":[],"categories_segments":[],"categories_sizes":[],"default_left":[0,0,0,0,0,0,0,0,0,0,0,0,0,0,0,0,0,0,0,0,0,0,0,0,0,0,0,0,0,0,0,0,0,0,0,0,0,0,0,0,0,0,0,0,0,0,0,0,0,0,0,0,0,0,0,0,0,0,0,0,0,0,0],"id":5,"left_children":[1,3,5,7,9,11,13,15,17,19,21,23,25,27,29,31,33,35,37,39,41,43,45,47,49,51,53,55,57,59,61,-1,-1,-1,-1,-1,-1,-1,-1,-1,-1,-1,-1,-1,-1,-1,-1,-1,-1,-1,-1,-1,-1,-1,-1,-1,-1,-1,-1,-1,-1,-1,-1],"loss_changes":[1.8330647E10,3.6332216E9,6.7442493E9,1.1194947E9,7.0390784E8,1.0336768E9,1.3812273E9,6.214889E8,2.9479622E8,2.1365043E8,4.3225523E8,5.5888384E8,2.3508992E8,5.506286E8,4.6855533E8,2.046273E8,5.3801274E8,1.2468442E8,6.061832E7,1.3913562E8,7.938253E7,1.21589E8,2.628754E8,3.291172E8,1.9213158E8,9.727283E7,2.1196416E8,2.0198938E8,4.0199283E8,3.475396E8,9.22049E7,0E0,0E0,0E0,0E0,0E0,0E0,0E0,0E0,0E0,0E0,0E0,0E0,0E0,0E0,0E0,0E0,0E0,0E0,0E0,0E0,0E0,0E0,0E0,0E0,0E0,0E0,0E0,0E0,0E0,0E0,0E0,0E0],"parents":[2147483647,0,0,1,1,2,2,3,3,4,4,5,5,6,6,7,7,8,8,9,9,10,10,11,11,12,12,13,13,14,14,15,15,16,16,17,17,18,18,19,19,20,20,21,21,22,22,23,23,24,24,25,25,26,26,27,27,28,28,29,29,30,30],"right_children":[2,4,6,8,10,12,14,16,18,20,22,24,26,28,30,32,34,36,38,40,42,44,46,48,50,52,54,56,58,60,62,-1,-1,-1,-1,-1,-1,-1,-1,-1,-1,-1,-1,-1,-1,-1,-1,-1,-1,-1,-1,-1,-1,-1,-1,-1,-1,-1,-1,-1,-1,-1,-1],"split_conditions":[4.789788E2,7.475E1,3.6666667E0,3.8333333E0,2.58956E2,7.002746E2,7.875E1,2.561214E2,4.262583E2,3.6666667E0,4E0,2.5881904E-1,3E0,7.604255E2,8.189768E2,2E0,2.5881904E-1,2.090771E2,8.791667E0,1.679441E2,8.8833336E1,3.300283E2,9E0,2.6666667E0,6.291193E2,5E-1,7.45E1,5.382386E2,6.870528E-1,9.0583336E1,1.8822671E-1,1.6435442E2,-1.5255182E2,3.327634E2,-6.7887375E1,-4.7437442E2,-2.3282092E2,4.884352E2,3.9600494E1,-4.4368307E2,-2.3052701E2,-4.4857315E2,-5.677166E2,-2.0362909E2,1.8259382E1,-3.607717E2,-1.9972773E1,8.789788E2,5.4645013E2,2.3963904E2,5.7994794E2,1.1299713E3,2.568224E2,8.291904E2,6.2381214E1,-3.2076126E1,2.2316833E2,3.9037265E2,1.0660765E3,-4.9294167E1,-3.689742E2,6.6007416E2,6.511172E1],"split_indices":[5,1,2,2,5,5,1,5,5,2,2,4,2,5,5,2,4,5,0,5,1,5,2,2,5,4,1,5,3,1,3,0,0,0,0,0,0,0,0,0,0,0,0,0,0,0,0,0,0,0,0,0,0,0,0,0,0,0,0,0,0,0,0],"split_type":[0,0,0,0,0,0,0,0,0,0,0,0,0,0,0,0,0,0,0,0,0,0,0,0,0,0,0,0,0,0,0,0,0,0,0,0,0,0,0,0,0,0,0,0,0,0,0,0,0,0,0,0,0,0,0,0,0,0,0,0,0,0,0],"sum_hessian":[1.998E3,1.209E3,7.89E2,4.08E2,8.01E2,3.41E2,4.48E2,2.81E2,1.27E2,4.27E2,3.74E2,2.16E2,1.25E2,2.71E2,1.77E2,1.09E2,1.72E2,1.11E2,1.6E1,1.31E2,2.96E2,9.8E1,2.76E2,1.37E2,7.9E1,5.8E1,6.7E1,2E2,7.1E1,1.65E2,1.2E1,2.6E1,8.3E1,1.27E2,4.5E1,3.1E1,8E1,3E0,1.3E1,6.8E1,6.3E1,1.63E2,1.33E2,4.5E1,5.3E1,2.51E2,2.5E1,5.9E1,7.8E1,5.4E1,2.5E1,5.6E1,2E0,6.3E1,4E0,3.8E1,1.62E2,6.1E1,1E1,1.18E2,4.7E1,8E0,4E0],"tree_param":{"num_deleted":"0","num_feature":"6","num_nodes":"63","size_leaf_vector":"1"}},{"base_weights":[7.6176167E0,-2.383455E3,3.1259202E3,-4.8099838E2,-3.5092686E3,6.023048E3,8.3636115E2,5.5435187E2,-2.3049434E3,-2.9798071E3,-4.716864E3,3.7080293E3,7.402356E3,-4.0470642E2,2.8755303E3,1.1854263E3,-2.3161147E3,-2.7335393E3,1.0613899E3,-4.191478E3,-2.266424E3,-5.252998E3,-1.9051687E3,4.8507407E3,1.5710497E3,5.0340986E3,8.1680615E3,2.1681555E2,-3.6308982E3,3.3061382E3,-3.0429385E3,-3.0946005E1,2.7103055E2,-4.6844742E2,-6.6000465E1,-3.1703354E2,1.2306456E1,-2.3931875E1,5.6737006E2,-2.8342545E2,-4.6530524E2,-1.3270624E2,-2.7165524E2,-5.635812E2,-4.1449683E2,-2.691712E2,5.0601047E2,3.11189E2,6.318692E2,1.7361232E2,-1.7038588E2,5.6501886E2,2.5622125E2,8.92639E2,5.973999E2,1.472216E2,-5.129651E1,-4.104484E2,-6.9070984E1,3.6204214E2,-1.1860072E2,-2.2150343E1,-3.867219E2],"categories":[],"categories_nodes":[],"categories_segments":[],"categories_sizes":[],"default_left":[0,0,0,0,0,0,0,0,0,0,0,0,0,0,0,0,0,0,0,0,0,0,0,0,0,0,0,0,0,0,0,0,0,0,0,0,0,0,0,0,0,0,0,0,0,0,0,0,0,0,0,0,0,0,0,0,0,0,0,0,0,0,0],"id":6,"left_children":[1,3,5,7,9,11,13,15,17,19,21,23,25,27,29,31,33,35,37,39,41,43,45,47,49,51,53,55,57,59,61,-1,-1,-1,-1,-1,-1,-1,-1,-1,-1,-1,-1,-1,-1,-1,-1,-1,-1,-1,-1,-1,-1,-1,-1,-1,-1,-1,-1,-1,-1,-1,-1],"loss_changes":[1.4912171E10,2.4228424E9,5.752532E9,7.9819174E8,4.4054016E8,1.195519E9,1.2311066E9,4.918446E8,2.2364934E8,4.200996E8,3.1409357E8,3.464622E8,3.922811E8,6.083474E8,4.789916E8,5.0689248E8,1.8909917E8,1.700846E8,1.0934472E8,1.0145434E8,1.2958746E8,5.298995E7,2.1084592E8,2.2027648E8,3.1069352E7,7.841997E7,2.444974E8,2.3437776E8,6.539411E7,2.4712435E8,2.9376896E7,0E0,0E0,0E0,0E0,0E0,0E0,0E0,0E0,0E0,0E0,0E0,0E0,0E0,0E0,0E0,0E0,0E0,0E0,0E0,0E0,0E0,0E0,0E0,0E0,0E0,0E0,0E0,0E0,0E0,0E0,0E0,0E0],"parents":[2147483647,0,0,1,1,2,2,3,3,4,4,5,5,6,6,7,7,8,8,9,9,10,10,11,11,12,12,13,13,14,14,15,15,16,16,17,17,18,18,19,19,20,20,21,21,22,22,23,23,24,24,25,25,26,26,27,27,28,28,29,29,30,30],"right_children":[2,4,6,8,10,12,14,16,18,20,22,24,26,28,30,32,34,36,38,40,42,44,46,48,50,52,54,56,58,60,62,-1,-1,-1,-1,-1,-1,-1,-1,-1,-1,-1,-1,-1,-1,-1,-1,-1,-1,-1,-1,-1,-1,-1,-1,-1,-1,-1,-1,-1,-1,-1,-1],"split_conditions":[4.388542E2,7.6583336E1,3.8333333E0,3.6666667E0,6.5E0,5.78594E2,6.758711E2,5E-1,7.3333335E0,1.947101E2,9E0,2.5881904E-1,-2.2192152E-1,8.886667E1,9.35E1,2.604235E2,3.019129E2,3.998435E2,7.4916664E1,1.2246469E-16,3.6666667E0,1.3241667E1,4.080648E2,-1.8822671E-1,5.709376E2,-5.086709E-1,2.5881904E-1,7.2416664E1,1.6308332E1,9.209713E-1,9.5E1,-3.0946005E1,2.7103055E2,-4.6844742E2,-6.6000465E1,-3.1703354E2,1.2306456E1,-2.3931875E1,5.6737006E2,-2.8342545E2,-4.6530524E2,-1.3270624E2,-2.7165524E2,-5.635812E2,-4.1449683E2,-2.691712E2,5.0601047E2,3.11189E2,6.318692E2,1.7361232E2,-1.7038588E2,5.6501886E2,2.5622125E2,8.92639E2,5.973999E2,1.472216E2,-5.129651E1,-4.104484E2,-6.9070984E1,3.6204214E2,-1.1860072E2,-2.2150343E1,-3.867219E2],"split_indices":[5,1,2,2,2,5,5,4,2,5,2,4,3,1,1,5,5,5,1,4,2,0,5,3,5,3,4,1,0,3,1,0,0,0,0,0,0,0,0,0,0,0,0,0,0,0,0,0,0,0,0,0,0,0,0,0,0,0,0,0,0,0,0],"split_type":[0,0,0,0,0,0,0,0,0,0,0,0,0,0,0,0,0,0,0,0,0,0,0,0,0,0,0,0,0,0,0,0,0,0,0,0,0,0,0,0,0,0,0,0,0,0,0,0,0,0,0,0,0,0,0,0,0,0,0,0,0,0,0],"sum_hessian":[1.998E3,1.131E3,8.67E2,4.21E2,7.1E2,3.82E2,4.85E2,2.69E2,1.52E2,4.96E2,2.14E2,1.44E2,2.38E2,3.02E2,1.83E2,2.21E2,4.8E1,1.35E2,1.7E1,1.82E2,3.14E2,1.79E2,3.5E1,9.3E1,5.1E1,6E1,1.78E2,2.54E2,4.8E1,1.71E2,1.2E1,1.12E2,1.09E2,1.9E1,2.9E1,1.17E2,1.8E1,1.4E1,3E0,4.8E1,1.34E2,1.03E2,2.11E2,1.3E2,4.9E1,3.2E1,3E0,4.4E1,4.9E1,4.9E1,2E0,4.7E1,1.3E1,1.3E2,4.8E1,9.3E1,1.61E2,4.1E1,7E0,1.6E2,1.1E1,3E0,9E0],"tree_param":{"num_deleted":"0","num_feature":"6","num_nodes":"63","size_leaf_vector":"1"}},{"base_weights":[7.235354E0,2.8130486E3,-2.1662183E3,4.189561E2,4.991437E3,-3.314091E3,-4.5733606E2,1.3396317E3,-1.7925743E3,6.340062E3,2.8615054E3,-2.8696157E3,-4.4734365E3,8.050321E1,-3.0510293E3,-1.4852042E2,2.75978E3,-3.5456267E3,-1.1103927E3,5.2239927E3,8.0852954E3,1.9760818E3,4.721954E3,-3.9897114E3,-2.4146785E3,-4.8717134E3,-2.3377454E3,-4.8386923E2,2.2155266E3,-2.158189E3,-4.086285E3,2.8211897E1,-3.6381827E2,3.7445047E2,5.011453E1,-1.1611773E2,-4.0151096E2,-1.569656E2,6.884155E1,6.1423987E2,3.3453375E2,9.950256E2,6.775998E2,1.0326342E2,3.332863E2,2.6721292E2,6.9005695E2,-2.7607294E2,-4.470798E2,-8.545732E1,-2.7398917E2,-5.0981882E2,-3.350286E2,-6.1925625E1,-4.1295166E2,-7.5915146E1,2.852524E2,1.4850829E2,3.92943E2,-2.5759406E2,9.168941E1,-4.340528E2,7.247982E0],"categories":[],"categories_nodes":[],"categories_segments":[],"categories_sizes":[],"default_left":[0,0,0,0,0,0,0,0,0,0,0,0,0,0,0,0,0,0,0,0,0,0,0,0,0,0,0,0,0,0,0,0,0,0,0,0,0,0,0,0,0,0,0,0,0,0,0,0,0,0,0,0,0,0,0,0,0,0,0,0,0,0,0],"id":7,"left_children":[1,3,5,7,9,11,13,15,17,19,21,23,25,27,29,31,33,35,37,39,41,43,45,47,49,51,53,55,57,59,61,-1,-1,-1,-1,-1,-1,-1,-1,-1,-1,-1,-1,-1,-1,-1,-1,-1,-1,-1,-1,-1,-1,-1,-1,-1,-1,-1,-1,-1,-1,-1,-1],"loss_changes":[1.2196606E10,4.550834E9,2.2091843E9,8.51456E8,1.2945807E9,3.3447578E8,6.335712E8,6.23862E8,1.4315872E8,5.0119885E8,2.855332E8,2.4005734E8,1.4597171E8,4.5533757E8,6.327776E7,2.1893038E8,3.339675E8,3.339936E7,7.5431976E7,2.7794074E8,1.9384883E8,1.540047E8,2.3611008E8,7.043174E7,1.75744E8,3.632717E7,9.28961E7,2.7678195E8,9.306538E7,5.888517E7,3.732141E7,0E0,0E0,0E0,0E0,0E0,0E0,0E0,0E0,0E0,0E0,0E0,0E0,0E0,0E0,0E0,0E0,0E0,0E0,0E0,0E0,0E0,0E0,0E0,0E0,0E0,0E0,0E0,0E0,0E0,0E0,0E0,0E0],"parents":[2147483647,0,0,1,1,2,2,3,3,4,4,5,5,6,6,7,7,8,8,9,9,10,10,11,11,12,12,13,13,14,14,15,15,16,16,17,17,18,18,19,19,20,20,21,21,22,22,23,23,24,24,25,25,26,26,27,27,28,28,29,29,30,30],"right_children":[2,4,6,8,10,12,14,16,18,20,22,24,26,28,30,32,34,36,38,40,42,44,46,48,50,52,54,56,58,60,62,-1,-1,-1,-1,-1,-1,-1,-1,-1,-1,-1,-1,-1,-1,-1,-1,-1,-1,-1,-1,-1,-1,-1,-1,-1,-1,-1,-1,-1,-1,-1,-1],"split_conditions":[7.3416664E1,5.162786E2,3.70291E2,3.8333333E0,3.6666667E0,6.5E0,9.0583336E1,3.357721E2,2.266657E2,7.162759E2,7.604255E2,1.643581E2,8.833333E0,6.691879E2,9.5E1,5E-1,1.2246469E-16,6.0333333E0,9.033558E-1,2.5881904E-1,2.6666667E0,1.2246469E-16,1.2020805E-1,-2.5881904E-1,2.8333333E0,3.271373E2,-1.8822671E-1,7.3333335E0,7E0,7.162759E2,1.2E1,2.8211897E1,-3.6381827E2,3.7445047E2,5.011453E1,-1.1611773E2,-4.0151096E2,-1.569656E2,6.884155E1,6.1423987E2,3.3453375E2,9.950256E2,6.775998E2,1.0326342E2,3.332863E2,2.6721292E2,6.9005695E2,-2.7607294E2,-4.470798E2,-8.545732E1,-2.7398917E2,-5.0981882E2,-3.350286E2,-6.1925625E1,-4.1295166E2,-7.5915146E1,2.852524E2,1.4850829E2,3.92943E2,-2.5759406E2,9.168941E1,-4.340528E2,7.247982E0],"split_indices":[1,5,5,2,2,2,1,5,5,5,5,5,2,5,1,4,4,0,3,4,2,4,3,4,2,5,3,2,2,5,2,0,0,0,0,0,0,0,0,0,0,0,0,0,0,0,0,0,0,0,0,0,0,0,0,0,0,0,0,0,0,0,0],"split_type":[0,0,0,0,0,0,0,0,0,0,0,0,0,0,0,0,0,0,0,0,0,0,0,0,0,0,0,0,0,0,0,0,0,0,0,0,0,0,0,0,0,0,0,0,0,0,0,0,0,0,0,0,0,0,0,0,0,0,0,0,0,0,0],"sum_hessian":[1.998E3,8.72E2,1.126E3,4.16E2,4.56E2,6.73E2,4.53E2,2.94E2,1.22E2,2.78E2,1.78E2,4.89E2,1.84E2,3.76E2,7.7E1,1.44E2,1.5E2,3.3E1,8.9E1,1.72E2,1.06E2,1.22E2,5.6E1,1.39E2,3.5E2,1.54E2,3E1,2.98E2,7.8E1,4.3E1,3.4E1,1.29E2,1.5E1,1.04E2,4.6E1,6E0,2.7E1,7.1E1,1.8E1,1.14E2,5.8E1,4.1E1,6.5E1,7.3E1,4.9E1,3E1,2.6E1,4.1E1,9.8E1,6.1E1,2.89E2,1.32E2,2.2E1,1.6E1,1.4E1,2.76E2,2.2E1,5.6E1,2.2E1,3.8E1,5E0,3.2E1,2E0],"tree_param":{"num_deleted":"0","num_feature":"6","num_nodes":"63","size_leaf_vector":"1"}},{"base_weights":[7.13922E0,-1.6853179E3,2.9642795E3,-8.427392E1,-2.8031572E3,5.439943E3,1.0839845E3,1.2455676E3,-1.7895739E3,-3.912025E3,-2.249766E3,5.9943804E3,2.4632458E3,1.7563438E3,-1.7534744E3,-4.7164413E2,2.5286465E3,-2.6348435E3,5.433319E2,-5.0133325E2,-3.6295632E3,-1.4596882E3,-2.9018757E3,4.085294E3,6.8472476E3,1.289918E3,4.3714863E3,1.1278961E3,3.570111E3,-2.4115793E3,6.473082E2,1.0959125E2,-1.5379771E2,5.199728E2,1.4260712E2,-3.5366998E2,-1.9614433E2,1.5532653E1,1.6491396E2,-3.754127E2,-1.5394016E2,-1.8210579E2,1.0953112E2,-2.2211922E2,-3.617299E2,6.578233E2,3.4019815E2,7.7487726E2,5.828269E2,-2.4479683E2,1.4832259E2,4.67937E2,-5.8520996E1,1.0309092E2,8.801846E2,1.4706425E2,5.5407263E2,-1.5742549E2,-3.3389853E2,-2.5291983E2,1.4512228E2],"categories":[],"categories_nodes":[],"categories_segments":[],"categories_sizes":[],"default_left":[0,0,0,0,0,0,0,0,0,0,0,0,0,0,0,0,0,0,0,0,0,0,0,0,0,0,0,0,0,0,0,0,0,0,0,0,0,0,0,0,0,0,0,0,0,0,0,0,0,0,0,0,0,0,0,0,0,0,0,0,0],"id":8,"left_children":[1,3,5,7,9,11,13,15,17,19,21,23,25,27,29,31,33,35,37,-1,39,41,43,45,47,49,51,53,55,57,59,-1,-1,-1,-1,-1,-1,-1,-1,-1,-1,-1,-1,-1,-1,-1,-1,-1,-1,-1,-1,-1,-1,-1,-1,-1,-1,-1,-1,-1,-1],"loss_changes":[1.0009657E10,2.276275E9,3.3829268E9,1.1905452E9,4.5081344E8,5.034578E8,7.948133E8,6.511714E8,4.549765E8,5.895091E7,2.5440358E8,4.0187085E8,1.0854976E8,3.7896544E8,1.2795837E8,2.1397069E8,4.9030144E8,9.569843E7,2.6345522E7,0E0,4.655309E7,2.1343011E8,1.2539674E8,1.207113E8,1.2111053E8,2.7475472E7,3.1734048E7,1.777386E8,3.4765453E8,4.366557E7,4.9635944E7,0E0,0E0,0E0,0E0,0E0,0E0,0E0,0E0,0E0,0E0,0E0,0E0,0E0,0E0,0E0,0E0,0E0,0E0,0E0,0E0,0E0,0E0,0E0,0E0,0E0,0E0,0E0,0E0,0E0,0E0],"parents":[2147483647,0,0,1,1,2,2,3,3,4,4,5,5,6,6,7,7,8,8,9,9,10,10,11,11,12,12,13,13,14,14,15,15,16,16,17,17,18,18,20,20,21,21,22,22,23,23,24,24,25,25,26,26,27,27,28,28,29,29,30,30],"right_children":[2,4,6,8,10,12,14,16,18,20,22,24,26,28,30,32,34,36,38,-1,40,42,44,46,48,50,52,54,56,58,60,-1,-1,-1,-1,-1,-1,-1,-1,-1,-1,-1,-1,-1,-1,-1,-1,-1,-1,-1,-1,-1,-1,-1,-1,-1,-1,-1,-1,-1,-1],"split_conditions":[5.033746E2,3.8333333E0,3.8333333E0,2.5881904E-1,2.14387E2,5E-1,8.6833336E1,2.561214E2,3.569921E2,1.189297E2,8.1333336E1,-1.8822671E-1,6.291193E2,7.604255E2,1.6308332E1,2.8333333E0,2.6666667E0,1.915211E2,8.660254E-1,-5.0133325E2,7.3333335E0,7.3333335E0,6.5E0,5.5083332E1,2.6666667E0,8.216666E0,7.048848E2,1.7833334E1,8.59648E-2,9.375E1,7E0,1.0959125E2,-1.5379771E2,5.199728E2,1.4260712E2,-3.5366998E2,-1.9614433E2,1.5532653E1,1.6491396E2,-3.754127E2,-1.5394016E2,-1.8210579E2,1.0953112E2,-2.2211922E2,-3.617299E2,6.578233E2,3.4019815E2,7.7487726E2,5.828269E2,-2.4479683E2,1.4832259E2,4.67937E2,-5.8520996E1,1.0309092E2,8.801846E2,1.4706425E2,5.5407263E2,-1.5742549E2,-3.3389853E2,-2.5291983E2,1.4512228E2],"split_indices":[5,2,2,4,5,4,1,5,5,5,1,3,5,5,0,2,2,5,4,0,2,2,2,1,2,0,5,2,3,1,2,0,0,0,0,0,0,0,0,0,0,0,0,0,0,0,0,0,0,0,0,0,0,0,0,0,0,0,0,0,0],"split_type":[0,0,0,0,0,0,0,0,0,0,0,0,0,0,0,0,0,0,0,0,0,0,0,0,0,0,0,0,0,0,0,0,0,0,0,0,0,0,0,0,0,0,0,0,0,0,0,0,0,0,0,0,0,0,0,0,0,0,0,0,0],"sum_hessian":[1.998E3,1.271E3,7.27E2,5.23E2,7.48E2,3.13E2,4.14E2,2.94E2,2.29E2,2.47E2,5.01E2,2.63E2,5E1,3.35E2,7.9E1,1.26E2,1.68E2,1.68E2,6.1E1,4.7E1,2E2,2.28E2,2.73E2,8.3E1,1.8E2,3.2E1,1.8E1,2.5E2,8.5E1,6.2E1,1.7E1,5.1E1,7.5E1,4.8E1,1.2E2,7E1,9.8E1,4.6E1,1.5E1,1.88E2,1.2E1,2E2,2.8E1,1.42E2,1.31E2,1.6E1,6.7E1,9.2E1,8.8E1,1E0,3.1E1,1.7E1,1E0,2.48E2,2E0,4.2E1,4.3E1,3.4E1,2.8E1,3E0,1.4E1],"tree_param":{"num_deleted":"0","num_feature":"6","num_nodes":"61","size_leaf_vector":"1"}},{"base_weights":[7.5838675E0,2.6531833E3,-1.5362122E3,6.618262E2,4.28397E3,-2.6290852E3,-5.3800705E1,-2.2712852E3,1.2126912E3,6.239755E3,3.4287249E3,-1.6038618E3,-3.0824573E3,9.5502734E2,-1.1900149E3,-5.0457205E2,-3.4149226E3,2.9182698E3,5.546136E2,7.2340435E3,3.3389753E3,7.6943584E3,3.1283125E3,6.472999E1,-2.296892E3,-4.2484497E3,-2.884148E3,2.7976384E3,3.1903848E2,-1.4983859E3,1.5599312E3,-2.0652147E2,5.3473907E1,-3.615048E2,1.39448E2,4.5602692E2,-7.4517914E1,1.338215E2,-1.1804241E2,6.2533716E2,8.8987616E2,1.0360419E2,4.4433493E2,7.8798145E2,2.2708018E2,2.221212E2,4.272277E2,1.7110027E2,-7.781367E1,-3.1344162E2,-1.3170726E2,-4.338674E2,-1.6525293E2,-2.93837E2,8.35425E1,4.6433136E2,1.5460336E2,-4.110633E1,1.9514024E2,-1.7053764E2,1.7874243E2,-2.9186655E1,5.762959E2],"categories":[],"categories_nodes":[],"categories_segments":[],"categories_sizes":[],"default_left":[0,0,0,0,0,0,0,0,0,0,0,0,0,0,0,0,0,0,0,0,0,0,0,0,0,0,0,0,0,0,0,0,0,0,0,0,0,0,0,0,0,0,0,0,0,0,0,0,0,0,0,0,0,0,0,0,0,0,0,0,0,0,0],"id":9,"left_children":[1,3,5,7,9,11,13,15,17,19,21,23,25,27,29,31,33,35,37,39,41,43,45,47,49,51,53,55,57,59,61,-1,-1,-1,-1,-1,-1,-1,-1,-1,-1,-1,-1,-1,-1,-1,-1,-1,-1,-1,-1,-1,-1,-1,-1,-1,-1,-1,-1,-1,-1,-1,-1],"loss_changes":[8.168523E9,2.3905572E9,2.0460293E9,5.407985E8,6.560394E8,3.329705E8,6.166699E8,1.0536234E8,3.1377674E8,3.2771942E8,3.3986125E8,2.6033517E8,1.0405478E8,3.3309325E8,2.1688227E8,3.6788196E7,3.5840576E7,4.7259782E8,2.7893357E8,9.128141E7,7.932538E7,2.1152E5,2.6757376E8,9.42998E7,1.2635072E8,9.459328E6,8.978355E7,1.6145536E8,2.5465382E8,1.581182E8,2.040441E8,0E0,0E0,0E0,0E0,0E0,0E0,0E0,0E0,0E0,0E0,0E0,0E0,0E0,0E0,0E0,0E0,0E0,0E0,0E0,0E0,0E0,0E0,0E0,0E0,0E0,0E0,0E0,0E0,0E0,0E0,0E0,0E0],"parents":[2147483647,0,0,1,1,2,2,3,3,4,4,5,5,6,6,7,7,8,8,9,9,10,10,11,11,12,12,13,13,14,14,15,15,16,16,17,17,18,18,19,19,20,20,21,21,22,22,23,23,24,24,25,25,26,26,27,27,28,28,29,29,30,30],"right_children":[2,4,6,8,10,12,14,16,18,20,22,24,26,28,30,32,34,36,38,40,42,44,46,48,50,52,54,56,58,60,62,-1,-1,-1,-1,-1,-1,-1,-1,-1,-1,-1,-1,-1,-1,-1,-1,-1,-1,-1,-1,-1,-1,-1,-1,-1,-1,-1,-1,-1,-1,-1,-1],"split_conditions":[7.075E1,5.162786E2,3.70291E2,1.876306E2,2.8333333E0,3.6666667E0,8.1E1,3E0,2.6666667E0,2.5881904E-1,5.0833332E1,2.5881904E-1,1.324339E2,3.8333333E0,1.7808332E1,1.217569E2,7.3333335E0,1.2246469E-16,1.5766666E1,7.352883E2,5.899224E2,8.652779E2,7.162759E2,2.6666667E0,8.660254E-1,1.6733334E1,1.8716667E1,2.5881904E-1,6.691879E2,1.65E1,8.59648E-2,-2.0652147E2,5.3473907E1,-3.615048E2,1.39448E2,4.5602692E2,-7.4517914E1,1.338215E2,-1.1804241E2,6.2533716E2,8.8987616E2,1.0360419E2,4.4433493E2,7.8798145E2,2.2708018E2,2.221212E2,4.272277E2,1.7110027E2,-7.781367E1,-3.1344162E2,-1.3170726E2,-4.338674E2,-1.6525293E2,-2.93837E2,8.35425E1,4.6433136E2,1.5460336E2,-4.110633E1,1.9514024E2,-1.7053764E2,1.7874243E2,-2.9186655E1,5.762959E2],"split_indices":[1,5,5,5,2,2,1,2,2,4,1,4,5,2,0,5,2,4,0,5,5,5,5,2,4,0,0,4,5,2,3,0,0,0,0,0,0,0,0,0,0,0,0,0,0,0,0,0,0,0,0,0,0,0,0,0,0,0,0,0,0,0,0],"split_type":[0,0,0,0,0,0,0,0,0,0,0,0,0,0,0,0,0,0,0,0,0,0,0,0,0,0,0,0,0,0,0,0,0,0,0,0,0,0,0,0,0,0,0,0,0,0,0,0,0,0,0,0,0,0,0,0,0,0,0,0,0,0,0],"sum_hessian":[1.998E3,7.36E2,1.262E3,3.32E2,4.04E2,7.26E2,5.36E2,5.2E1,2.8E2,1.21E2,2.83E2,2.24E2,5.02E2,2.84E2,2.52E2,2.1E1,3.1E1,7.7E1,2.03E2,8.9E1,3.2E1,1.7E1,2.66E2,6.6E1,1.58E2,7E1,4.32E2,7.2E1,2.12E2,2.27E2,2.5E1,8E0,1.3E1,3E1,1E0,5.3E1,2.4E1,1.4E2,6.3E1,5.9E1,3E1,1.1E1,2.1E1,1.6E1,1E0,1.5E2,1.16E2,2.2E1,4.4E1,8.4E1,7.4E1,6.7E1,3E0,4.26E2,6E0,2.8E1,4.4E1,1.47E2,6.5E1,2.14E2,1.3E1,1.8E1,7E0],"tree_param":{"num_deleted":"0","num_feature":"6","num_nodes":"63","size_leaf_vector":"1"}},{"base_weights":[8.784739E0,-1.4746198E3,2.2808237E3,-1.685128E2,-2.3068362E3,4.187465E3,5.390735E2,1.4640469E3,-7.4807983E2,-1.9102084E3,-3.1986938E3,5.120628E3,3.008657E3,-3.811621E2,1.902423E3,2.8405095E3,-7.7452954E2,-2.77439E3,-2.2974255E2,-2.8101523E3,-1.4084014E3,-3.6099697E3,-1.0689604E3,4.0529883E3,6.288536E3,1.8809467E3,4.300204E3,5.3098774E1,-2.5123726E3,2.1800627E3,-2.6745294E2,-7.587634E1,3.8729498E2,-2.1814954E2,3.0835653E1,-3.042685E2,-5.8806057E1,1.357313E2,-5.9069496E1,-1.76228E2,-3.1696753E2,-2.0844048E2,-9.046259E1,-3.9375644E2,-2.7822498E2,6.614802E1,-3.4896588E2,3.1359717E2,5.756232E2,7.667457E2,4.6291226E2,3.67571E2,1.5116852E2,1.7837762E2,4.7760474E2,-6.47797E0,8.0904285E2,-2.9082953E2,-1.1728865E1,1.052857E2,3.322673E2],"categories":[],"categories_nodes":[],"categories_segments":[],"categories_sizes":[],"default_left":[0,0,0,0,0,0,0,0,0,0,0,0,0,0,0,0,0,0,0,0,0,0,0,0,0,0,0,0,0,0,0,0,0,0,0,0,0,0,0,0,0,0,0,0,0,0,0,0,0,0,0,0,0,0,0,0,0,0,0,0,0],"id":10,"left_children":[1,3,5,7,9,11,13,15,17,19,21,23,25,27,29,31,33,35,37,39,41,43,45,47,49,51,53,55,57,59,-1,-1,-1,-1,-1,-1,-1,-1,-1,-1,-1,-1,-1,-1,-1,-1,-1,-1,-1,-1,-1,-1,-1,-1,-1,-1,-1,-1,-1,-1,-1],"loss_changes":[6.7406986E9,1.3148372E9,2.6212483E9,4.4769117E8,2.553001E8,3.9930112E8,5.201307E8,3.842834E8,3.659215E8,2.2816371E8,1.9409638E8,2.3511603E8,2.380585E8,2.2965773E8,2.18045E8,2.890732E8,7.3804696E7,3.9857984E7,1.6062731E8,6.3356416E7,1.1117824E8,4.0293376E7,1.6148557E8,1.5688154E8,1.8874982E8,5.5415296E7,8.487974E7,1.9664174E8,3.9486144E7,1.9999891E8,0E0,0E0,0E0,0E0,0E0,0E0,0E0,0E0,0E0,0E0,0E0,0E0,0E0,0E0,0E0,0E0,0E0,0E0,0E0,0E0,0E0,0E0,0E0,0E0,0E0,0E0,0E0,0E0,0E0,0E0,0E0],"parents":[2147483647,0,0,1,1,2,2,3,3,4,4,5,5,6,6,7,7,8,8,9,9,10,10,11,11,12,12,13,13,14,14,15,15,16,16,17,17,18,18,19,19,20,20,21,21,22,22,23,23,24,24,25,25,26,26,27,27,28,28,29,29],"right_children":[2,4,6,8,10,12,14,16,18,20,22,24,26,28,30,32,34,36,38,40,42,44,46,48,50,52,54,56,58,60,-1,-1,-1,-1,-1,-1,-1,-1,-1,-1,-1,-1,-1,-1,-1,-1,-1,-1,-1,-1,-1,-1,-1,-1,-1,-1,-1,-1,-1,-1,-1],"split_conditions":[4.789788E2,7.6583336E1,4E0,2.6666667E0,6.5E0,1.2246469E-16,6.821842E2,1.2246469E-16,1.995226E2,1.947101E2,9E0,5.808003E-1,6.532331E2,8.886667E1,9.5E1,1.643581E2,2.813146E2,9.0701383E-1,6.0083332E1,1.2246469E-16,-7.8564984E-1,1.3033334E1,-1.8822671E-1,2.0175E1,8.9198136E-1,5.8E1,-3.8566342E-1,1.7833334E1,1.6308332E1,8.59648E-2,-2.6745294E2,-7.587634E1,3.8729498E2,-2.1814954E2,3.0835653E1,-3.042685E2,-5.8806057E1,1.357313E2,-5.9069496E1,-1.76228E2,-3.1696753E2,-2.0844048E2,-9.046259E1,-3.9375644E2,-2.7822498E2,6.614802E1,-3.4896588E2,3.1359717E2,5.756232E2,7.667457E2,4.6291226E2,3.67571E2,1.5116852E2,1.7837762E2,4.7760474E2,-6.47797E0,8.0904285E2,-2.9082953E2,-1.1728865E1,1.052857E2,3.322673E2],"split_indices":[5,1,2,2,2,4,5,4,5,5,2,3,5,1,1,5,5,3,1,4,3,0,3,0,3,1,3,2,0,3,0,0,0,0,0,0,0,0,0,0,0,0,0,0,0,0,0,0,0,0,0,0,0,0,0,0,0,0,0,0,0],"split_type":[0,0,0,0,0,0,0,0,0,0,0,0,0,0,0,0,0,0,0,0,0,0,0,0,0,0,0,0,0,0,0,0,0,0,0,0,0,0,0,0,0,0,0,0,0,0,0,0,0,0,0,0,0,0,0,0,0,0,0,0,0],"sum_hessian":[1.998E3,1.209E3,7.89E2,4.71E2,7.38E2,3.76E2,4.13E2,1.23E2,3.48E2,5.13E2,2.25E2,2.08E2,1.68E2,2.47E2,1.66E2,7.6E1,4.7E1,7E1,2.78E2,1.82E2,3.31E2,1.88E2,3.7E1,1.11E2,9.7E1,9.1E1,7.7E1,2.06E2,4.1E1,1.57E2,9E0,1.7E1,5.9E1,2E1,2.7E1,6.2E1,8E0,5.1E1,2.27E2,4.8E1,1.34E2,1.4E2,1.91E2,1.32E2,5.6E1,2.2E1,1.5E1,7.4E1,3.7E1,5.1E1,4.6E1,1.4E1,7.7E1,1.3E1,6.4E1,2.04E2,2E0,3.5E1,6E0,8E1,7.7E1],"tree_param":{"num_deleted":"0","num_feature":"6","num_nodes":"61","size_leaf_vector":"1"}},{"base_weights":[8.933884E0,-1.113484E3,2.4725015E3,-1.6423117E2,-2.2408381E3,4.301996E3,1.0175228E3,-1.2470901E3,7.4833527E2,-2.6749917E3,-1.6078468E3,3.6186243E3,5.615133E3,2.1669338E3,6.036735E1,-7.9717694E2,-2.6869688E3,1.6894967E3,-6.943607E2,-1.9632965E3,-2.99509E3,8.445082E2,-1.7520168E3,4.733864E3,2.779668E3,5.750053E3,-3.3987686E2,2.491491E3,-2.0165166E3,-5.9406946E2,2.1964896E2,7.796408E1,-1.4337596E2,-3.812253E2,-1.3773741E2,2.8323248E2,6.4795555E1,-9.936026E1,1.7381499E2,-2.62463E2,-9.441718E1,-3.0180893E2,1.4118608E2,5.673713E2,-3.3488586E1,-2.684399E2,-1.3984456E2,5.955968E2,2.7909653E2,2.9635715E2,-2.7427124E2,4.5834644E2,6.97283E2,1.7991582E2,5.670932E2,-6.54353E2,2.1954699E1,6.5887E1,-2.2112134E2],"categories":[],"categories_nodes":[],"categories_segments":[],"categories_sizes":[],"default_left":[0,0,0,0,0,0,0,0,0,0,0,0,0,0,0,0,0,0,0,0,0,0,0,0,0,0,0,0,0,0,0,0,0,0,0,0,0,0,0,0,0,0,0,0,0,0,0,0,0,0,0,0,0,0,0,0,0,0,0],"id":11,"left_children":[1,3,5,7,9,11,13,15,17,19,21,23,25,27,29,31,33,35,37,39,41,43,45,47,49,51,-1,53,55,-1,57,-1,-1,-1,-1,-1,-1,-1,-1,-1,-1,-1,-1,-1,-1,-1,-1,-1,-1,-1,-1,-1,-1,-1,-1,-1,-1,-1,-1],"loss_changes":[5.530292E9,1.47001E9,1.6619564E9,7.391043E8,1.6828288E8,2.2825011E8,3.8492694E8,2.1941251E8,5.524439E8,7.863834E7,9.269702E7,1.599342E8,1.3264563E8,2.2090944E8,1.8482974E8,2.6410686E8,1.141161E8,2.9097914E8,1.1892039E8,7.705174E7,3.000576E7,8.733307E7,7.66839E7,1.6858214E8,1.1781126E8,9.927629E7,0E0,3.1557946E8,1.2290891E8,0E0,2.0218184E8,0E0,0E0,0E0,0E0,0E0,0E0,0E0,0E0,0E0,0E0,0E0,0E0,0E0,0E0,0E0,0E0,0E0,0E0,0E0,0E0,0E0,0E0,0E0,0E0,0E0,0E0,0E0,0E0],"parents":[2147483647,0,0,1,1,2,2,3,3,4,4,5,5,6,6,7,7,8,8,9,9,10,10,11,11,12,12,13,13,14,14,15,15,16,16,17,17,18,18,19,19,20,20,21,21,22,22,23,23,24,24,25,25,27,27,28,28,30,30],"right_children":[2,4,6,8,10,12,14,16,18,20,22,24,26,28,30,32,34,36,38,40,42,44,46,48,50,52,-1,54,56,-1,58,-1,-1,-1,-1,-1,-1,-1,-1,-1,-1,-1,-1,-1,-1,-1,-1,-1,-1,-1,-1,-1,-1,-1,-1,-1,-1,-1,-1],"split_conditions":[5.404436E2,8.1E1,3.8333333E0,3.094082E2,2.726433E2,7.425592E2,7.2416664E1,5E-1,4E0,4E0,-9.9732494E-1,-2.5881904E-1,9.3383723E-1,9.796137E-1,7.2666664E1,3E0,8.660254E-1,-2.5881904E-1,7.3333335E0,8.606997E-3,1.8E1,-5E-1,-9.5105654E-1,1.825E1,7.352883E2,5.5243534E-1,-3.3987686E2,6.870528E-1,5.8E1,-5.9406946E2,9.175E1,7.796408E1,-1.4337596E2,-3.812253E2,-1.3773741E2,2.8323248E2,6.4795555E1,-9.936026E1,1.7381499E2,-2.62463E2,-9.441718E1,-3.0180893E2,1.4118608E2,5.673713E2,-3.3488586E1,-2.684399E2,-1.3984456E2,5.955968E2,2.7909653E2,2.9635715E2,-2.7427124E2,4.5834644E2,6.97283E2,1.7991582E2,5.670932E2,-6.54353E2,2.1954699E1,6.5887E1,-2.2112134E2],"split_indices":[5,1,2,5,5,5,1,4,2,2,3,4,3,3,1,2,4,4,2,3,2,4,3,0,5,3,0,3,1,0,1,0,0,0,0,0,0,0,0,0,0,0,0,0,0,0,0,0,0,0,0,0,0,0,0,0,0,0,0],"split_type":[0,0,0,0,0,0,0,0,0,0,0,0,0,0,0,0,0,0,0,0,0,0,0,0,0,0,0,0,0,0,0,0,0,0,0,0,0,0,0,0,0,0,0,0,0,0,0,0,0,0,0,0,0,0,0,0,0,0,0],"sum_hessian":[1.998E3,1.373E3,6.25E2,7.46E2,6.27E2,2.76E2,3.49E2,3.41E2,4.05E2,3.7E2,2.57E2,1.84E2,9.2E1,1.58E2,1.91E2,2.61E2,8E1,2.45E2,1.6E2,1.17E2,2.53E2,1.4E1,2.43E2,7.7E1,1.07E2,9.1E1,1E0,1.47E2,1.1E1,4E0,1.87E2,7.5E1,1.86E2,4.2E1,3.8E1,1.16E2,1.29E2,1.43E2,1.7E1,7E1,4.7E1,2.52E2,1E0,2E0,1.2E1,6.5E1,1.78E2,4.6E1,3.1E1,1.04E2,3E0,4.9E1,4.2E1,1.22E2,2.5E1,3E0,8E0,1.59E2,2.8E1],"tree_param":{"num_deleted":"0","num_feature":"6","num_nodes":"59","size_leaf_vector":"1"}},{"base_weights":[8.302655E0,-1.389509E3,1.6393264E3,-3.9105695E2,-2.0550537E3,3.1439988E3,2.739852E2,5.270705E2,-1.4787787E3,-2.6692634E3,-1.6656233E3,2.1165557E3,4.120712E3,-4.1786093E2,1.593895E3,-1.9720584E2,2.0748228E3,-1.9640144E3,-2.4400212E2,-3.4990273E3,-2.4537026E3,-1.1908573E3,-2.1688054E3,3.4010735E3,1.2406357E3,5.1747E3,3.2289895E3,-6.854833E1,-2.2957917E3,1.8261302E3,-2.2348125E2,1.425264E2,-9.408883E1,4.9371338E1,3.1775656E2,-2.903548E2,-1.03618774E2,-1.4505919E2,3.0506327E1,-7.635284E1,-3.54011E2,-2.0875484E2,-2.9596152E2,-1.4293437E2,6.8715836E1,-1.581205E2,-2.8171835E2,2.2594946E2,4.6859415E2,1.9391528E2,5.752354E1,3.1233456E2,5.844192E2,4.9390582E2,2.3247502E2,-3.4090572E1,1.9677632E2,-2.6424997E2,-4.2273384E1,8.296221E1,2.8375537E2],"categories":[],"categories_nodes":[],"categories_segments":[],"categories_sizes":[],"default_left":[0,0,0,0,0,0,0,0,0,0,0,0,0,0,0,0,0,0,0,0,0,0,0,0,0,0,0,0,0,0,0,0,0,0,0,0,0,0,0,0,0,0,0,0,0,0,0,0,0,0,0,0,0,0,0,0,0,0,0,0,0],"id":12,"left_children":[1,3,5,7,9,11,13,15,17,19,21,23,25,27,29,31,33,35,37,39,41,43,45,47,49,51,53,55,57,59,-1,-1,-1,-1,-1,-1,-1,-1,-1,-1,-1,-1,-1,-1,-1,-1,-1,-1,-1,-1,-1,-1,-1,-1,-1,-1,-1,-1,-1,-1,-1],"loss_changes":[4.559726E9,7.1487834E8,1.8953416E9,4.3220362E8,1.5007206E8,4.3182234E8,4.4355562E8,2.6384426E8,1.1815398E8,3.5951744E7,9.249702E7,2.3880966E8,1.9382093E8,2.0910181E8,1.5257094E8,1.95604E8,1.2919795E8,1.2077626E8,3.8204828E7,2.803776E6,3.1055232E7,9.36936E7,6.869504E7,1.1702182E8,5.9307664E7,1.2045645E8,1.8026048E8,1.5041405E8,3.1353088E7,1.5689277E8,0E0,0E0,0E0,0E0,0E0,0E0,0E0,0E0,0E0,0E0,0E0,0E0,0E0,0E0,0E0,0E0,0E0,0E0,0E0,0E0,0E0,0E0,0E0,0E0,0E0,0E0,0E0,0E0,0E0,0E0,0E0],"parents":[2147483647,0,0,1,1,2,2,3,3,4,4,5,5,6,6,7,7,8,8,9,9,10,10,11,11,12,12,13,13,14,14,15,15,16,16,17,17,18,18,19,19,20,20,21,21,22,22,23,23,24,24,25,25,26,26,27,27,28,28,29,29],"right_children":[2,4,6,8,10,12,14,16,18,20,22,24,26,28,30,32,34,36,38,40,42,44,46,48,50,52,54,56,58,60,-1,-1,-1,-1,-1,-1,-1,-1,-1,-1,-1,-1,-1,-1,-1,-1,-1,-1,-1,-1,-1,-1,-1,-1,-1,-1,-1,-1,-1,-1,-1],"split_conditions":[4.18499E2,3.6666667E0,4E0,2.5881904E-1,2.14387E2,6.244804E2,6.821842E2,5.7377225E-1,3.094082E2,1.189297E2,8.4166664E1,-2.5881904E-1,3E0,8.9833336E1,9.5E1,2.6666667E0,2.293448E2,8.660254E-1,9.683333E0,3.8333333E0,5E-1,7.3333335E0,7E0,2.8848243E-1,6.725E1,1.4333333E1,5.8583332E1,7.3333335E0,1.5666667E1,8.59648E-2,-2.2348125E2,1.425264E2,-9.408883E1,4.9371338E1,3.1775656E2,-2.903548E2,-1.03618774E2,-1.4505919E2,3.0506327E1,-7.635284E1,-3.54011E2,-2.0875484E2,-2.9596152E2,-1.4293437E2,6.8715836E1,-1.581205E2,-2.8171835E2,2.2594946E2,4.6859415E2,1.9391528E2,5.752354E1,3.1233456E2,5.844192E2,4.9390582E2,2.3247502E2,-3.4090572E1,1.9677632E2,-2.6424997E2,-4.2273384E1,8.296221E1,2.8375537E2],"split_indices":[5,2,2,4,5,5,5,3,5,5,1,4,2,1,1,2,5,4,0,2,4,2,2,3,1,0,1,2,0,3,0,0,0,0,0,0,0,0,0,0,0,0,0,0,0,0,0,0,0,0,0,0,0,0,0,0,0,0,0,0,0],"split_type":[0,0,0,0,0,0,0,0,0,0,0,0,0,0,0,0,0,0,0,0,0,0,0,0,0,0,0,0,0,0,0,0,0,0,0,0,0,0,0,0,0,0,0,0,0,0,0,0,0,0,0,0,0,0,0,0,0,0,0,0,0],"sum_hessian":[1.998E3,1.076E3,9.22E2,4.31E2,6.45E2,4.38E2,4.84E2,2.34E2,1.97E2,2.48E2,3.97E2,2.15E2,2.23E2,3.18E2,1.66E2,1.6E2,7.4E1,1.41E2,5.6E1,4.8E1,2E2,2.06E2,1.91E2,8.6E1,1.29E2,1E2,1.23E2,2.69E2,4.9E1,1.57E2,9E0,5E1,1.1E2,3.1E1,4.3E1,6.9E1,7.2E1,1.7E1,3.9E1,1E0,4.7E1,1.19E2,8.1E1,1.83E2,2.3E1,1.02E2,8.9E1,4.7E1,3.9E1,6.2E1,6.7E1,2.6E1,7.4E1,4.1E1,8.2E1,2.38E2,3.1E1,4.1E1,8E0,8E1,7.7E1],"tree_param":{"num_deleted":"0","num_feature":"6","num_nodes":"61","size_leaf_vector":"1"}},{"base_weights":[7.985923E0,-1.0242758E3,1.811597E3,-1.1339997E1,-1.7315575E3,3.3180967E3,6.6737415E2,-1.9605992E3,4.7600183E2,-1.8777274E3,-1.10124565E2,4.976042E3,2.839575E3,1.1059658E3,-1.1830531E3,-2.966941E3,-1.4989299E3,1.4614468E3,-5.450669E2,-1.517709E3,-2.7346147E3,1.5752866E3,-2.4156833E3,5.123516E3,2.3773438E1,2.475964E3,4.891862E3,1.01895654E3,8.0729944E2,-1.6575919E3,5.435579E2,9.296267E1,-3.2576996E2,-4.868597E1,-2.2172398E2,3.1512656E2,6.865866E1,-1.1115731E2,4.060983E1,-2.2742998E2,-1.14974846E2,-3.038687E2,-2.0469746E2,4.4191534E2,3.5833035E1,1.7282898E2,-3.005692E2,4.0029605E2,6.372103E2,1.524337E2,-1.4886768E2,3.6775235E2,2.0392651E2,2.689952E2,6.720415E2,6.084737E1,2.2094421E2,-1.9100574E2,6.9429474E0,-2.2169115E2,1.243446E2],"categories":[],"categories_nodes":[],"categories_segments":[],"categories_sizes":[],"default_left":[0,0,0,0,0,0,0,0,0,0,0,0,0,0,0,0,0,0,0,0,0,0,0,0,0,0,0,0,0,0,0,0,0,0,0,0,0,0,0,0,0,0,0,0,0,0,0,0,0,0,0,0,0,0,0,0,0,0,0,0,0],"id":13,"left_children":[1,3,5,7,9,11,13,15,17,19,21,23,25,27,29,31,33,35,37,39,41,43,45,47,49,51,53,55,-1,57,59,-1,-1,-1,-1,-1,-1,-1,-1,-1,-1,-1,-1,-1,-1,-1,-1,-1,-1,-1,-1,-1,-1,-1,-1,-1,-1,-1,-1,-1,-1],"loss_changes":[3.7235912E9,9.112805E8,1.2526912E9,4.9870998E8,1.773097E8,2.3498598E8,3.3811494E8,4.4335424E7,4.2340352E8,2.0778573E8,2.4861171E8,5.0270976E7,1.7146138E8,1.9545578E8,6.6448504E7,3.928317E7,5.271704E7,2.7804227E8,1.119915E8,1.3268531E8,3.601651E7,1.2646835E8,7.120915E7,6.823334E7,9.077827E6,1.0321638E8,1.268695E8,1.6138406E8,0E0,2.7601472E7,3.753295E7,0E0,0E0,0E0,0E0,0E0,0E0,0E0,0E0,0E0,0E0,0E0,0E0,0E0,0E0,0E0,0E0,0E0,0E0,0E0,0E0,0E0,0E0,0E0,0E0,0E0,0E0,0E0,0E0,0E0,0E0],"parents":[2147483647,0,0,1,1,2,2,3,3,4,4,5,5,6,6,7,7,8,8,9,9,10,10,11,11,12,12,13,13,14,14,15,15,16,16,17,17,18,18,19,19,20,20,21,21,22,22,23,23,24,24,25,25,26,26,27,27,29,29,30,30],"right_children":[2,4,6,8,10,12,14,16,18,20,22,24,26,28,30,32,34,36,38,40,42,44,46,48,50,52,54,56,-1,58,60,-1,-1,-1,-1,-1,-1,-1,-1,-1,-1,-1,-1,-1,-1,-1,-1,-1,-1,-1,-1,-1,-1,-1,-1,-1,-1,-1,-1,-1,-1],"split_conditions":[5.033746E2,3.8333333E0,3.8333333E0,1.643581E2,9E0,5.4083332E1,8.6833336E1,1.161298E2,1.2246469E-16,6.5E0,-6.744436E-1,8.652779E2,8.022258E2,1.7833334E1,1.6308332E1,6.05E1,-2.5881904E-1,2.6666667E0,3.607097E2,2.14387E2,1.3033334E1,1.1483334E1,1.4666667E1,7.120404E2,1.5966666E1,-5E-1,5.5243534E-1,7.604255E2,8.0729944E2,7.480656E2,7E0,9.296267E1,-3.2576996E2,-4.868597E1,-2.2172398E2,3.1512656E2,6.865866E1,-1.1115731E2,4.060983E1,-2.2742998E2,-1.14974846E2,-3.038687E2,-2.0469746E2,4.4191534E2,3.5833035E1,1.7282898E2,-3.005692E2,4.0029605E2,6.372103E2,1.524337E2,-1.4886768E2,3.6775235E2,2.0392651E2,2.689952E2,6.720415E2,6.084737E1,2.2094421E2,-1.9100574E2,6.9429474E0,-2.2169115E2,1.243446E2],"split_indices":[5,2,2,5,2,1,1,5,4,2,3,5,5,2,0,1,4,2,5,5,0,0,2,5,0,4,3,5,0,5,2,0,0,0,0,0,0,0,0,0,0,0,0,0,0,0,0,0,0,0,0,0,0,0,0,0,0,0,0,0,0],"split_type":[0,0,0,0,0,0,0,0,0,0,0,0,0,0,0,0,0,0,0,0,0,0,0,0,0,0,0,0,0,0,0,0,0,0,0,0,0,0,0,0,0,0,0,0,0,0,0,0,0,0,0,0,0,0,0,0,0,0,0,0,0],"sum_hessian":[1.998E3,1.271E3,7.27E2,5.23E2,7.48E2,3.13E2,4.14E2,1.04E2,4.19E2,6.86E2,6.2E1,6.8E1,2.45E2,3.35E2,7.9E1,3.1E1,7.3E1,2.13E2,2.06E2,4.85E2,2.01E2,3.6E1,2.6E1,6.6E1,2E0,2.1E2,3.5E1,3.32E2,3E0,6.2E1,1.7E1,2E0,2.9E1,3.1E1,4.2E1,6.6E1,1.47E2,1.29E2,7.7E1,1.57E2,3.28E2,1.37E2,6.4E1,1E1,2.6E1,3E0,2.3E1,3.7E1,2.9E1,1E0,1E0,5.4E1,1.56E2,1.7E1,1.8E1,2.48E2,8.4E1,5.4E1,8E0,3E0,1.4E1],"tree_param":{"num_deleted":"0","num_feature":"6","num_nodes":"61","size_leaf_vector":"1"}},{"base_weights":[8.523264E0,-1.1366139E3,1.3447141E3,-3.3403796E2,-1.6715615E3,2.2189504E3,-2.9390402E2,-1.7755282E3,1.22645996E2,-1.7665103E3,2.0546991E2,3.672959E3,1.7325924E3,-1.2410289E1,-1.789441E3,-2.7276057E3,-1.3526913E3,9.719175E2,-7.377303E2,-1.8752825E3,-3.470556E2,3.4450505E3,-3.8036484E2,4.4880513E3,1.6713428E3,1.16432E3,2.7659646E3,-4.439336E2,1.3145481E3,-2.0869604E3,7.059613E1,8.676514E1,-3.0054733E2,-4.396955E1,-2.000672E2,2.5990094E2,1.4228638E1,-1.3030664E2,3.1793674E1,-1.5585875E2,-2.5771915E2,-9.411624E1,4.5940314E2,5.1057257E2,6.360252E1,5.364985E1,-1.3355495E2,3.949452E2,6.163704E2,-2.6711365E1,2.3843303E2,1.80588E2,3.6327007E1,2.9875314E2,-2.503647E2,3.7388687E2,-6.3181885E1,7.356883E1,4.1945898E2,-1.4707411E2,-2.9791476E2,-1.6517867E2,2.2059256E2],"categories":[],"categories_nodes":[],"categories_segments":[],"categories_sizes":[],"default_left":[0,0,0,0,0,0,0,0,0,0,0,0,0,0,0,0,0,0,0,0,0,0,0,0,0,0,0,0,0,0,0,0,0,0,0,0,0,0,0,0,0,0,0,0,0,0,0,0,0,0,0,0,0,0,0,0,0,0,0,0,0,0,0],"id":14,"left_children":[1,3,5,7,9,11,13,15,17,19,21,23,25,27,29,31,33,35,37,39,41,43,45,47,49,51,53,55,57,59,61,-1,-1,-1,-1,-1,-1,-1,-1,-1,-1,-1,-1,-1,-1,-1,-1,-1,-1,-1,-1,-1,-1,-1,-1,-1,-1,-1,-1,-1,-1,-1,-1],"loss_changes":[3.0602417E9,4.6183667E8,1.3228863E9,2.8460573E8,1.1549414E8,4.193518E8,1.3553472E8,3.817805E7,2.4111504E8,9.430349E7,6.204186E7,2.3722432E8,2.6279782E8,1.5633443E8,2.8370592E7,3.357688E7,4.289899E7,2.2371123E8,9.8290584E7,1.2291136E8,1.3642272E8,2.0077024E7,2.5238186E7,7.132224E7,6.283119E7,1.504369E8,1.9429133E8,1.64255E8,1.0861249E8,1.9808896E7,3.3066554E7,0E0,0E0,0E0,0E0,0E0,0E0,0E0,0E0,0E0,0E0,0E0,0E0,0E0,0E0,0E0,0E0,0E0,0E0,0E0,0E0,0E0,0E0,0E0,0E0,0E0,0E0,0E0,0E0,0E0,0E0,0E0,0E0],"parents":[2147483647,0,0,1,1,2,2,3,3,4,4,5,5,6,6,7,7,8,8,9,9,10,10,11,11,12,12,13,13,14,14,15,15,16,16,17,17,18,18,19,19,20,20,21,21,22,22,23,23,24,24,25,25,26,26,27,27,28,28,29,29,30,30],"right_children":[2,4,6,8,10,12,14,16,18,20,22,24,26,28,30,32,34,36,38,40,42,44,46,48,50,52,54,56,58,60,62,-1,-1,-1,-1,-1,-1,-1,-1,-1,-1,-1,-1,-1,-1,-1,-1,-1,-1,-1,-1,-1,-1,-1,-1,-1,-1,-1,-1,-1,-1,-1,-1],"split_conditions":[4.18499E2,3.6666667E0,7.4833336E1,1.643581E2,3.998435E2,2.8333333E0,9.175E1,1.161298E2,1.2246469E-16,9E0,-8.660254E-1,2.5881904E-1,7.048848E2,7E0,1.625E1,6.05E1,-2.5881904E-1,2.6666667E0,8.660254E-1,6.5E0,1.6975E1,7.2666664E1,8.025E1,7.89932E2,5.46502E2,4E0,9.3383723E-1,-9.9887973E-1,1.825E1,2.5881904E-1,9.325E1,8.676514E1,-3.0054733E2,-4.396955E1,-2.000672E2,2.5990094E2,1.4228638E1,-1.3030664E2,3.1793674E1,-1.5585875E2,-2.5771915E2,-9.411624E1,4.5940314E2,5.1057257E2,6.360252E1,5.364985E1,-1.3355495E2,3.949452E2,6.163704E2,-2.6711365E1,2.3843303E2,1.80588E2,3.6327007E1,2.9875314E2,-2.503647E2,3.7388687E2,-6.3181885E1,7.356883E1,4.1945898E2,-1.4707411E2,-2.9791476E2,-1.6517867E2,2.2059256E2],"split_indices":[5,2,1,5,5,2,1,5,4,2,4,4,5,2,0,1,4,2,4,2,0,1,1,5,5,2,3,3,0,4,1,0,0,0,0,0,0,0,0,0,0,0,0,0,0,0,0,0,0,0,0,0,0,0,0,0,0,0,0,0,0,0,0],"split_type":[0,0,0,0,0,0,0,0,0,0,0,0,0,0,0,0,0,0,0,0,0,0,0,0,0,0,0,0,0,0,0,0,0,0,0,0,0,0,0,0,0,0,0,0,0,0,0,0,0,0,0,0,0,0,0,0,0,0,0,0,0,0,0],"sum_hessian":[1.998E3,1.076E3,9.22E2,4.31E2,6.45E2,6.01E2,3.21E2,1.03E2,3.28E2,6.14E2,3.1E1,1.49E2,4.52E2,2.71E2,5E1,3E1,7.3E1,1.65E2,1.63E2,5.7E2,4.4E1,4E0,2.7E1,1.05E2,4.4E1,2.93E2,1.59E2,2.05E2,6.6E1,4.3E1,7E0,2E0,2.8E1,3.1E1,4.2E1,5.5E1,1.1E2,1.06E2,5.7E1,3.95E2,1.75E2,4E1,4E0,2E0,2E0,1.4E1,1.3E1,8.2E1,2.3E1,1.2E1,3.2E1,1.62E2,1.31E2,1.53E2,6E0,8E0,1.97E2,5.6E1,1E1,2.7E1,1.6E1,4E0,3E0],"tree_param":{"num_deleted":"0","num_feature":"6","num_nodes":"63","size_leaf_vector":"1"}},{"base_weights":[8.704566E0,-6.8415173E2,1.844505E3,-1.5296998E1,-1.5163198E3,3.0401343E3,8.677085E2,-8.78835E2,6.198542E2,-2.1112034E3,-1.3116147E3,3.6980132E3,2.1509456E3,1.1299369E3,-1.3120372E3,-5.4774396E2,-1.9389216E3,1.2604467E3,-3.3921075E2,-1.512725E3,-2.3912498E3,-1.0868025E3,-1.9697725E3,3.866855E3,-7.172619E2,1.5730653E3,3.2469575E3,6.9577545E2,5.7810796E3,-6.237257E2,-6.116066E2,5.1503723E1,-9.7674736E1,-2.8623386E2,-8.710797E1,1.9750555E2,6.416055E1,-6.1109608E1,2.096991E2,-2.0720372E2,-6.4446304E1,-1.2433931E2,-2.4690877E2,-1.5974219E2,-6.764749E1,-2.2338963E2,6.375202E1,2.9419254E2,4.8469815E2,1.5151987E2,-2.2122917E2,-2.9496085E2,1.6783087E2,-2.5153828E2,3.8470303E2,2.2565955E2,2.206539E1,2.3835416E2,7.794958E2,1.1252864E2,-2.0060123E2],"categories":[],"categories_nodes":[],"categories_segments":[],"categories_sizes":[],"default_left":[0,0,0,0,0,0,0,0,0,0,0,0,0,0,0,0,0,0,0,0,0,0,0,0,0,0,0,0,0,0,0,0,0,0,0,0,0,0,0,0,0,0,0,0,0,0,0,0,0,0,0,0,0,0,0,0,0,0,0,0,0],"id":15,"left_children":[1,3,5,7,9,11,13,15,17,19,21,23,25,27,29,31,33,35,37,39,41,43,45,47,49,51,53,55,57,-1,59,-1,-1,-1,-1,-1,-1,-1,-1,-1,-1,-1,-1,-1,-1,-1,-1,-1,-1,-1,-1,-1,-1,-1,-1,-1,-1,-1,-1,-1,-1],"loss_changes":[2.5438817E9,8.081592E8,6.373636E8,4.4261734E8,7.601984E7,1.359506E8,1.7467469E8,1.1897493E8,2.861095E8,2.3869312E7,6.94729E7,1.0714125E8,6.266221E7,5.432208E8,1.1002782E8,1.1995846E8,7.737776E7,1.2211475E8,1.2514419E8,2.537428E7,6.75808E6,7.497555E7,8.54392E7,1.0812454E8,2.3377632E7,3.9221024E7,1.3415843E8,1.841553E8,1.3879155E8,0E0,7.4915336E7,0E0,0E0,0E0,0E0,0E0,0E0,0E0,0E0,0E0,0E0,0E0,0E0,0E0,0E0,0E0,0E0,0E0,0E0,0E0,0E0,0E0,0E0,0E0,0E0,0E0,0E0,0E0,0E0,0E0,0E0],"parents":[2147483647,0,0,1,1,2,2,3,3,4,4,5,5,6,6,7,7,8,8,9,9,10,10,11,11,12,12,13,13,14,14,15,15,16,16,17,17,18,18,19,19,20,20,21,21,22,22,23,23,24,24,25,25,26,26,27,27,28,28,30,30],"right_children":[2,4,6,8,10,12,14,16,18,20,22,24,26,28,30,32,34,36,38,40,42,44,46,48,50,52,54,56,58,-1,60,-1,-1,-1,-1,-1,-1,-1,-1,-1,-1,-1,-1,-1,-1,-1,-1,-1,-1,-1,-1,-1,-1,-1,-1,-1,-1,-1,-1,-1,-1],"split_conditions":[5.709376E2,8.1E1,3.8333333E0,3.094082E2,1.743697E2,1.2246469E-16,9.209713E-1,5E-1,4E0,3.8333333E0,9.236667E1,7.45E1,7.604255E2,6.870528E-1,5.8E1,3E0,8.660254E-1,-2.5881904E-1,1.4666667E1,8.606997E-3,3.2416666E0,8.6166664E1,1.5666667E1,6.616346E-1,6.211231E2,8.216666E0,1.4333333E1,6.3833332E1,1.3625E1,-6.237257E2,6.564756E2,5.1503723E1,-9.7674736E1,-2.8623386E2,-8.710797E1,1.9750555E2,6.416055E1,-6.1109608E1,2.096991E2,-2.0720372E2,-6.4446304E1,-1.2433931E2,-2.4690877E2,-1.5974219E2,-6.764749E1,-2.2338963E2,6.375202E1,2.9419254E2,4.8469815E2,1.5151987E2,-2.2122917E2,-2.9496085E2,1.6783087E2,-2.5153828E2,3.8470303E2,2.2565955E2,2.206539E1,2.3835416E2,7.794958E2,1.1252864E2,-2.0060123E2],"split_indices":[5,1,2,5,5,4,3,4,2,2,1,1,5,3,1,2,4,4,2,3,0,1,0,3,5,0,0,1,0,0,5,0,0,0,0,0,0,0,0,0,0,0,0,0,0,0,0,0,0,0,0,0,0,0,0,0,0,0,0,0,0],"split_type":[0,0,0,0,0,0,0,0,0,0,0,0,0,0,0,0,0,0,0,0,0,0,0,0,0,0,0,0,0,0,0,0,0,0,0,0,0,0,0,0,0,0,0,0,0,0,0,0,0,0,0,0,0,0,0,0,0,0,0,0,0],"sum_hessian":[1.998E3,1.451E3,5.47E2,8.05E2,6.46E2,2.45E2,3.02E2,3.41E2,4.64E2,1.63E2,4.83E2,1.39E2,1.06E2,2.7E2,3.2E1,2.61E2,8E1,2.78E2,1.86E2,5.4E1,1.09E2,3.62E2,1.21E2,1.34E2,5E0,7.1E1,3.5E1,2.48E2,2.2E1,3E0,2.9E1,7.5E1,1.86E2,4.2E1,3.8E1,1.28E2,1.5E2,1.68E2,1.8E1,3.2E1,2.2E1,8E0,1.01E2,1.6E2,2.02E2,1.1E2,1.1E1,7.1E1,6.3E1,2E0,3E0,1E0,7E1,3E0,3.2E1,5.7E1,1.91E2,9E0,1.3E1,1.3E1,1.6E1],"tree_param":{"num_deleted":"0","num_feature":"6","num_nodes":"61","size_leaf_vector":"1"}},{"base_weights":[7.9490905E0,-6.164523E2,1.6623702E3,-1.3778802E1,-1.3662797E3,2.7390283E3,7.827654E2,-6.485695E2,6.9956177E2,-1.6469572E3,-9.854218E2,2.0643477E3,3.453391E3,1.0216133E3,-1.202403E3,-8.1137524E2,1.1980367E3,1.3776764E3,-1.4621321E2,-2.3170657E3,-1.3877052E3,1.1996465E3,-1.1239686E3,1.4136378E3,3.7715789E3,2.7650317E3,5.4705957E3,6.271928E2,5.247226E3,-5.769463E2,-5.533815E2,-2.9842935E2,-6.744791E1,2.0791136E2,-9.13323E1,-7.5071815E1,1.568055E2,7.172212E1,-1.1738183E2,-2.3698804E2,1.5086104E2,1.0463405E2,-1.4756468E2,5.4649426E2,2.6661085E1,-2.0159525E2,-7.929123E1,2.625299E2,5.2292213E1,2.5248889E2,4.6885336E2,3.8755804E2,1.8397969E2,1.9041284E2,5.808876E2,2.0348265E2,1.9870346E1,2.169023E2,7.07114E2,-1.2663287E2,2.5094627E2],"categories":[],"categories_nodes":[],"categories_segments":[],"categories_sizes":[],"default_left":[0,0,0,0,0,0,0,0,0,0,0,0,0,0,0,0,0,0,0,0,0,0,0,0,0,0,0,0,0,0,0,0,0,0,0,0,0,0,0,0,0,0,0,0,0,0,0,0,0,0,0,0,0,0,0,0,0,0,0,0,0],"id":16,"left_children":[1,3,5,7,9,11,13,15,17,19,21,23,25,27,29,31,33,35,37,39,41,43,45,47,49,51,53,55,57,-1,59,-1,-1,-1,-1,-1,-1,-1,-1,-1,-1,-1,-1,-1,-1,-1,-1,-1,-1,-1,-1,-1,-1,-1,-1,-1,-1,-1,-1,-1,-1],"loss_changes":[2.0660374E9,6.561415E8,5.1683046E8,3.6542822E8,6.754022E7,1.1143475E8,1.4489688E8,1.2934453E8,2.1814371E8,6.1237376E7,8.520576E7,1.3797606E8,1.4872384E8,4.48376E8,9.462325E7,1.1489059E8,6.7008364E7,8.667446E7,1.516777E8,2.4184512E7,5.933856E7,6.619744E7,7.547402E7,1.0115547E8,2.8172512E7,8.534643E7,2.3926592E7,1.4978154E8,1.1379328E8,0E0,6.86872E7,0E0,0E0,0E0,0E0,0E0,0E0,0E0,0E0,0E0,0E0,0E0,0E0,0E0,0E0,0E0,0E0,0E0,0E0,0E0,0E0,0E0,0E0,0E0,0E0,0E0,0E0,0E0,0E0,0E0,0E0],"parents":[2147483647,0,0,1,1,2,2,3,3,4,4,5,5,6,6,7,7,8,8,9,9,10,10,11,11,12,12,13,13,14,14,15,15,16,16,17,17,18,18,19,19,20,20,21,21,22,22,23,23,24,24,25,25,26,26,27,27,28,28,30,30],"right_children":[2,4,6,8,10,12,14,16,18,20,22,24,26,28,30,32,34,36,38,40,42,44,46,48,50,52,54,56,58,-1,60,-1,-1,-1,-1,-1,-1,-1,-1,-1,-1,-1,-1,-1,-1,-1,-1,-1,-1,-1,-1,-1,-1,-1,-1,-1,-1,-1,-1,-1,-1],"split_conditions":[5.709376E2,8.1E1,3.8333333E0,3.607097E2,2.726433E2,5.5243534E-1,9.209713E-1,9.634706E-1,3.8333333E0,-7.8564984E-1,-9.9732494E-1,2.0325E1,7.948222E2,6.870528E-1,5.8E1,1.161298E2,-5E-1,-9.9325687E-1,1.4916667E1,1.8E1,-7.41222E-1,-5E-1,-9.5105654E-1,5.9166668E1,7.002746E2,-2.5881904E-1,1.2408334E1,6.3833332E1,1.3625E1,-5.769463E2,1.33E1,-2.9842935E2,-6.744791E1,2.0791136E2,-9.13323E1,-7.5071815E1,1.568055E2,7.172212E1,-1.1738183E2,-2.3698804E2,1.5086104E2,1.0463405E2,-1.4756468E2,5.4649426E2,2.6661085E1,-2.0159525E2,-7.929123E1,2.625299E2,5.2292213E1,2.5248889E2,4.6885336E2,3.8755804E2,1.8397969E2,1.9041284E2,5.808876E2,2.0348265E2,1.9870346E1,2.169023E2,7.07114E2,-1.2663287E2,2.5094627E2],"split_indices":[5,1,2,5,5,3,3,3,2,3,3,0,5,3,1,5,4,3,0,2,3,4,3,1,5,4,0,1,0,0,0,0,0,0,0,0,0,0,0,0,0,0,0,0,0,0,0,0,0,0,0,0,0,0,0,0,0,0,0,0,0],"split_type":[0,0,0,0,0,0,0,0,0,0,0,0,0,0,0,0,0,0,0,0,0,0,0,0,0,0,0,0,0,0,0,0,0,0,0,0,0,0,0,0,0,0,0,0,0,0,0,0,0,0,0,0,0,0,0,0,0,0,0,0,0],"sum_hessian":[1.998E3,1.451E3,5.47E2,8.05E2,6.46E2,2.45E2,3.02E2,4.26E2,3.79E2,3.7E2,2.76E2,1.28E2,1.17E2,2.7E2,3.2E1,3.92E2,3.4E1,2.1E2,1.69E2,1.01E2,2.69E2,1.6E1,2.6E2,9.4E1,3.4E1,8.9E1,2.8E1,2.48E2,2.2E1,3E0,2.9E1,2.2E1,3.7E2,2.4E1,1E1,1.7E1,1.93E2,9.2E1,7.7E1,1E2,1E0,9E0,2.6E2,2E0,1.4E1,6.9E1,1.91E2,3.9E1,5.5E1,1.6E1,1.8E1,3.9E1,5E1,3E0,2.5E1,5.7E1,1.91E2,9E0,1.3E1,2.4E1,5E0],"tree_param":{"num_deleted":"0","num_feature":"6","num_nodes":"61","size_leaf_vector":"1"}},{"base_weights":[8.6668215E0,-8.758935E2,9.631003E2,3.4937732E2,-1.1333506E3,1.6966589E3,-5.4281998E1,1.3977484E3,-5.5279156E2,-1.6347853E3,-8.509998E2,1.1455385E3,2.4191104E3,1.9549763E2,-1.1895225E3,-1.864151E3,1.8140317E3,-1.4624768E3,5.5111505E2,-2.351414E3,-1.4555382E3,-2.4805377E2,-1.1858369E3,9.422065E2,3.8476917E3,1.5800815E3,3.5091765E3,-1.2718255E2,1.4272667E3,-1.4045688E3,3.0572607E2,1.2166524E2,-2.7864334E2,9.569515E1,2.819424E2,-2.0672151E2,-1.381549E1,-8.263477E1,1.1365326E2,9.825884E1,-2.4245764E2,-1.0821466E2,-1.829239E2,-3.7168404E1,3.1783835E2,-8.256259E1,-1.8391385E2,-1.5197533E2,1.11531395E2,5.962229E1,4.3297012E2,1.3806676E2,3.994513E2,2.0043962E2,3.9355557E2,-1.2988724E2,3.711544E1,2.3279446E2,-1.06546135E2,-8.656106E1,-2.0666003E2,1.7960088E2,-1.5437582E2],"categories":[],"categories_nodes":[],"categories_segments":[],"categories_sizes":[],"default_left":[0,0,0,0,0,0,0,0,0,0,0,0,0,0,0,0,0,0,0,0,0,0,0,0,0,0,0,0,0,0,0,0,0,0,0,0,0,0,0,0,0,0,0,0,0,0,0,0,0,0,0,0,0,0,0,0,0,0,0,0,0,0,0],"id":17,"left_children":[1,3,5,7,9,11,13,15,17,19,21,23,25,27,29,31,33,35,37,39,41,43,45,47,49,51,53,55,57,59,61,-1,-1,-1,-1,-1,-1,-1,-1,-1,-1,-1,-1,-1,-1,-1,-1,-1,-1,-1,-1,-1,-1,-1,-1,-1,-1,-1,-1,-1,-1,-1,-1],"loss_changes":[1.6885073E9,3.2783782E8,7.1804186E8,1.7196386E8,1.2008486E8,2.1979917E8,1.1479077E8,1.1744307E8,9.921834E7,3.614112E7,1.109465E8,1.716441E8,2.1487309E8,1.3214074E8,2.39024E7,3.1803828E7,6.19296E7,4.2961304E7,3.722677E7,1.7017792E7,3.276512E7,8.505639E7,8.17871E7,1.2869774E8,3.1897824E7,6.0927936E7,5.8838656E7,1.546307E8,1.5739531E8,2.1046784E7,3.0335144E7,0E0,0E0,0E0,0E0,0E0,0E0,0E0,0E0,0E0,0E0,0E0,0E0,0E0,0E0,0E0,0E0,0E0,0E0,0E0,0E0,0E0,0E0,0E0,0E0,0E0,0E0,0E0,0E0,0E0,0E0,0E0,0E0],"parents":[2147483647,0,0,1,1,2,2,3,3,4,4,5,5,6,6,7,7,8,8,9,9,10,10,11,11,12,12,13,13,14,14,15,15,16,16,17,17,18,18,19,19,20,20,21,21,22,22,23,23,24,24,25,25,26,26,27,27,28,28,29,29,30,30],"right_children":[2,4,6,8,10,12,14,16,18,20,22,24,26,28,30,32,34,36,38,40,42,44,46,48,50,52,54,56,58,60,62,-1,-1,-1,-1,-1,-1,-1,-1,-1,-1,-1,-1,-1,-1,-1,-1,-1,-1,-1,-1,-1,-1,-1,-1,-1,-1,-1,-1,-1,-1,-1,-1],"split_conditions":[4.054959E2,2.6666667E0,7.2416664E1,2.5881904E-1,1.995226E2,5.234156E-1,8.9833336E1,1.217569E2,8.660254E-1,1.161298E2,7.6416664E1,2.2725E1,1.4175E1,7E0,7.480656E2,6.05E1,2.561214E2,3.155198E2,1.679441E2,6.0083332E1,2.5881904E-1,1.4833333E1,6.5E0,-8.660254E-1,5.162786E2,7.819395E2,6.870528E-1,-8.9963084E-1,5.5243534E-1,1.7213356E-2,9.5E1,1.2166524E2,-2.7864334E2,9.569515E1,2.819424E2,-2.0672151E2,-1.381549E1,-8.263477E1,1.1365326E2,9.825884E1,-2.4245764E2,-1.0821466E2,-1.829239E2,-3.7168404E1,3.1783835E2,-8.256259E1,-1.8391385E2,-1.5197533E2,1.11531395E2,5.962229E1,4.3297012E2,1.3806676E2,3.994513E2,2.0043962E2,3.9355557E2,-1.2988724E2,3.711544E1,2.3279446E2,-1.06546135E2,-8.656106E1,-2.0666003E2,1.7960088E2,-1.5437582E2],"split_indices":[5,2,1,4,5,3,1,5,4,5,1,0,0,2,5,1,5,5,5,1,4,2,2,4,5,5,3,3,3,3,1,0,0,0,0,0,0,0,0,0,0,0,0,0,0,0,0,0,0,0,0,0,0,0,0,0,0,0,0,0,0,0,0],"split_type":[0,0,0,0,0,0,0,0,0,0,0,0,0,0,0,0,0,0,0,0,0,0,0,0,0,0,0,0,0,0,0,0,0,0,0,0,0,0,0,0,0,0,0,0,0,0,0,0,0,0,0,0,0,0,0,0,0,0,0,0,0,0,0],"sum_hessian":[1.998E3,1.037E3,9.61E2,1.8E2,8.57E2,5.58E2,4.03E2,8.3E1,9.7E1,3.07E2,5.5E2,3.18E2,2.4E2,3.31E2,7.2E1,9E0,7.4E1,5.3E1,4.4E1,5.9E1,2.48E2,1.97E2,3.53E2,2.97E2,2.1E1,1.37E2,1.03E2,2.63E2,6.8E1,6.3E1,9E0,2E0,7E0,4.1E1,3.3E1,3.6E1,1.7E1,1.3E1,3.1E1,1E0,5.8E1,1.26E2,1.22E2,1.91E2,6E0,2.29E2,1.24E2,1.9E1,2.78E2,3E0,1.8E1,1.28E2,9E0,2.4E1,7.9E1,7.8E1,1.85E2,5E1,1.8E1,3.6E1,2.7E1,5E0,4E0],"tree_param":{"num_deleted":"0","num_feature":"6","num_nodes":"63","size_leaf_vector":"1"}},{"base_weights":[8.280013E0,-5.0457507E2,1.3671437E3,1.7633095E2,-9.721614E2,2.278363E3,6.2282996E2,-4.3047626E2,9.370536E2,-1.1064231E3,5.849652E2,2.8107795E3,1.5604501E3,3.1862167E2,1.9023542E3,7.5402725E1,-1.1436882E3,1.4950436E3,3.0907224E2,-8.2462146E2,-1.7601008E3,1.8523326E3,-1.2270013E3,2.953343E3,-8.653638E2,3.510063E2,1.9249023E3,2.3983633E2,6.620289E2,3.2884106E3,7.526626E2,-4.005546E1,1.3167839E2,-2.0938611E2,-3.5349876E1,2.7079263E2,8.660056E1,-1.3919722E2,4.530496E1,1.2893169E2,-9.5617744E1,-2.9990936E2,-1.5460236E2,-2.6757767E1,3.085649E2,-1.86021E2,4.8808765E2,2.1038133E2,3.6894852E2,1.24282486E2,-2.2301643E2,9.348185E1,-3.0936655E2,7.790708E1,2.6061124E2,-4.4568356E1,8.0590256E1,4.771978E2,2.0629326E2,3.9238736E2,-1.246309E2],"categories":[],"categories_nodes":[],"categories_segments":[],"categories_sizes":[],"default_left":[0,0,0,0,0,0,0,0,0,0,0,0,0,0,0,0,0,0,0,0,0,0,0,0,0,0,0,0,0,0,0,0,0,0,0,0,0,0,0,0,0,0,0,0,0,0,0,0,0,0,0,0,0,0,0,0,0,0,0,0,0],"id":18,"left_children":[1,3,5,7,9,11,13,15,17,19,21,23,25,27,29,31,33,35,37,39,41,43,45,47,49,51,53,55,-1,57,59,-1,-1,-1,-1,-1,-1,-1,-1,-1,-1,-1,-1,-1,-1,-1,-1,-1,-1,-1,-1,-1,-1,-1,-1,-1,-1,-1,-1,-1,-1],"loss_changes":[1.3937932E9,4.624626E8,3.702528E8,2.7367766E8,1.8065005E8,8.964211E7,1.1733414E8,1.191499E8,9.169506E7,1.4462515E8,1.607263E8,7.592755E7,4.648827E7,1.20546024E8,8.99501E7,1.1515127E8,1.021217E8,1.0370486E8,3.1244612E7,1.5585709E8,5.849043E7,1.0802101E8,1.21238696E8,7.666355E7,2.0035246E7,5.5179092E7,6.197491E7,9.504329E7,0E0,3.742579E7,2.1408267E8,0E0,0E0,0E0,0E0,0E0,0E0,0E0,0E0,0E0,0E0,0E0,0E0,0E0,0E0,0E0,0E0,0E0,0E0,0E0,0E0,0E0,0E0,0E0,0E0,0E0,0E0,0E0,0E0,0E0,0E0],"parents":[2147483647,0,0,1,1,2,2,3,3,4,4,5,5,6,6,7,7,8,8,9,9,10,10,11,11,12,12,13,13,14,14,15,15,16,16,17,17,18,18,19,19,20,20,21,21,22,22,23,23,24,24,25,25,26,26,27,27,29,29,30,30],"right_children":[2,4,6,8,10,12,14,16,18,20,22,24,26,28,30,32,34,36,38,40,42,44,46,48,50,52,54,56,-1,58,60,-1,-1,-1,-1,-1,-1,-1,-1,-1,-1,-1,-1,-1,-1,-1,-1,-1,-1,-1,-1,-1,-1,-1,-1,-1,-1,-1,-1,-1,-1],"split_conditions":[5.709376E2,3.8333333E0,3.8333333E0,3.357721E2,1.2E1,1.2246469E-16,1.8716667E1,5E-1,1.2246469E-16,6.5E0,-6.4862955E-1,7.45E1,-3.8566342E-1,1.7833334E1,1.9708334E1,5.7377225E-1,8.660254E-1,2.6666667E0,-9.911141E-1,-9.9843544E-1,8.2333336E1,2.685104E2,4.913583E2,7.083389E2,6.211231E2,7.288598E2,1.39E1,8.59648E-2,6.620289E2,-4.4822934E-1,6.65E1,-4.005546E1,1.3167839E2,-2.0938611E2,-3.5349876E1,2.7079263E2,8.660056E1,-1.3919722E2,4.530496E1,1.2893169E2,-9.5617744E1,-2.9990936E2,-1.5460236E2,-2.6757767E1,3.085649E2,-1.86021E2,4.8808765E2,2.1038133E2,3.6894852E2,1.24282486E2,-2.2301643E2,9.348185E1,-3.0936655E2,7.790708E1,2.6061124E2,-4.4568356E1,8.0590256E1,4.771978E2,2.0629326E2,3.9238736E2,-1.246309E2],"split_indices":[5,2,2,5,2,4,0,4,4,2,3,1,3,2,0,3,4,2,3,3,1,5,5,5,5,5,0,3,0,3,1,0,0,0,0,0,0,0,0,0,0,0,0,0,0,0,0,0,0,0,0,0,0,0,0,0,0,0,0,0,0],"split_type":[0,0,0,0,0,0,0,0,0,0,0,0,0,0,0,0,0,0,0,0,0,0,0,0,0,0,0,0,0,0,0,0,0,0,0,0,0,0,0,0,0,0,0,0,0,0,0,0,0,0,0,0,0,0,0,0,0,0,0,0,0],"sum_hessian":[1.998E3,1.451E3,5.47E2,5.91E2,8.6E2,2.45E2,3.02E2,3.29E2,2.62E2,7.92E2,6.8E1,1.39E2,1.06E2,2.45E2,5.7E1,1.93E2,1.36E2,1.38E2,1.24E2,5.55E2,2.37E2,4E1,2.8E1,1.34E2,5E0,2.5E1,8.1E1,2.43E2,2E0,2.5E1,3.2E1,1.4E2,5.3E1,6.1E1,7.5E1,4.6E1,9.2E1,9E0,1.15E2,3.2E1,5.23E2,3.3E1,2.04E2,1.5E1,2.5E1,2.6E1,2E0,6.4E1,7E1,2E0,3E0,2.2E1,3E0,3.1E1,5E1,1.1E2,1.33E2,1E1,1.5E1,1.2E1,2E1],"tree_param":{"num_deleted":"0","num_feature":"6","num_nodes":"61","size_leaf_vector":"1"}},{"base_weights":[8.715519E0,-5.6600116E2,1.01287885E3,3.5933495E1,-9.8635864E2,1.5088192E3,-7.4383484E1,-1.1726825E3,3.3800192E2,-1.0848939E3,1.0380121E2,3.3087534E3,1.314767E3,-1.7258139E2,3.604069E3,-5.5111298E1,-1.3729749E3,9.744727E2,-3.2162488E2,-1.5716918E3,-8.0631165E2,1.4034756E3,-1.6810786E3,3.574941E3,1.2389501E3,2.3049749E3,1.0204473E3,3.129868E3,-2.6227142E2,-2.2785948E2,5.236321E3,-1.3817595E2,1.01171844E2,-1.6881158E2,-6.627484E1,1.8926842E2,-7.157266E0,-6.575514E1,4.7461544E1,-6.874471E1,-1.920534E2,-5.426717E1,-1.6503186E2,3.9810568E2,3.0136932E1,-2.7378397E2,3.8919933E1,3.624079E2,7.801416E1,5.8852932E1,1.9100014E2,2.9796042E2,9.091347E1,9.275741E1,4.4465665E2,2.1075026E1,5.9787354E2,-8.095277E1,4.4733326E1,6.036748E2,1.0173052E2],"categories":[],"categories_nodes":[],"categories_segments":[],"categories_sizes":[],"default_left":[0,0,0,0,0,0,0,0,0,0,0,0,0,0,0,0,0,0,0,0,0,0,0,0,0,0,0,0,0,0,0,0,0,0,0,0,0,0,0,0,0,0,0,0,0,0,0,0,0,0,0,0,0,0,0,0,0,0,0,0,0],"id":19,"left_children":[1,3,5,7,9,11,13,15,17,19,21,23,25,27,29,31,33,35,37,39,41,43,45,47,49,51,53,55,57,-1,59,-1,-1,-1,-1,-1,-1,-1,-1,-1,-1,-1,-1,-1,-1,-1,-1,-1,-1,-1,-1,-1,-1,-1,-1,-1,-1,-1,-1,-1,-1],"loss_changes":[1.1542149E9,3.2188672E8,3.926624E8,1.9170077E8,8.05696E7,1.7029043E8,8.3340536E7,2.3427648E7,1.7664336E8,9.189901E7,1.485044E8,2.2016672E7,1.2966906E8,6.716894E7,6.954337E7,2.5458184E7,1.8801312E7,2.0568053E8,5.5680076E7,7.548678E7,9.678806E7,1.0390868E8,6.013588E7,2.940608E6,1.931168E6,9.428371E7,1.0756189E8,4.863706E7,8.540762E7,0E0,1.0743872E7,0E0,0E0,0E0,0E0,0E0,0E0,0E0,0E0,0E0,0E0,0E0,0E0,0E0,0E0,0E0,0E0,0E0,0E0,0E0,0E0,0E0,0E0,0E0,0E0,0E0,0E0,0E0,0E0,0E0,0E0],"parents":[2147483647,0,0,1,1,2,2,3,3,4,4,5,5,6,6,7,7,8,8,9,9,10,10,11,11,12,12,13,13,14,14,15,15,16,16,17,17,18,18,19,19,20,20,21,21,22,22,23,23,24,24,25,25,26,26,27,27,28,28,30,30],"right_children":[2,4,6,8,10,12,14,16,18,20,22,24,26,28,30,32,34,36,38,40,42,44,46,48,50,52,54,56,58,-1,60,-1,-1,-1,-1,-1,-1,-1,-1,-1,-1,-1,-1,-1,-1,-1,-1,-1,-1,-1,-1,-1,-1,-1,-1,-1,-1,-1,-1,-1,-1],"split_conditions":[5.033746E2,3.8333333E0,7.4833336E1,1.643581E2,9E0,5.0833332E1,1.2E1,2E0,1.2246469E-16,-7.8564984E-1,-6.744436E-1,2.5881904E-1,2.8333333E0,-9.9887973E-1,1.1316667E1,1.172235E2,8.4583336E1,1.4333333E1,8.660254E-1,-9.911141E-1,7E0,1.1483334E1,8.1653804E-1,8.652779E2,7.288598E2,2.5881904E-1,2.2725E1,1.1275E1,1.5875E1,-2.2785948E2,1.6025E1,-1.3817595E2,1.01171844E2,-1.6881158E2,-6.627484E1,1.8926842E2,-7.157266E0,-6.575514E1,4.7461544E1,-6.874471E1,-1.920534E2,-5.426717E1,-1.6503186E2,3.9810568E2,3.0136932E1,-2.7378397E2,3.8919933E1,3.624079E2,7.801416E1,5.8852932E1,1.9100014E2,2.9796042E2,9.091347E1,9.275741E1,4.4465665E2,2.1075026E1,5.9787354E2,-8.095277E1,4.4733326E1,6.036748E2,1.0173052E2],"split_indices":[5,2,1,5,2,1,2,2,4,3,3,4,2,3,0,5,1,0,4,3,2,0,3,5,5,4,0,0,0,0,0,0,0,0,0,0,0,0,0,0,0,0,0,0,0,0,0,0,0,0,0,0,0,0,0,0,0,0,0,0,0],"split_type":[0,0,0,0,0,0,0,0,0,0,0,0,0,0,0,0,0,0,0,0,0,0,0,0,0,0,0,0,0,0,0,0,0,0,0,0,0,0,0,0,0,0,0,0,0,0,0,0,0,0,0,0,0,0,0,0,0,0,0,0,0],"sum_hessian":[1.998E3,1.271E3,7.27E2,5.23E2,7.48E2,4.99E2,2.28E2,1.04E2,4.19E2,6.86E2,6.2E1,4.7E1,4.52E2,2.23E2,5E0,1.6E1,8.8E1,2.13E2,2.06E2,2.48E2,4.38E2,3.6E1,2.6E1,4.1E1,6E0,1.02E2,3.5E2,5E0,2.18E2,1E0,4E0,7E0,9E0,6E1,2.8E1,1.13E2,1E2,1.45E2,6.1E1,7.1E1,1.77E2,3.35E2,1.03E2,1E1,2.6E1,1.7E1,9E0,4E1,1E0,4E0,2E0,6.8E1,3.4E1,3.42E2,8E0,3E0,2E0,1.23E2,9.5E1,3E0,1E0],"tree_param":{"num_deleted":"0","num_feature":"6","num_nodes":"61","size_leaf_vector":"1"}},{"base_weights":[8.985378E0,-6.684597E2,7.183174E2,2.9376746E2,-8.715014E2,1.249258E3,-4.7445927E1,1.1153711E3,-3.9669443E2,-1.286559E3,-6.322649E2,9.6174023E2,2.1483303E3,1.5855876E2,-9.752281E2,-1.2569987E3,1.5006255E3,-1.1382725E3,5.0201462E2,-1.8985289E3,-1.1339294E3,3.096806E1,-8.086797E2,1.0882103E3,-1.270481E3,1.4933632E3,3.6774382E3,-1.6792282E2,1.3912129E3,-6.4458905E2,-1.7124099E3,1.27478714E2,-1.8908347E2,8.2001755E1,2.304491E2,2.5709473E1,-1.5869766E2,-6.65363E1,9.970544E1,1.0378926E2,-1.9658902E2,-8.342437E1,-1.4341423E2,4.502023E2,-1.3043002E1,-1.503427E2,-6.0412086E1,-4.554847E2,1.12647354E2,1.0140912E2,-4.570291E2,4.6933957E2,9.550631E1,4.0633298E2,-2.5649637E2,-1.090661E2,2.4594303E1,2.1059273E2,-6.004527E1,-9.180236E1,1.604746E2,-1.9624644E2,5.254245E1],"categories":[],"categories_nodes":[],"categories_segments":[],"categories_sizes":[],"default_left":[0,0,0,0,0,0,0,0,0,0,0,0,0,0,0,0,0,0,0,0,0,0,0,0,0,0,0,0,0,0,0,0,0,0,0,0,0,0,0,0,0,0,0,0,0,0,0,0,0,0,0,0,0,0,0,0,0,0,0,0,0,0,0],"id":20,"left_children":[1,3,5,7,9,11,13,15,17,19,21,23,25,27,29,31,33,35,37,39,41,43,45,47,49,51,53,55,57,59,61,-1,-1,-1,-1,-1,-1,-1,-1,-1,-1,-1,-1,-1,-1,-1,-1,-1,-1,-1,-1,-1,-1,-1,-1,-1,-1,-1,-1,-1,-1,-1,-1],"loss_changes":[9.6106656E8,2.0012176E8,3.9728298E8,1.0198666E8,8.309242E7,1.47088E8,7.6796744E7,7.683149E7,6.5884788E7,2.6615872E7,6.297325E7,1.2531632E8,1.3371885E8,1.3263599E8,1.6689296E7,2.166725E7,3.6955616E7,3.4217776E7,2.6668828E7,1.3908448E7,2.1205984E7,8.285185E7,5.949136E7,9.495421E7,1.855624E8,1.6605274E8,1.0918675E8,9.994148E7,9.948408E7,3.3455574E7,1.3341908E7,0E0,0E0,0E0,0E0,0E0,0E0,0E0,0E0,0E0,0E0,0E0,0E0,0E0,0E0,0E0,0E0,0E0,0E0,0E0,0E0,0E0,0E0,0E0,0E0,0E0,0E0,0E0,0E0,0E0,0E0,0E0,0E0],"parents":[2147483647,0,0,1,1,2,2,3,3,4,4,5,5,6,6,7,7,8,8,9,9,10,10,11,11,12,12,13,13,14,14,15,15,16,16,17,17,18,18,19,19,20,20,21,21,22,22,23,23,24,24,25,25,26,26,27,27,28,28,29,29,30,30],"right_children":[2,4,6,8,10,12,14,16,18,20,22,24,26,28,30,32,34,36,38,40,42,44,46,48,50,52,54,56,58,60,62,-1,-1,-1,-1,-1,-1,-1,-1,-1,-1,-1,-1,-1,-1,-1,-1,-1,-1,-1,-1,-1,-1,-1,-1,-1,-1,-1,-1,-1,-1,-1,-1],"split_conditions":[3.998435E2,2.6666667E0,7.2833336E1,2.5881904E-1,1.995226E2,7.552958E2,8.9833336E1,1.29116E2,8.660254E-1,1.161298E2,7.0666664E1,5E0,6.870528E-1,7E0,9.5583336E1,-9.6573997E-1,2.561214E2,5E-1,1.679441E2,6.0083332E1,2.5881904E-1,-9.9732494E-1,-9.5105654E-1,-9.999167E-1,-1.8822671E-1,-5E-1,9.3383723E-1,-8.9963084E-1,5.5243534E-1,7.425592E2,1.2E1,1.27478714E2,-1.8908347E2,8.2001755E1,2.304491E2,2.5709473E1,-1.5869766E2,-6.65363E1,9.970544E1,1.0378926E2,-1.9658902E2,-8.342437E1,-1.4341423E2,4.502023E2,-1.3043002E1,-1.503427E2,-6.0412086E1,-4.554847E2,1.12647354E2,1.0140912E2,-4.570291E2,4.6933957E2,9.550631E1,4.0633298E2,-2.5649637E2,-1.090661E2,2.4594303E1,2.1059273E2,-6.004527E1,-9.180236E1,1.604746E2,-1.9624644E2,5.254245E1],"split_indices":[5,2,1,4,5,5,1,5,4,5,1,2,3,2,1,3,5,4,5,1,4,3,3,3,3,4,3,3,3,5,2,0,0,0,0,0,0,0,0,0,0,0,0,0,0,0,0,0,0,0,0,0,0,0,0,0,0,0,0,0,0,0,0],"split_type":[0,0,0,0,0,0,0,0,0,0,0,0,0,0,0,0,0,0,0,0,0,0,0,0,0,0,0,0,0,0,0,0,0,0,0,0,0,0,0,0,0,0,0,0,0,0,0,0,0,0,0,0,0,0,0,0,0,0,0,0,0,0,0],"sum_hessian":[1.998E3,1.022E3,9.76E2,1.78E2,8.44E2,5.76E2,4E2,8.1E1,9.7E1,3.07E2,5.37E2,4.38E2,1.38E2,3.28E2,7.2E1,1.1E1,7E1,5.3E1,4.4E1,5.9E1,2.48E2,1.13E2,4.24E2,4.15E2,2.3E1,9.8E1,4E1,2.6E2,6.8E1,5.1E1,2.1E1,2E0,9E0,3.9E1,3.1E1,1.3E1,4E1,1.3E1,3.1E1,1E0,5.8E1,1.26E2,1.22E2,3E0,1.1E2,9.5E1,3.29E2,2E0,4.13E2,1.4E1,9E0,1.3E1,8.5E1,3.8E1,2E0,8E1,1.8E2,5E1,1.8E1,4.6E1,5E0,1.9E1,2E0],"tree_param":{"num_deleted":"0","num_feature":"6","num_nodes":"63","size_leaf_vector":"1"}},{"base_weights":[8.119509E0,-6.6901544E2,5.872571E2,-3.9118283E2,-1.0919238E3,1.2500286E3,-5.6165595E0,5.493605E2,-5.977411E2,-1.5749849E3,-6.0817914E2,1.9639379E3,8.534705E2,-2.133009E2,1.1044033E3,-1.3304824E3,7.9390216E2,-4.4122247E2,-1.4307268E3,-1.7359673E3,-7.9551935E2,-8.4090936E2,7.762487E2,2.4213696E3,3.9240485E2,1.7033588E3,4.8553802E2,-4.3433322E2,-1.6079358E2,6.343962E2,4.8010205E3,1.1898014E2,-1.9535193E2,3.090119E1,1.2719256E2,-5.2248707E1,1.3582129E2,-1.2301888E2,-2.4309656E2,-1.9407195E2,-1.00776115E2,-9.6510315E1,1.22201965E2,4.6966213E1,-1.20404724E2,-1.8413326E2,1.1801686E2,2.1645808E2,3.572325E2,-1.4461667E2,6.2399567E1,-2.927333E2,1.9291493E2,9.705367E1,-3.4347755E1,2.903066E2,-2.327714E1,4.7181583E2,5.839598E0,5.281828E2,2.3687597E1],"categories":[],"categories_nodes":[],"categories_segments":[],"categories_sizes":[],"default_left":[0,0,0,0,0,0,0,0,0,0,0,0,0,0,0,0,0,0,0,0,0,0,0,0,0,0,0,0,0,0,0,0,0,0,0,0,0,0,0,0,0,0,0,0,0,0,0,0,0,0,0,0,0,0,0,0,0,0,0,0,0],"id":21,"left_children":[1,3,5,7,9,11,13,15,17,19,21,23,25,27,29,31,33,35,37,39,41,43,45,47,49,51,53,-1,55,57,59,-1,-1,-1,-1,-1,-1,-1,-1,-1,-1,-1,-1,-1,-1,-1,-1,-1,-1,-1,-1,-1,-1,-1,-1,-1,-1,-1,-1,-1,-1],"loss_changes":[7.843093E8,1.0790579E8,4.2359603E8,1.08734936E8,8.433462E7,1.4242509E8,1.3163981E8,4.7485976E7,5.9081744E7,2.1456448E7,5.9937216E7,1.2916512E8,1.0205174E8,1.03609784E8,1.533235E8,2.1167058E7,2.0467956E7,5.730083E7,1.1451648E7,2.0409472E7,1.247006E7,7.576056E7,3.0719992E7,3.3644736E7,1.8785848E7,1.0915834E8,9.321186E7,0E0,1.05648E8,1.9025653E8,2.0693616E7,0E0,0E0,0E0,0E0,0E0,0E0,0E0,0E0,0E0,0E0,0E0,0E0,0E0,0E0,0E0,0E0,0E0,0E0,0E0,0E0,0E0,0E0,0E0,0E0,0E0,0E0,0E0,0E0,0E0,0E0],"parents":[2147483647,0,0,1,1,2,2,3,3,4,4,5,5,6,6,7,7,8,8,9,9,10,10,11,11,12,12,13,13,14,14,15,15,16,16,17,17,18,18,19,19,20,20,21,21,22,22,23,23,24,24,25,25,26,26,28,28,29,29,30,30],"right_children":[2,4,6,8,10,12,14,16,18,20,22,24,26,28,30,32,34,36,38,40,42,44,46,48,50,52,54,-1,56,58,60,-1,-1,-1,-1,-1,-1,-1,-1,-1,-1,-1,-1,-1,-1,-1,-1,-1,-1,-1,-1,-1,-1,-1,-1,-1,-1,-1,-1,-1,-1],"split_conditions":[3.70291E2,5E-1,4E0,3E0,8.660254E-1,2.8333333E0,7.604255E2,1.217569E2,9.0583336E1,3.155198E2,2.726433E2,5E-1,5.8583332E1,-9.999167E-1,6.870528E-1,6.05E1,6.65E1,9.634706E-1,5.4524046E-1,9.3083336E1,9.175E1,2.6666667E0,7.9666667E0,8.022258E2,-8.498171E-1,-9.966589E-1,1.6025E1,-4.3433322E2,-9.995463E-1,-5E-1,9.209713E-1,1.1898014E2,-1.9535193E2,3.090119E1,1.2719256E2,-5.2248707E1,1.3582129E2,-1.2301888E2,-2.4309656E2,-1.9407195E2,-1.00776115E2,-9.6510315E1,1.22201965E2,4.6966213E1,-1.20404724E2,-1.8413326E2,1.1801686E2,2.1645808E2,3.572325E2,-1.4461667E2,6.2399567E1,-2.927333E2,1.9291493E2,9.705367E1,-3.4347755E1,2.903066E2,-2.327714E1,4.7181583E2,5.839598E0,5.281828E2,2.3687597E1],"split_indices":[5,4,2,2,4,2,5,5,1,5,5,4,1,3,3,1,1,3,3,1,1,2,0,5,3,3,0,0,3,4,3,0,0,0,0,0,0,0,0,0,0,0,0,0,0,0,0,0,0,0,0,0,0,0,0,0,0,0,0,0,0],"split_type":[0,0,0,0,0,0,0,0,0,0,0,0,0,0,0,0,0,0,0,0,0,0,0,0,0,0,0,0,0,0,0,0,0,0,0,0,0,0,0,0,0,0,0,0,0,0,0,0,0,0,0,0,0,0,0,0,0,0,0,0,0],"sum_hessian":[1.998E3,9.21E2,1.077E3,5.57E2,3.64E2,5.08E2,5.69E2,1E2,4.57E2,1.81E2,1.83E2,1.8E2,3.28E2,4.8E2,8.9E1,1.1E1,8.9E1,3.86E2,7.1E1,1.49E2,3.2E1,1.57E2,2.6E1,1.39E2,4.1E1,9.8E1,2.3E2,5E0,4.75E2,8E1,9E0,2E0,9E0,4.5E1,4.4E1,3.7E2,1.6E1,6.1E1,1E1,1.15E2,3.4E1,3E1,2E0,3.4E1,1.23E2,3E0,2.3E1,1.16E2,2.3E1,4E0,3.7E1,4E0,9.4E1,1.45E2,8.5E1,1E1,4.65E2,9E0,7.1E1,8E0,1E0],"tree_param":{"num_deleted":"0","num_feature":"6","num_nodes":"61","size_leaf_vector":"1"}},{"base_weights":[7.6612997E0,-3.4714426E2,9.4775256E2,-3.9348805E-1,-7.785724E2,1.5791368E3,4.3201572E2,-2.0555911E2,1.246801E3,-6.9951715E2,-1.6887173E3,2.4544001E3,1.2898591E3,5.6281647E2,-2.1168804E3,-9.6497614E2,-2.0099846E1,1.8349357E3,2.224382E1,-1.0197038E3,-5.0172232E2,-2.2304531E3,2.5779514E2,2.6086711E3,-1.3463033E3,2.0352755E3,8.160673E2,3.1201025E2,2.0722783E3,-5.352503E2,-8.619328E2,3.3803196E1,-1.11727234E2,3.2141796E1,-5.1581173E1,4.7022533E1,2.5214502E2,-1.8409758E2,4.29128E1,-1.5263504E2,-6.501465E1,-1.0286816E2,-3.0878942E1,-1.3240239E2,-2.617844E2,5.3117474E1,-1.3746902E2,2.2174394E2,5.142295E2,5.9692482E1,-2.61638E2,1.6152512E2,3.6600015E2,6.2970013E1,4.127849E2,2.443666E1,5.7773346E2,9.0834963E-1,5.647877E2,-3.198856E2,2.7247007E1],"categories":[],"categories_nodes":[],"categories_segments":[],"categories_sizes":[],"default_left":[0,0,0,0,0,0,0,0,0,0,0,0,0,0,0,0,0,0,0,0,0,0,0,0,0,0,0,0,0,0,0,0,0,0,0,0,0,0,0,0,0,0,0,0,0,0,0,0,0,0,0,0,0,0,0,0,0,0,0,0,0],"id":22,"left_children":[1,3,5,7,9,11,13,15,17,19,21,23,25,27,29,31,33,35,37,39,41,43,45,47,49,51,53,55,57,-1,59,-1,-1,-1,-1,-1,-1,-1,-1,-1,-1,-1,-1,-1,-1,-1,-1,-1,-1,-1,-1,-1,-1,-1,-1,-1,-1,-1,-1,-1,-1],"loss_changes":[6.670947E8,2.1721602E8,1.7776198E8,2.0649672E8,4.537149E7,5.9119936E7,1.0221088E8,9.758335E7,8.206251E7,3.729715E7,5.435427E7,3.869232E7,6.438227E7,1.0876375E8,5.629455E7,2.7365968E7,9.463208E7,7.095515E7,2.9598364E7,4.1509984E7,3.740109E7,1.0579616E7,6.0856585E6,4.608883E7,8.965926E6,4.322275E7,6.899676E7,9.064216E7,3.024121E8,0E0,3.268374E7,0E0,0E0,0E0,0E0,0E0,0E0,0E0,0E0,0E0,0E0,0E0,0E0,0E0,0E0,0E0,0E0,0E0,0E0,0E0,0E0,0E0,0E0,0E0,0E0,0E0,0E0,0E0,0E0,0E0,0E0],"parents":[2147483647,0,0,1,1,2,2,3,3,4,4,5,5,6,6,7,7,8,8,9,9,10,10,11,11,12,12,13,13,14,14,15,15,16,16,17,17,18,18,19,19,20,20,21,21,22,22,23,23,24,24,25,25,26,26,27,27,28,28,30,30],"right_children":[2,4,6,8,10,12,14,16,18,20,22,24,26,28,30,32,34,36,38,40,42,44,46,48,50,52,54,56,58,-1,60,-1,-1,-1,-1,-1,-1,-1,-1,-1,-1,-1,-1,-1,-1,-1,-1,-1,-1,-1,-1,-1,-1,-1,-1,-1,-1,-1,-1,-1,-1],"split_conditions":[5.709376E2,8.1E1,3.8333333E0,9.209713E-1,9.3383723E-1,5.4083332E1,9.796137E-1,2.028396E2,5E-1,-8.1153905E-1,9.8734945E-1,8.652779E2,2.8333333E0,6.870528E-1,5.8E1,2E0,4E0,3.155198E2,6.258333E0,2.813146E2,6.866667E0,7.75E0,9.7666664E1,5.35E1,1.5966666E1,8.022258E2,2.2141666E1,1.7833334E1,1.3625E1,-5.352503E2,1.1E1,3.3803196E1,-1.11727234E2,3.2141796E1,-5.1581173E1,4.7022533E1,2.5214502E2,-1.8409758E2,4.29128E1,-1.5263504E2,-6.501465E1,-1.0286816E2,-3.0878942E1,-1.3240239E2,-2.617844E2,5.3117474E1,-1.3746902E2,2.2174394E2,5.142295E2,5.9692482E1,-2.61638E2,1.6152512E2,3.6600015E2,6.2970013E1,4.127849E2,2.443666E1,5.7773346E2,9.0834963E-1,5.647877E2,-3.198856E2,2.7247007E1],"split_indices":[5,1,2,3,3,1,3,5,4,3,3,5,2,3,1,2,2,5,0,5,0,0,1,1,0,5,0,2,0,0,0,0,0,0,0,0,0,0,0,0,0,0,0,0,0,0,0,0,0,0,0,0,0,0,0,0,0,0,0,0,0],"split_type":[0,0,0,0,0,0,0,0,0,0,0,0,0,0,0,0,0,0,0,0,0,0,0,0,0,0,0,0,0,0,0,0,0,0,0,0,0,0,0,0,0,0,0,0,0,0,0,0,0,0,0,0,0,0,0,0,0,0,0,0,0],"sum_hessian":[1.998E3,1.451E3,5.47E2,8.05E2,6.46E2,2.45E2,3.02E2,6.92E2,1.13E2,5.96E2,5E1,5.9E1,1.86E2,2.88E2,1.4E1,1.35E2,5.57E2,7.6E1,3.7E1,2.26E2,3.7E2,3.9E1,1.1E1,5.7E1,2E0,7.1E1,1.15E2,2.48E2,4E1,3E0,1.1E1,1.4E1,1.21E2,3.3E2,2.27E2,2.6E1,5E1,6E0,3.1E1,9.4E1,1.32E2,9.8E1,2.72E2,1.3E1,2.6E1,1E1,1E0,5.1E1,6E0,1E0,1E0,5.8E1,1.3E1,1.1E2,5E0,2.46E2,2E0,2.6E1,1.4E1,3E0,8E0],"tree_param":{"num_deleted":"0","num_feature":"6","num_nodes":"61","size_leaf_vector":"1"}},{"base_weights":[7.449361E0,-3.129597E2,8.5640283E2,1.1389528E2,-6.0608997E2,1.3778557E3,3.4499945E2,4.4884225E2,-4.7123856E2,-7.1255054E2,6.262184E2,1.813234E3,8.06505E2,4.7280832E2,-2.0988828E3,-1.3954713E0,1.3674838E3,-6.11216E2,9.311013E2,-4.9839914E2,-1.209843E3,1.6222003E3,-8.0348773E2,3.787806E3,1.663519E3,-4.8984463E3,9.9627484E2,1.9275914E2,2.0907148E3,-4.9510654E2,-8.70918E2,4.719564E1,-8.6919174E1,3.5652945E2,1.0779628E2,-9.5519585E1,-1.4673438E1,1.5534734E2,3.8673058E1,1.2756216E2,-6.0917065E1,-2.3705188E2,-1.01143906E2,2.42243E2,-1.1007546E2,-1.346033E2,4.3472485E2,4.5924982E2,3.7935875E1,-3.352211E2,1.7220361E2,6.366699E0,-6.5737067E2,1.4617006E1,1.3617996E2,1.2257685E1,5.3921783E2,3.874626E1,5.1045612E2,-2.9589417E2,2.819585E1],"categories":[],"categories_nodes":[],"categories_segments":[],"categories_sizes":[],"default_left":[0,0,0,0,0,0,0,0,0,0,0,0,0,0,0,0,0,0,0,0,0,0,0,0,0,0,0,0,0,0,0,0,0,0,0,0,0,0,0,0,0,0,0,0,0,0,0,0,0,0,0,0,0,0,0,0,0,0,0,0,0],"id":23,"left_children":[1,3,5,7,9,11,13,15,17,19,21,23,25,27,29,31,33,35,37,39,41,43,45,47,49,51,53,55,57,-1,59,-1,-1,-1,-1,-1,-1,-1,-1,-1,-1,-1,-1,-1,-1,-1,-1,-1,-1,-1,-1,-1,-1,-1,-1,-1,-1,-1,-1,-1,-1],"loss_changes":[5.440208E8,1.8174926E8,1.4566134E8,1.162369E8,1.1340266E8,6.5949856E7,8.782563E7,1.5593176E8,4.296903E7,8.384826E7,9.955677E7,3.892925E7,1.3371289E8,1.1966675E8,4.472134E7,1.0474655E8,7.505947E7,3.1334992E7,6.175246E6,1.100372E8,5.2409664E7,9.200506E7,8.689225E7,2.5685312E7,4.803744E7,3.366984E7,3.584611E7,8.217297E7,1.9822242E8,0E0,2.7313868E7,0E0,0E0,0E0,0E0,0E0,0E0,0E0,0E0,0E0,0E0,0E0,0E0,0E0,0E0,0E0,0E0,0E0,0E0,0E0,0E0,0E0,0E0,0E0,0E0,0E0,0E0,0E0,0E0,0E0,0E0],"parents":[2147483647,0,0,1,1,2,2,3,3,4,4,5,5,6,6,7,7,8,8,9,9,10,10,11,11,12,12,13,13,14,14,15,15,16,16,17,17,18,18,19,19,20,20,21,21,22,22,23,23,24,24,25,25,26,26,27,27,28,28,30,30],"right_children":[2,4,6,8,10,12,14,16,18,20,22,24,26,28,30,32,34,36,38,40,42,44,46,48,50,52,54,56,58,-1,60,-1,-1,-1,-1,-1,-1,-1,-1,-1,-1,-1,-1,-1,-1,-1,-1,-1,-1,-1,-1,-1,-1,-1,-1,-1,-1,-1,-1,-1,-1],"split_conditions":[5.709376E2,3.8333333E0,4E0,5E-1,1.2E1,6.16E1,9.796137E-1,5.7377225E-1,1.7441668E1,6.5E0,-6.4862955E-1,1.1483334E1,6.1916668E1,6.870528E-1,5.8E1,-4.559067E-1,7.75E0,8.660254E-1,3.986518E2,-9.9843544E-1,8.2333336E1,8.886667E1,4.913583E2,2.5881904E-1,1.1983334E1,1.1941667E1,6.48699E2,1.7833334E1,1.3625E1,-4.9510654E2,1.1E1,4.719564E1,-8.6919174E1,3.5652945E2,1.0779628E2,-9.5519585E1,-1.4673438E1,1.5534734E2,3.8673058E1,1.2756216E2,-6.0917065E1,-2.3705188E2,-1.01143906E2,2.42243E2,-1.1007546E2,-1.346033E2,4.3472485E2,4.5924982E2,3.7935875E1,-3.352211E2,1.7220361E2,6.366699E0,-6.5737067E2,1.4617006E1,1.3617996E2,1.2257685E1,5.3921783E2,3.874626E1,5.1045612E2,-2.9589417E2,2.819585E1],"split_indices":[5,2,2,4,2,1,3,3,0,2,3,0,1,3,1,3,0,4,5,3,1,1,5,4,0,0,5,2,0,0,0,0,0,0,0,0,0,0,0,0,0,0,0,0,0,0,0,0,0,0,0,0,0,0,0,0,0,0,0,0,0],"split_type":[0,0,0,0,0,0,0,0,0,0,0,0,0,0,0,0,0,0,0,0,0,0,0,0,0,0,0,0,0,0,0,0,0,0,0,0,0,0,0,0,0,0,0,0,0,0,0,0,0,0,0,0,0,0,0,0,0,0,0,0,0],"sum_hessian":[1.998E3,1.451E3,5.47E2,5.91E2,8.6E2,2.7E2,2.77E2,3.76E2,2.15E2,7.92E2,6.8E1,1.52E2,1.18E2,2.64E2,1.3E1,2.53E2,1.23E2,1.96E2,1.9E1,5.55E2,2.37E2,4E1,2.8E1,9E0,1.43E2,3E0,1.15E2,2.26E2,3.8E1,3E0,1E1,1.64E2,8.9E1,1.3E1,1.1E2,1.12E2,8.4E1,8E0,1.1E1,3.2E1,5.23E2,3.3E1,2.04E2,3.1E1,9E0,2.6E1,2E0,7E0,2E0,1E0,1.42E2,1E0,2E0,3.5E1,8E1,2.24E2,2E0,2.5E1,1.3E1,3E0,7E0],"tree_param":{"num_deleted":"0","num_feature":"6","num_nodes":"61","size_leaf_vector":"1"}},{"base_weights":[7.12515E0,-5.100044E2,4.49413E2,-2.4273607E2,-8.035075E2,1.5394766E3,2.292004E2,-1.1341564E2,-1.362969E3,-1.0595315E3,-4.429333E2,2.0253864E3,5.741757E2,5.132932E2,-2.4977733E2,-1.4691902E3,8.887607E0,-1.459766E3,6.40105E2,-5.642945E2,-1.257791E3,-6.2833466E2,8.8219525E2,1.8183969E3,2.777578E3,-1.0622856E3,8.0176697E2,-4.1570334E2,5.540759E2,-1.1636428E2,-1.5543323E3,1.0337768E2,-1.6468288E2,6.981858E1,-2.751151E1,-5.5132782E1,-1.576416E2,1.7033861E2,-7.432285E1,-1.6990158E1,-1.0889506E2,-1.4373158E2,-6.620699E1,5.3437305E1,-9.5297356E1,-1.7085155E2,1.3562277E2,1.8938567E2,-2.712871E2,3.074435E2,1.03463356E2,-2.2466167E2,6.836997E1,2.9447233E1,1.3562697E2,6.686132E2,4.9793503E1,-4.6939163E1,5.704424E1,-1.7259387E2,6.226413E1],"categories":[],"categories_nodes":[],"categories_segments":[],"categories_sizes":[],"default_left":[0,0,0,0,0,0,0,0,0,0,0,0,0,0,0,0,0,0,0,0,0,0,0,0,0,0,0,0,0,0,0,0,0,0,0,0,0,0,0,0,0,0,0,0,0,0,0,0,0,0,0,0,0,0,0,0,0,0,0,0,0],"id":24,"left_children":[1,3,5,7,9,11,13,15,17,19,21,23,25,27,29,31,33,35,37,39,41,43,45,47,49,51,53,-1,55,57,59,-1,-1,-1,-1,-1,-1,-1,-1,-1,-1,-1,-1,-1,-1,-1,-1,-1,-1,-1,-1,-1,-1,-1,-1,-1,-1,-1,-1,-1,-1],"loss_changes":[4.5744074E8,7.21304E7,2.5841643E8,6.996202E7,4.005728E7,8.373498E7,1.2232277E8,7.2142856E7,1.0628968E7,2.4425696E7,4.5759556E7,1.3632736E7,2.3943242E7,1.097277E8,5.8124084E7,1.7708888E7,7.849711E7,4.217408E6,5.678622E6,1.5334038E7,1.8512704E7,6.165779E7,3.0562992E7,3.8304864E7,9.236816E6,1.8078612E7,1.5071912E7,0E0,1.8945597E8,7.4218536E7,1.265572E7,0E0,0E0,0E0,0E0,0E0,0E0,0E0,0E0,0E0,0E0,0E0,0E0,0E0,0E0,0E0,0E0,0E0,0E0,0E0,0E0,0E0,0E0,0E0,0E0,0E0,0E0,0E0,0E0,0E0,0E0],"parents":[2147483647,0,0,1,1,2,2,3,3,4,4,5,5,6,6,7,7,8,8,9,9,10,10,11,11,12,12,13,13,14,14,15,15,16,16,17,17,18,18,19,19,20,20,21,21,22,22,23,23,24,24,25,25,26,26,28,28,29,29,30,30],"right_children":[2,4,6,8,10,12,14,16,18,20,22,24,26,28,30,32,34,36,38,40,42,44,46,48,50,52,54,-1,56,58,60,-1,-1,-1,-1,-1,-1,-1,-1,-1,-1,-1,-1,-1,-1,-1,-1,-1,-1,-1,-1,-1,-1,-1,-1,-1,-1,-1,-1,-1,-1],"split_conditions":[3.70291E2,2.5881904E-1,2.8333333E0,9.0583336E1,8.660254E-1,2.5881904E-1,7.7166664E1,1.161298E2,1.5483334E1,5E-1,2.845155E2,7.89932E2,-8.498171E-1,-9.999167E-1,9.5416664E1,6.05E1,9.46E0,-9.0701383E-1,1.5825E1,2.900568E2,9.1583336E1,2.6666667E0,7.9666667E0,7.781402E2,8.652779E2,1.5483334E1,6.65E1,-4.1570334E2,-9.995463E-1,7E0,1.2E1,1.0337768E2,-1.6468288E2,6.981858E1,-2.751151E1,-5.5132782E1,-1.576416E2,1.7033861E2,-7.432285E1,-1.6990158E1,-1.0889506E2,-1.4373158E2,-6.620699E1,5.3437305E1,-9.5297356E1,-1.7085155E2,1.3562277E2,1.8938567E2,-2.712871E2,3.074435E2,1.03463356E2,-2.2466167E2,6.836997E1,2.9447233E1,1.3562697E2,6.686132E2,4.9793503E1,-4.6939163E1,5.704424E1,-1.7259387E2,6.226413E1],"split_indices":[5,4,2,1,4,4,1,5,0,4,5,5,3,3,1,1,0,3,0,5,1,2,0,5,5,0,1,0,3,2,2,0,0,0,0,0,0,0,0,0,0,0,0,0,0,0,0,0,0,0,0,0,0,0,0,0,0,0,0,0,0],"split_type":[0,0,0,0,0,0,0,0,0,0,0,0,0,0,0,0,0,0,0,0,0,0,0,0,0,0,0,0,0,0,0,0,0,0,0,0,0,0,0,0,0,0,0,0,0,0,0,0,0,0,0,0,0,0,0,0,0,0,0,0,0],"sum_hessian":[1.998E3,9.21E2,1.077E3,4.83E2,4.38E2,1.8E2,8.97E2,4.34E2,4.9E1,2.55E2,1.83E2,1.19E2,6.1E1,5.63E2,3.34E2,3.5E1,3.99E2,4.7E1,2E0,7.4E1,1.81E2,1.61E2,2.2E1,9.6E1,2.3E1,7E0,5.4E1,4E0,5.59E2,3.04E2,3E1,2E0,3.3E1,1.16E2,2.83E2,6E0,4.1E1,1E0,1E0,4.3E1,3.1E1,1.38E2,4.3E1,3.5E1,1.26E2,3E0,1.9E1,9.5E1,1E0,1.9E1,4E0,4E0,3E0,2.9E1,2.5E1,4E0,5.55E2,2.01E2,1.03E2,2.8E1,2E0],"tree_param":{"num_deleted":"0","num_feature":"6","num_nodes":"61","size_leaf_vector":"1"}},{"base_weights":[6.408536E0,-3.2224313E2,5.8063727E2,3.7291748E2,-4.5770898E2,8.225947E2,-2.370918E2,1.0811342E3,-1.35179E2,-5.0025397E2,1.1358401E3,5.012454E2,1.5130269E3,-5.106511E2,2.2067048E3,2.0604211E2,1.8566283E3,-3.7987048E2,1.0597596E3,-7.487257E2,-2.6704526E2,3.886405E2,2.9552588E3,1.2058817E3,-3.271311E1,2.3960176E3,3.7616464E2,-3.1354253E3,-2.8202292E2,3.5037827E3,-7.5523505E2,-6.260636E1,1.0679604E2,9.388311E1,2.270439E2,-1.8535677E2,-1.9953856E1,-8.8030594E1,1.2007782E2,1.9967808E-1,-8.317747E1,-1.3146743E0,-8.2949615E1,-1.1459385E2,1.421146E2,3.5557275E2,7.692351E1,1.1132523E2,5.867657E2,-7.485824E1,6.899615E1,2.97276E2,9.5119354E1,-3.572557E2,8.09687E1,-3.638954E2,-4.1185547E1,-4.104692E1,3.2681207E2,4.305046E2,-3.3502182E1,5.0810646E1,-2.1879454E2],"categories":[],"categories_nodes":[],"categories_segments":[],"categories_sizes":[],"default_left":[0,0,0,0,0,0,0,0,0,0,0,0,0,0,0,0,0,0,0,0,0,0,0,0,0,0,0,0,0,0,0,0,0,0,0,0,0,0,0,0,0,0,0,0,0,0,0,0,0,0,0,0,0,0,0,0,0,0,0,0,0,0,0],"id":25,"left_children":[1,3,5,7,9,11,13,15,17,19,21,23,25,27,29,31,33,35,37,39,41,43,45,47,49,51,53,55,57,59,61,-1,-1,-1,-1,-1,-1,-1,-1,-1,-1,-1,-1,-1,-1,-1,-1,-1,-1,-1,-1,-1,-1,-1,-1,-1,-1,-1,-1,-1,-1,-1,-1],"loss_changes":[3.774408E8,1.1995562E8,1.4423395E8,7.499336E7,7.27725E7,1.2393248E8,1.1277024E8,5.865817E7,3.607431E7,5.994779E7,3.69166E7,1.4489437E8,1.7778205E8,8.973043E7,6.795792E7,3.0791312E7,1.5338976E7,2.6737116E7,6.802344E6,3.129968E7,7.66756E7,3.4902224E7,7.76592E6,6.5149424E7,1.14331416E8,8.050144E7,1.3812952E8,1.4958016E7,6.518185E7,3.835299E7,1.1971724E7,0E0,0E0,0E0,0E0,0E0,0E0,0E0,0E0,0E0,0E0,0E0,0E0,0E0,0E0,0E0,0E0,0E0,0E0,0E0,0E0,0E0,0E0,0E0,0E0,0E0,0E0,0E0,0E0,0E0,0E0,0E0,0E0],"parents":[2147483647,0,0,1,1,2,2,3,3,4,4,5,5,6,6,7,7,8,8,9,9,10,10,11,11,12,12,13,13,14,14,15,15,16,16,17,17,18,18,19,19,20,20,21,21,22,22,23,23,24,24,25,25,26,26,27,27,28,28,29,29,30,30],"right_children":[2,4,6,8,10,12,14,16,18,20,22,24,26,28,30,32,34,36,38,40,42,44,46,48,50,52,54,56,58,60,62,-1,-1,-1,-1,-1,-1,-1,-1,-1,-1,-1,-1,-1,-1,-1,-1,-1,-1,-1,-1,-1,-1,-1,-1,-1,-1,-1,-1,-1,-1,-1,-1],"split_conditions":[5.033746E2,2.6666667E0,7.875E1,1.2246469E-16,2.0041666E1,6.870528E-1,1.8525E1,2.451585E2,9.659258E-1,2.63974E2,3.871667E2,-4.171936E-1,9.427611E-1,7.975E1,1.9566668E1,6.6666664E1,-9.659258E-1,1.471511E2,-5.380052E-1,5.0416665E0,1.4333333E1,-5.947267E-1,2.1866667E1,7.85E1,7.480656E2,2.5881904E-1,9.455964E-1,5E-1,1.2E1,8.7583336E1,7.083389E2,-6.260636E1,1.0679604E2,9.388311E1,2.270439E2,-1.8535677E2,-1.9953856E1,-8.8030594E1,1.2007782E2,1.9967808E-1,-8.317747E1,-1.3146743E0,-8.2949615E1,-1.1459385E2,1.421146E2,3.5557275E2,7.692351E1,1.1132523E2,5.867657E2,-7.485824E1,6.899615E1,2.97276E2,9.5119354E1,-3.572557E2,8.09687E1,-3.638954E2,-4.1185547E1,-4.104692E1,3.2681207E2,4.305046E2,-3.3502182E1,5.0810646E1,-2.1879454E2],"split_indices":[5,2,1,4,0,3,0,5,4,5,5,3,3,1,0,1,4,5,3,0,0,3,0,1,5,4,3,4,2,1,5,0,0,0,0,0,0,0,0,0,0,0,0,0,0,0,0,0,0,0,0,0,0,0,0,0,0,0,0,0,0,0,0],"split_type":[0,0,0,0,0,0,0,0,0,0,0,0,0,0,0,0,0,0,0,0,0,0,0,0,0,0,0,0,0,0,0,0,0,0,0,0,0,0,0,0,0,0,0,0,0,0,0,0,0,0,0,0,0,0,0,0,0,0,0,0,0,0,0],"sum_hessian":[1.998E3,1.271E3,7.27E2,2.07E2,1.064E3,5.61E2,1.66E2,8.6E1,1.21E2,1.037E3,2.7E1,3.84E2,1.77E2,1.5E2,1.6E1,4.1E1,4.5E1,1.01E2,2E1,5.01E2,5.36E2,2E1,7E0,1.65E2,2.19E2,9.9E1,7.8E1,1.1E1,1.39E2,1.1E1,5E0,2.1E1,2E1,1.5E1,3E1,1E1,9.1E1,1E0,1.9E1,5E1,4.51E2,3.7E2,1.66E2,8E0,1.2E1,5E0,2E0,1.63E2,2E0,1.1E2,1.09E2,7E1,2.9E1,7E0,7.1E1,9E0,2E0,1.35E2,4E0,9E0,2E0,3E0,2E0],"tree_param":{"num_deleted":"0","num_feature":"6","num_nodes":"63","size_leaf_vector":"1"}},{"base_weights":[6.4692926E0,-2.3538943E2,6.4729486E2,1.0616336E2,-4.6995837E2,1.2099916E3,3.3302896E2,-8.9563226E2,2.378766E2,-5.605978E2,5.7854865E2,1.3438124E3,-1.4134574E3,2.8578186E2,4.383895E2,7.600057E2,-1.0368541E3,6.580448E2,-8.7989586E1,-3.7877322E2,-9.8300885E2,1.4680853E3,-6.9902203E2,9.2464386E2,1.8809386E3,-7.725574E1,-4.5055093E2,1.4553238E1,1.003256E3,1.2999051E2,-9.697456E1,-2.866416E2,-6.0305042E1,1.4781322E2,-6.0714455E0,-1.8525305E2,-1.3384387E0,1.12813255E2,-4.7295094E1,-2.0360437E2,-8.035641E1,2.189364E2,-9.868151E1,3.9870544E2,-1.1938075E2,7.922696E1,5.249529E2,2.5647137E2,8.602874E1,-3.569789E2,9.316475E1,2.3950632E1,-1.1654337E2,4.895344E2,6.893908E1],"categories":[],"categories_nodes":[],"categories_segments":[],"categories_sizes":[],"default_left":[0,0,0,0,0,0,0,0,0,0,0,0,0,0,0,0,0,0,0,0,0,0,0,0,0,0,0,0,0,0,0,0,0,0,0,0,0,0,0,0,0,0,0,0,0,0,0,0,0,0,0,0,0,0,0],"id":26,"left_children":[1,3,5,7,9,11,13,15,17,19,21,23,25,27,-1,29,31,33,35,37,39,41,43,45,47,49,-1,51,53,-1,-1,-1,-1,-1,-1,-1,-1,-1,-1,-1,-1,-1,-1,-1,-1,-1,-1,-1,-1,-1,-1,-1,-1,-1,-1],"loss_changes":[3.0997587E8,1.1638077E8,9.650336E7,7.8327304E7,8.215032E7,7.070957E7,6.630846E7,1.6921056E7,7.180325E7,6.0533776E7,7.944099E7,4.03632E7,4.0967976E7,6.809523E7,0E0,6.863927E6,4.9066336E7,1.3507272E8,3.894181E7,7.943935E7,4.3336784E7,7.475785E7,7.199925E7,5.7098824E7,5.432317E7,3.1514808E7,0E0,6.796677E7,1.1389793E8,0E0,0E0,0E0,0E0,0E0,0E0,0E0,0E0,0E0,0E0,0E0,0E0,0E0,0E0,0E0,0E0,0E0,0E0,0E0,0E0,0E0,0E0,0E0,0E0,0E0,0E0],"parents":[2147483647,0,0,1,1,2,2,3,3,4,4,5,5,6,6,7,7,8,8,9,9,10,10,11,11,12,12,13,13,15,15,16,16,17,17,18,18,19,19,20,20,21,21,22,22,23,23,24,24,25,25,27,27,28,28],"right_children":[2,4,6,8,10,12,14,16,18,20,22,24,26,28,-1,30,32,34,36,38,40,42,44,46,48,50,-1,52,54,-1,-1,-1,-1,-1,-1,-1,-1,-1,-1,-1,-1,-1,-1,-1,-1,-1,-1,-1,-1,-1,-1,-1,-1,-1,-1],"split_conditions":[5.709376E2,3.8333333E0,6.16E1,1.367913E2,1.2E1,5E0,2.2725E1,6.05E1,-2.5881904E-1,6.5E0,-6.4862955E-1,5.234156E-1,4.7873384E-1,7.676768E2,4.383895E2,8.9198136E-1,6.8416664E1,1.4358334E1,-9.9421793E-1,-9.9843544E-1,8.2333336E1,8.886667E1,6.6916664E1,6.125E1,9.427611E-1,7E0,-4.5055093E2,7.320966E2,-5E-1,1.2999051E2,-9.697456E1,-2.866416E2,-6.0305042E1,1.4781322E2,-6.0714455E0,-1.8525305E2,-1.3384387E0,1.12813255E2,-4.7295094E1,-2.0360437E2,-8.035641E1,2.189364E2,-9.868151E1,3.9870544E2,-1.1938075E2,7.922696E1,5.249529E2,2.5647137E2,8.602874E1,-3.569789E2,9.316475E1,2.3950632E1,-1.1654337E2,4.895344E2,6.893908E1],"split_indices":[5,2,1,5,2,2,0,1,4,2,3,3,3,5,0,3,1,0,3,3,1,1,1,1,3,2,0,5,4,0,0,0,0,0,0,0,0,0,0,0,0,0,0,0,0,0,0,0,0,0,0,0,0,0,0],"split_type":[0,0,0,0,0,0,0,0,0,0,0,0,0,0,0,0,0,0,0,0,0,0,0,0,0,0,0,0,0,0,0,0,0,0,0,0,0,0,0,0,0,0,0,0,0,0,0,0,0,0,0,0,0,0,0],"sum_hessian":[1.998E3,1.451E3,5.47E2,5.91E2,8.6E2,1.95E2,3.52E2,6.8E1,5.23E2,7.92E2,6.8E1,1.86E2,9E0,3.49E2,3E0,5E0,6.3E1,2.28E2,2.95E2,5.55E2,2.37E2,4E1,2.8E1,1.06E2,8E1,7E0,2E0,2.54E2,9.5E1,4E0,1E0,1.1E1,5.2E1,1.06E2,1.22E2,1.1E1,2.84E2,3.2E1,5.23E2,3.3E1,2.04E2,3.1E1,9E0,2E0,2.6E1,1.04E2,2E0,4.7E1,3.3E1,1E0,6E0,2.14E2,4E1,6E0,8.9E1],"tree_param":{"num_deleted":"0","num_feature":"6","num_nodes":"55","size_leaf_vector":"1"}},{"base_weights":[6.302108E0,-4.0343893E2,3.3482755E2,-2.070301E2,-6.920213E2,1.2087551E3,1.5873526E2,8.448353E2,-2.967675E2,-1.0403763E3,-3.45606E2,1.504138E3,1.9145554E2,1.253376E2,2.9223823E3,1.5290811E2,1.5983098E3,-6.138347E2,-4.0390713E1,-1.2079528E3,-4.9876794E2,-9.402059E2,-8.74138E1,1.7006487E3,9.8640607E2,-2.97224E2,9.5633154E2,-1.6731622E0,8.225575E2,1.6880012E3,4.0660397E2,-9.170989E1,1.2101727E2,1.969721E2,6.2715736E1,-1.1014746E2,-3.9628105E1,1.7637357E2,-1.600382E1,-1.2894994E2,2.5797932E1,-7.239534E1,4.573925E1,-1.3574054E2,-5.4729275E1,-4.593215E1,3.6935966E1,1.8467033E2,1.0021865E2,4.300601E1,1.9591582E2,-6.37406E1,5.9038403E1,-9.146621E1,1.1304351E2,-3.4938275E2,2.5540605E0,3.986479E2,4.973363E1,2.295147E2,1.1342448E1],"categories":[],"categories_nodes":[],"categories_segments":[],"categories_sizes":[],"default_left":[0,0,0,0,0,0,0,0,0,0,0,0,0,0,0,0,0,0,0,0,0,0,0,0,0,0,0,0,0,0,0,0,0,0,0,0,0,0,0,0,0,0,0,0,0,0,0,0,0,0,0,0,0,0,0,0,0,0,0,0,0],"id":27,"left_children":[1,3,5,7,9,11,13,15,17,19,21,23,25,27,29,31,33,35,37,39,41,43,45,47,49,51,53,55,57,59,-1,-1,-1,-1,-1,-1,-1,-1,-1,-1,-1,-1,-1,-1,-1,-1,-1,-1,-1,-1,-1,-1,-1,-1,-1,-1,-1,-1,-1,-1,-1],"loss_changes":[2.6922115E8,5.030205E7,1.7062813E8,5.037269E7,4.3083616E7,5.560371E7,8.50106E7,2.1652282E7,3.9806652E7,1.5643712E7,2.7858644E7,1.2972992E7,1.6356752E7,8.102867E7,8.66532E6,2.7129302E7,5.978616E6,2.2796744E7,5.899596E7,1.6590336E7,9.804922E6,8.272876E6,2.1913984E7,8.656672E6,2.1887288E7,8.528917E6,6.571657E6,7.37411E7,1.4310275E8,6.431658E6,0E0,0E0,0E0,0E0,0E0,0E0,0E0,0E0,0E0,0E0,0E0,0E0,0E0,0E0,0E0,0E0,0E0,0E0,0E0,0E0,0E0,0E0,0E0,0E0,0E0,0E0,0E0,0E0,0E0,0E0,0E0],"parents":[2147483647,0,0,1,1,2,2,3,3,4,4,5,5,6,6,7,7,8,8,9,9,10,10,11,11,12,12,13,13,14,14,15,15,16,16,17,17,18,18,19,19,20,20,21,21,22,22,23,23,24,24,25,25,26,26,27,27,28,28,29,29],"right_children":[2,4,6,8,10,12,14,16,18,20,22,24,26,28,30,32,34,36,38,40,42,44,46,48,50,52,54,56,58,60,-1,-1,-1,-1,-1,-1,-1,-1,-1,-1,-1,-1,-1,-1,-1,-1,-1,-1,-1,-1,-1,-1,-1,-1,-1,-1,-1,-1,-1,-1,-1],"split_conditions":[3.607097E2,5E-1,2.8333333E0,2E0,8.660254E-1,5E-1,2.2725E1,6.6916664E1,2.14387E2,9.1583336E1,1.347326E2,1.2246469E-16,7.1083336E1,7.646622E2,5.9666668E1,7.1165663E-1,2.5881904E-1,7.25E1,-9.911141E-1,9.307239E-1,1.3533334E1,8.9166664E1,9.659258E-1,2.0475E1,7.646622E2,1.5766666E1,-9.9421793E-1,-9.999167E-1,-5E-1,5.8E1,4.0660397E2,-9.170989E1,1.2101727E2,1.969721E2,6.2715736E1,-1.1014746E2,-3.9628105E1,1.7637357E2,-1.600382E1,-1.2894994E2,2.5797932E1,-7.239534E1,4.573925E1,-1.3574054E2,-5.4729275E1,-4.593215E1,3.6935966E1,1.8467033E2,1.0021865E2,4.300601E1,1.9591582E2,-6.37406E1,5.9038403E1,-9.146621E1,1.1304351E2,-3.4938275E2,2.5540605E0,3.986479E2,4.973363E1,2.295147E2,1.1342448E1],"split_indices":[5,4,2,2,4,4,0,1,5,1,5,4,1,5,1,3,4,1,3,3,0,1,4,0,5,0,3,3,4,1,0,0,0,0,0,0,0,0,0,0,0,0,0,0,0,0,0,0,0,0,0,0,0,0,0,0,0,0,0,0,0],