{"learner":{"attributes":{"scikit_learn":"{\"_estimator_type\": \"regressor\"}"},"feature_names":["Temperature(C)","Humidity(%)","Condition Code","Month_Sin","HourOfDay_Sin","Total_Power_ClearSky_Output(W)","Sunshine Duration"],"feature_types":["float","float","float","float","float","float","float"],"gradient_booster":{"model":{"cats":{"enc":[],"feature_segments":[],"sorted_idx":[]},"gbtree_model_param":{"num_parallel_tree":"1","num_trees":"1000"},"iteration_indptr":[0,1,2,3,4,5,6,7,8,9,10,11,12,13,14,15,16,17,18,19,20,21,22,23,24,25,26,27,28,29,30,31,32,33,34,35,36,37,38,39,40,41,42,43,44,45,46,47,48,49,50,51,52,53,54,55,56,57,58,59,60,61,62,63,64,65,66,67,68,69,70,71,72,73,74,75,76,77,78,79,80,81,82,83,84,85,86,87,88,89,90,91,92,93,94,95,96,97,98,99,100,101,102,103,104,105,106,107,108,109,110,111,112,113,114,115,116,117,118,119,120,121,122,123,124,125,126,127,128,129,130,131,132,133,134,135,136,137,138,139,140,141,142,143,144,145,146,147,148,149,150,151,152,153,154,155,156,157,158,159,160,161,162,163,164,165,166,167,168,169,170,171,172,173,174,175,176,177,178,179,180,181,182,183,184,185,186,187,188,189,190,191,192,193,194,195,196,197,198,199,200,201,202,203,204,205,206,207,208,209,210,211,212,213,214,215,216,217,218,219,220,221,222,223,224,225,226,227,228,229,230,231,232,233,234,235,236,237,238,239,240,241,242,243,244,245,246,247,248,249,250,251,252,253,254,255,256,257,258,259,260,261,262,263,264,265,266,267,268,269,270,271,272,273,274,275,276,277,278,279,280,281,282,283,284,285,286,287,288,289,290,291,292,293,294,295,296,297,298,299,300,301,302,303,304,305,306,307,308,309,310,311,312,313,314,315,316,317,318,319,320,321,322,323,324,325,326,327,328,329,330,331,332,333,334,335,336,337,338,339,340,341,342,343,344,345,346,347,348,349,350,351,352,353,354,355,356,357,358,359,360,361,362,363,364,365,366,367,368,369,370,371,372,373,374,375,376,377,378,379,380,381,382,383,384,385,386,387,388,389,390,391,392,393,394,395,396,397,398,399,400,401,402,403,404,405,406,407,408,409,410,411,412,413,414,415,416,417,418,419,420,421,422,423,424,425,426,427,428,429,430,431,432,433,434,435,436,437,438,439,440,441,442,443,444,445,446,447,448,449,450,451,452,453,454,455,456,457,458,459,460,461,462,463,464,465,466,467,468,469,470,471,472,473,474,475,476,477,478,479,480,481,482,483,484,485,486,487,488,489,490,491,492,493,494,495,496,497,498,499,500,501,502,503,504,505,506,507,508,509,510,511,512,513,514,515,516,517,518,519,520,521,522,523,524,525,526,527,528,529,530,531,532,533,534,535,536,537,538,539,540,541,542,543,544,545,546,547,548,549,550,551,552,553,554,555,556,557,558,559,560,561,562,563,564,565,566,567,568,569,570,571,572,573,574,575,576,577,578,579,580,581,582,583,584,585,586,587,588,589,590,591,592,593,594,595,596,597,598,599,600,601,602,603,604,605,606,607,608,609,610,611,612,613,614,615,616,617,618,619,620,621,622,623,624,625,626,627,628,629,630,631,632,633,634,635,636,637,638,639,640,641,642,643,644,645,646,647,648,649,650,651,652,653,654,655,656,657,658,659,660,661,662,663,664,665,666,667,668,669,670,671,672,673,674,675,676,677,678,679,680,681,682,683,684,685,686,687,688,689,690,691,692,693,694,695,696,697,698,699,700,701,702,703,704,705,706,707,708,709,710,711,712,713,714,715,716,717,718,719,720,721,722,723,724,725,726,727,728,729,730,731,732,733,734,735,736,737,738,739,740,741,742,743,744,745,746,747,748,749,750,751,752,753,754,755,756,757,758,759,760,761,762,763,764,765,766,767,768,769,770,771,772,773,774,775,776,777,778,779,780,781,782,783,784,785,786,787,788,789,790,791,792,793,794,795,796,797,798,799,800,801,802,803,804,805,806,807,808,809,810,811,812,813,814,815,816,817,818,819,820,821,822,823,824,825,826,827,828,829,830,831,832,833,834,835,836,837,838,839,840,841,842,843,844,845,846,847,848,849,850,851,852,853,854,855,856,857,858,859,860,861,862,863,864,865,866,867,868,869,870,871,872,873,874,875,876,877,878,879,880,881,882,883,884,885,886,887,888,889,890,891,892,893,894,895,896,897,898,899,900,901,902,903,904,905,906,907,908,909,910,911,912,913,914,915,916,917,918,919,920,921,922,923,924,925,926,927,928,929,930,931,932,933,934,935,936,937,938,939,940,941,942,943,944,945,946,947,948,949,950,951,952,953,954,955,956,957,958,959,960,961,962,963,964,965,966,967,968,969,970,971,972,973,974,975,976,977,978,979,980,981,982,983,984,985,986,987,988,989,990,991,992,993,994,995,996,997,998,999,1000],"tree_info":[0,0,0,0,0,0,0,0,0,0,0,0,0,0,0,0,0,0,0,0,0,0,0,0,0,0,0,0,0,0,0,0,0,0,0,0,0,0,0,0,0,0,0,0,0,0,0,0,0,0,0,0,0,0,0,0,0,0,0,0,0,0,0,0,0,0,0,0,0,0,0,0,0,0,0,0,0,0,0,0,0,0,0,0,0,0,0,0,0,0,0,0,0,0,0,0,0,0,0,0,0,0,0,0,0,0,0,0,0,0,0,0,0,0,0,0,0,0,0,0,0,0,0,0,0,0,0,0,0,0,0,0,0,0,0,0,0,0,0,0,0,0,0,0,0,0,0,0,0,0,0,0,0,0,0,0,0,0,0,0,0,0,0,0,0,0,0,0,0,0,0,0,0,0,0,0,0,0,0,0,0,0,0,0,0,0,0,0,0,0,0,0,0,0,0,0,0,0,0,0,0,0,0,0,0,0,0,0,0,0,0,0,0,0,0,0,0,0,0,0,0,0,0,0,0,0,0,0,0,0,0,0,0,0,0,0,0,0,0,0,0,0,0,0,0,0,0,0,0,0,0,0,0,0,0,0,0,0,0,0,0,0,0,0,0,0,0,0,0,0,0,0,0,0,0,0,0,0,0,0,0,0,0,0,0,0,0,0,0,0,0,0,0,0,0,0,0,0,0,0,0,0,0,0,0,0,0,0,0,0,0,0,0,0,0,0,0,0,0,0,0,0,0,0,0,0,0,0,0,0,0,0,0,0,0,0,0,0,0,0,0,0,0,0,0,0,0,0,0,0,0,0,0,0,0,0,0,0,0,0,0,0,0,0,0,0,0,0,0,0,0,0,0,0,0,0,0,0,0,0,0,0,0,0,0,0,0,0,0,0,0,0,0,0,0,0,0,0,0,0,0,0,0,0,0,0,0,0,0,0,0,0,0,0,0,0,0,0,0,0,0,0,0,0,0,0,0,0,0,0,0,0,0,0,0,0,0,0,0,0,0,0,0,0,0,0,0,0,0,0,0,0,0,0,0,0,0,0,0,0,0,0,0,0,0,0,0,0,0,0,0,0,0,0,0,0,0,0,0,0,0,0,0,0,0,0,0,0,0,0,0,0,0,0,0,0,0,0,0,0,0,0,0,0,0,0,0,0,0,0,0,0,0,0,0,0,0,0,0,0,0,0,0,0,0,0,0,0,0,0,0,0,0,0,0,0,0,0,0,0,0,0,0,0,0,0,0,0,0,0,0,0,0,0,0,0,0,0,0,0,0,0,0,0,0,0,0,0,0,0,0,0,0,0,0,0,0,0,0,0,0,0,0,0,0,0,0,0,0,0,0,0,0,0,0,0,0,0,0,0,0,0,0,0,0,0,0,0,0,0,0,0,0,0,0,0,0,0,0,0,0,0,0,0,0,0,0,0,0,0,0,0,0,0,0,0,0,0,0,0,0,0,0,0,0,0,0,0,0,0,0,0,0,0,0,0,0,0,0,0,0,0,0,0,0,0,0,0,0,0,0,0,0,0,0,0,0,0,0,0,0,0,0,0,0,0,0,0,0,0,0,0,0,0,0,0,0,0,0,0,0,0,0,0,0,0,0,0,0,0,0,0,0,0,0,0,0,0,0,0,0,0,0,0,0,0,0,0,0,0,0,0,0,0,0,0,0,0,0,0,0,0,0,0,0,0,0,0,0,0,0,0,0,0,0,0,0,0,0,0,0,0,0,0,0,0,0,0,0,0,0,0,0,0,0,0,0,0,0,0,0,0,0,0,0,0,0,0,0,0,0,0,0,0,0,0,0,0,0,0,0,0,0,0,0,0,0,0,0,0,0,0,0,0,0,0,0,0,0,0,0,0,0,0,0,0,0,0,0,0,0,0,0,0,0,0,0,0,0,0,0,0,0,0,0,0,0,0,0,0,0,0,0,0,0,0,0,0,0,0,0,0,0,0,0,0,0,0,0,0,0,0,0,0,0,0,0,0,0,0,0,0,0,0,0,0,0,0,0,0,0,0,0,0,0,0,0,0,0,0,0,0,0,0,0,0,0,0,0,0,0,0,0,0,0,0,0,0,0,0,0,0,0,0,0,0,0,0,0,0,0,0,0,0,0,0,0,0,0,0,0,0,0,0,0,0,0,0,0,0,0,0,0,0,0,0,0,0,0,0,0,0,0,0,0,0,0,0,0,0,0,0,0,0,0,0,0,0,0,0,0,0,0,0,0,0,0,0,0,0,0,0,0,0,0,0,0,0,0,0],"trees":[{"base_weights":[-1.4572842E1,-7.527476E2,1.032816E3,-4.3532352E1,-1.010844E3,1.8791421E3,2.1134865E2,-4.931443E2,5.55049E2,-1.3258466E3,-7.492015E2,1.5631802E3,2.616545E3,1.213074E3,-3.725237E1,4.814503E1,-8.2845874E2,8.3641974E2,-1.9503969E2,-1.1025759E3,-1.443152E3,-2.1130052E2,-9.4686163E2,1.7887146E3,9.171046E2,1.6158748E2,2.1198113E3,4.4198184E2,1.4761993E3,2.3678772E2,-5.9054504E2,1.9348877E1,-1.1615477E1,-5.052176E1,-2.0421516E1,5.563747E1,1.2745921E1,-2.783115E1,5.034303E0,-6.641619E1,-4.7571568E1,-7.544921E1,-6.319826E1,-1.8378445E1,6.44048E0,-4.8899067E1,-1.1952613E1,1.0223632E2,7.2473114E1,7.244333E1,2.4908823E1,1.228266E2,5.894745E1,5.9379932E1,1.4657892E1,8.35043E1,4.303774E1,-3.6412866E0,3.8981136E1,-1.6089636E1,-5.0321133E1],"categories":[],"categories_nodes":[],"categories_segments":[],"categories_sizes":[],"default_left":[0,0,0,0,0,0,0,0,0,0,0,0,0,0,0,0,0,0,0,0,0,0,0,0,0,0,0,0,0,0,0,0,0,0,0,0,0,0,0,0,0,0,0,0,0,0,0,0,0,0,0,0,0,0,0,0,0,0,0,0,0],"id":0,"left_children":[1,3,5,7,9,11,13,15,17,19,21,23,25,27,29,31,33,35,37,39,41,43,45,47,49,-1,51,53,55,57,59,-1,-1,-1,-1,-1,-1,-1,-1,-1,-1,-1,-1,-1,-1,-1,-1,-1,-1,-1,-1,-1,-1,-1,-1,-1,-1,-1,-1,-1,-1],"loss_changes":[1.3483886E9,1.8721184E8,5.008631E8,7.401515E7,6.0820224E7,7.86217E7,9.1439176E7,2.853572E7,2.5067388E7,7.287552E6,4.36044E7,3.4933376E7,2.5236544E7,1.4158808E7,4.4869028E7,5.8865535E6,7.001524E6,1.3535344E7,3.5847175E6,2.864784E6,6.76064E5,5.9999735E6,6.396288E6,1.3104E7,1.4203804E7,0E0,1.6429152E7,1.8711602E6,5.006096E6,3.3334444E7,1.0629412E7,0E0,0E0,0E0,0E0,0E0,0E0,0E0,0E0,0E0,0E0,0E0,0E0,0E0,0E0,0E0,0E0,0E0,0E0,0E0,0E0,0E0,0E0,0E0,0E0,0E0,0E0,0E0,0E0,0E0,0E0],"parents":[2147483647,0,0,1,1,2,2,3,3,4,4,5,5,6,6,7,7,8,8,9,9,10,10,11,11,12,12,13,13,14,14,15,15,16,16,17,17,18,18,19,19,20,20,21,21,22,22,23,23,24,24,26,26,27,27,28,28,29,29,30,30],"right_children":[2,4,6,8,10,12,14,16,18,20,22,24,26,28,30,32,34,36,38,40,42,44,46,48,50,-1,52,54,56,58,60,-1,-1,-1,-1,-1,-1,-1,-1,-1,-1,-1,-1,-1,-1,-1,-1,-1,-1,-1,-1,-1,-1,-1,-1,-1,-1,-1,-1,-1,-1],"split_conditions":[3.5926355E3,7.4083336E1,6.9583336E1,2.733893E3,1.9072235E3,5.874094E3,4E0,3E0,4E0,4E0,4E0,4E0,3E0,4.0075327E3,8.6166664E1,-8.660254E-1,2.1789478E3,1.2246469E-16,3.2474397E3,1.1967649E3,1.5170416E3,2.942248E3,9E0,-2.5881904E-1,6.1E1,1.6158748E2,6.525E1,-7.0710677E-1,5E-1,5.0782954E3,9.3916664E1,1.9348877E1,-1.1615477E1,-5.052176E1,-2.0421516E1,5.563747E1,1.2745921E1,-2.783115E1,5.034303E0,-6.641619E1,-4.7571568E1,-7.544921E1,-6.319826E1,-1.8378445E1,6.44048E0,-4.8899067E1,-1.1952613E1,1.0223632E2,7.2473114E1,7.244333E1,2.4908823E1,1.228266E2,5.894745E1,5.9379932E1,1.4657892E1,8.35043E1,4.303774E1,-3.6412866E0,3.8981136E1,-1.6089636E1,-5.0321133E1],"split_indices":[5,1,1,5,5,5,2,2,2,2,2,2,2,5,1,4,5,4,5,5,5,5,2,4,1,0,1,4,4,5,1,0,0,0,0,0,0,0,0,0,0,0,0,0,0,0,0,0,0,0,0,0,0,0,0,0,0,0,0,0,0],"split_type":[0,0,0,0,0,0,0,0,0,0,0,0,0,0,0,0,0,0,0,0,0,0,0,0,0,0,0,0,0,0,0,0,0,0,0,0,0,0,0,0,0,0,0,0,0,0,0,0,0,0,0,0,0,0,0,0,0,0,0,0,0],"sum_hessian":[1.742E3,1.022E3,7.2E2,2.73E2,7.49E2,3.54E2,3.66E2,1.56E2,1.17E2,3.38E2,4.11E2,2.5E2,1.04E2,7.2E1,2.94E2,6E1,9.6E1,8.5E1,3.2E1,1.2E2,2.18E2,1.11E2,3E2,1.84E2,6.6E1,4.4E1,6E1,1.9E1,5.3E1,1.97E2,9.7E1,2.7E1,3.3E1,6.6E1,3E1,5.7E1,2.8E1,1.4E1,1.8E1,4.5E1,7.5E1,1.54E2,6.4E1,7.6E1,3.5E1,2.87E2,1.3E1,1.02E2,8.2E1,2.8E1,3.8E1,4.3E1,1.7E1,2E0,1.7E1,3.9E1,1.4E1,1.26E2,7.1E1,6E1,3.7E1],"tree_param":{"num_deleted":"0","num_feature":"7","num_nodes":"61","size_leaf_vector":"1"}},{"base_weights":[1.956025E1,-6.814027E2,1.0376688E3,4.25322E1,-9.367966E2,1.8957003E3,3.357827E2,-4.5568396E2,5.829022E2,-1.2446661E3,-6.946616E2,1.5735938E3,2.7996206E3,1.1660228E3,8.918086E1,4.1658073E1,-7.591413E2,8.526321E2,-2.276038E2,-1.02069934E3,-1.3571042E3,-1.8531026E2,-8.7138104E2,1.8331239E3,1.0445957E3,3.0929001E3,2.294611E3,7.9796954E2,1.7664172E3,2.0078441E2,-8.89327E2,1.9959002E1,-1.5229151E1,-5.872126E1,-2.7107595E1,5.2173584E1,9.662908E0,-3.2367706E1,7.9076133E0,-6.1216705E1,-4.542034E1,-7.101595E1,-5.6940834E1,-1.421946E1,5.2325263E0,-3.1196012E1,-4.798686E1,1.1602206E2,7.580306E1,3.7750385E1,8.868682E1,4.4265053E1,1.5602242E2,1.384254E2,9.122289E1,-1.8186342E1,4.34622E1,1.1878046E2,7.1949326E1,-3.7792172E0,3.0298746E1,-3.3050465E1,-5.3103096E1],"categories":[],"categories_nodes":[],"categories_segments":[],"categories_sizes":[],"default_left":[0,0,0,0,0,0,0,0,0,0,0,0,0,0,0,0,0,0,0,0,0,0,0,0,0,0,0,0,0,0,0,0,0,0,0,0,0,0,0,0,0,0,0,0,0,0,0,0,0,0,0,0,0,0,0,0,0,0,0,0,0,0,0],"id":1,"left_children":[1,3,5,7,9,11,13,15,17,19,21,23,25,27,29,31,33,35,37,39,41,43,45,47,49,51,53,55,57,59,61,-1,-1,-1,-1,-1,-1,-1,-1,-1,-1,-1,-1,-1,-1,-1,-1,-1,-1,-1,-1,-1,-1,-1,-1,-1,-1,-1,-1,-1,-1,-1,-1],"loss_changes":[1.2339053E9,1.8936566E8,4.2394285E8,7.241687E7,5.5566656E7,8.789197E7,7.953939E7,2.1160714E7,2.8395736E7,6.97536E6,3.818376E7,3.0485824E7,5.047936E6,1.8257408E7,3.3049256E7,6.8061775E6,7.203048E6,1.2004304E7,5.445782E6,1.51748E6,1.390688E6,3.2186815E6,6.310448E6,2.0740192E7,1.555284E7,2.17376E5,2.524336E6,5.03572E6,3.163984E6,3.0392924E7,5.2056E5,0E0,0E0,0E0,0E0,0E0,0E0,0E0,0E0,0E0,0E0,0E0,0E0,0E0,0E0,0E0,0E0,0E0,0E0,0E0,0E0,0E0,0E0,0E0,0E0,0E0,0E0,0E0,0E0,0E0,0E0,0E0,0E0],"parents":[2147483647,0,0,1,1,2,2,3,3,4,4,5,5,6,6,7,7,8,8,9,9,10,10,11,11,12,12,13,13,14,14,15,15,16,16,17,17,18,18,19,19,20,20,21,21,22,22,23,23,24,24,25,25,26,26,27,27,28,28,29,29,30,30],"right_children":[2,4,6,8,10,12,14,16,18,20,22,24,26,28,30,32,34,36,38,40,42,44,46,48,50,52,54,56,58,60,62,-1,-1,-1,-1,-1,-1,-1,-1,-1,-1,-1,-1,-1,-1,-1,-1,-1,-1,-1,-1,-1,-1,-1,-1,-1,-1,-1,-1,-1,-1,-1,-1],"split_conditions":[3.6767896E3,7.3416664E1,4E0,2.6121692E3,1.9072235E3,5.935699E3,6.925E1,3E0,4E0,4E0,4E0,2.5881904E-1,3E0,5.7946313E3,9.3916664E1,-8.660254E-1,1.4510286E3,2.5881904E-1,3.2474397E3,1.1067665E3,1.6159406E3,2.942248E3,8.1083336E1,3E0,5.038215E3,1.4575E1,6.025E1,9.991667E0,5.9333332E1,5.0782954E3,9.5833336E1,1.9959002E1,-1.5229151E1,-5.872126E1,-2.7107595E1,5.2173584E1,9.662908E0,-3.2367706E1,7.9076133E0,-6.1216705E1,-4.542034E1,-7.101595E1,-5.6940834E1,-1.421946E1,5.2325263E0,-3.1196012E1,-4.798686E1,1.1602206E2,7.580306E1,3.7750385E1,8.868682E1,4.4265053E1,1.5602242E2,1.384254E2,9.122289E1,-1.8186342E1,4.34622E1,1.1878046E2,7.1949326E1,-3.7792172E0,3.0298746E1,-3.3050465E1,-5.3103096E1],"split_indices":[5,1,2,5,5,5,1,2,2,2,2,4,2,5,1,4,5,4,5,5,5,5,1,2,5,0,1,0,1,5,1,0,0,0,0,0,0,0,0,0,0,0,0,0,0,0,0,0,0,0,0,0,0,0,0,0,0,0,0,0,0,0,0],"split_type":[0,0,0,0,0,0,0,0,0,0,0,0,0,0,0,0,0,0,0,0,0,0,0,0,0,0,0,0,0,0,0,0,0,0,0,0,0,0,0,0,0,0,0,0,0,0,0,0,0,0,0,0,0,0,0,0,0,0,0,0,0,0,0],"sum_hessian":[1.727E3,1.023E3,7.04E2,2.67E2,7.56E2,3.16E2,3.88E2,1.39E2,1.28E2,3.31E2,4.25E2,2.35E2,8.1E1,8.8E1,3E2,5.3E1,8.6E1,9.6E1,3.2E1,1.14E2,2.17E2,1.1E2,3.15E2,1.56E2,7.9E1,4.8E1,3.3E1,5.6E1,3.2E1,2.7E2,3E1,2.6E1,2.7E1,2.8E1,5.8E1,7.4E1,2.2E1,1.5E1,1.7E1,3.7E1,7.7E1,1.64E2,5.3E1,8.2E1,2.8E1,8.5E1,2.3E2,5.9E1,9.7E1,5.8E1,2.1E1,1E0,4.7E1,1.4E1,1.9E1,3E0,5.3E1,9E0,2.3E1,1.61E2,1.09E2,1.5E1,1.5E1],"tree_param":{"num_deleted":"0","num_feature":"7","num_nodes":"63","size_leaf_vector":"1"}},{"base_weights":[-1.4165102E1,-6.451802E2,9.9279535E2,9.206134E0,-8.819934E2,1.7712845E3,2.8137976E2,-5.288521E2,4.5286972E2,-1.1630253E3,-6.1292773E2,1.4676683E3,2.415828E3,7.325386E2,-1.362521E2,-8.927641E2,-2.8879507E2,-6.3450854E2,5.247381E2,-1.2646274E3,-1.0297046E3,-3.621648E2,-8.310746E2,1.8967842E3,1.3056229E3,1.9930581E3,1.4298026E2,5.052965E2,1.2806482E3,3.563896E1,-8.754208E2,-1.1934429E1,-4.800675E1,7.200741E0,-2.4783398E1,1.9071616E0,-4.0371975E1,5.301314E1,1.9085836E1,-3.1798758E1,-6.3845905E1,-1.820046E1,-5.3254803E1,-2.4557539E1,-1.1394881E1,-1.1752411E1,-4.2368633E1,4.212753E1,1.05158134E2,5.363383E1,8.0647804E1,5.42862E1,1.1902987E2,1.8752039E1,5.476488E1,3.7627186E1,9.352826E1,-5.9905376E0,3.99513E1,-4.5592846E1,-1.870926E1],"categories":[],"categories_nodes":[],"categories_segments":[],"categories_sizes":[],"default_left":[0,0,0,0,0,0,0,0,0,0,0,0,0,0,0,0,0,0,0,0,0,0,0,0,0,0,0,0,0,0,0,0,0,0,0,0,0,0,0,0,0,0,0,0,0,0,0,0,0,0,0,0,0,0,0,0,0,0,0,0,0],"id":2,"left_children":[1,3,5,7,9,11,13,15,17,19,21,23,25,27,29,31,33,35,37,39,41,43,45,47,49,51,-1,53,55,57,59,-1,-1,-1,-1,-1,-1,-1,-1,-1,-1,-1,-1,-1,-1,-1,-1,-1,-1,-1,-1,-1,-1,-1,-1,-1,-1,-1,-1,-1,-1],"loss_changes":[1.0852806E9,1.6272387E8,3.6392128E8,6.7080228E7,5.758707E7,5.7902144E7,6.510412E7,1.0836848E7,1.2367758E7,3.790944E6,2.1361456E7,1.2543328E7,1.287456E7,2.0028784E7,2.2901368E7,1.974108E6,7.0552415E6,1.1940208E6,1.0701044E7,8.02784E5,3.570368E6,3.109322E6,1.850496E6,1.062952E7,9.724576E6,1.6403216E7,0E0,8.73449E6,1.3546136E7,1.7539972E7,2.79742E5,0E0,0E0,0E0,0E0,0E0,0E0,0E0,0E0,0E0,0E0,0E0,0E0,0E0,0E0,0E0,0E0,0E0,0E0,0E0,0E0,0E0,0E0,0E0,0E0,0E0,0E0,0E0,0E0,0E0,0E0],"parents":[2147483647,0,0,1,1,2,2,3,3,4,4,5,5,6,6,7,7,8,8,9,9,10,10,11,11,12,12,13,13,14,14,15,15,16,16,17,17,18,18,19,19,20,20,21,21,22,22,23,23,24,24,25,25,27,27,28,28,29,29,30,30],"right_children":[2,4,6,8,10,12,14,16,18,20,22,24,26,28,30,32,34,36,38,40,42,44,46,48,50,52,-1,54,56,58,60,-1,-1,-1,-1,-1,-1,-1,-1,-1,-1,-1,-1,-1,-1,-1,-1,-1,-1,-1,-1,-1,-1,-1,-1,-1,-1,-1,-1,-1,-1],"split_conditions":[3.7804136E3,7.3583336E1,6.95E1,2.4747134E3,1.9964286E3,5.874094E3,7.8916664E1,1.6341107E3,6.4416666E0,1.4322655E3,8.3666664E1,5.7E1,8.660254E-1,8.660254E-1,9.3916664E1,5.4E1,6.225E1,5.7916668E1,5.8583332E1,7.475E1,4.5833335E0,2.942248E3,2.05E0,4.132766E3,8.660254E-1,1.7508333E1,1.4298026E2,1.8858334E1,5.136914E3,5.874094E3,6.253126E3,-1.1934429E1,-4.800675E1,7.200741E0,-2.4783398E1,1.9071616E0,-4.0371975E1,5.301314E1,1.9085836E1,-3.1798758E1,-6.3845905E1,-1.820046E1,-5.3254803E1,-2.4557539E1,-1.1394881E1,-1.1752411E1,-4.2368633E1,4.212753E1,1.05158134E2,5.363383E1,8.0647804E1,5.42862E1,1.1902987E2,1.8752039E1,5.476488E1,3.7627186E1,9.352826E1,-5.9905376E0,3.99513E1,-4.5592846E1,-1.870926E1],"split_indices":[5,1,1,5,5,5,1,5,0,5,1,1,3,3,1,1,1,1,1,1,0,5,0,5,3,0,0,0,5,5,5,0,0,0,0,0,0,0,0,0,0,0,0,0,0,0,0,0,0,0,0,0,0,0,0,0,0,0,0,0,0],"split_type":[0,0,0,0,0,0,0,0,0,0,0,0,0,0,0,0,0,0,0,0,0,0,0,0,0,0,0,0,0,0,0,0,0,0,0,0,0,0,0,0,0,0,0,0,0,0,0,0,0,0,0,0,0,0,0,0,0,0,0,0,0],"sum_hessian":[1.706E3,1.049E3,6.57E2,2.79E2,7.7E2,3.13E2,3.44E2,1.26E2,1.53E2,3.75E2,3.95E2,2.15E2,9.8E1,1.65E2,1.79E2,4.9E1,7.7E1,9E0,1.44E2,2.08E2,1.67E2,1.85E2,2.1E2,5.6E1,1.59E2,5.3E1,4.5E1,1.18E2,4.7E1,1.46E2,3.3E1,5E0,4.4E1,2.5E1,5.2E1,2E0,7E0,2.9E1,1.15E2,5E0,2.03E2,9E0,1.58E2,9.3E1,9.2E1,6E0,2.04E2,1E1,4.6E1,9.3E1,6.6E1,1.7E1,3.6E1,9.8E1,2E1,2.6E1,2.1E1,1.22E2,2.4E1,3E1,3E0],"tree_param":{"num_deleted":"0","num_feature":"7","num_nodes":"61","size_leaf_vector":"1"}},{"base_weights":[-2.5570364E0,-5.495047E2,1.0960255E3,1.5605696E2,-8.200986E2,1.9028267E3,3.6686984E2,-4.5909543E2,5.4089844E2,-1.1149792E3,-5.617331E2,1.606079E3,2.5015571E3,5.2826196E2,-7.5986694E2,-1.922193E2,-9.88271E2,8.762036E2,-2.4301828E2,-9.0685785E2,-1.2113563E3,-5.7913036E1,-7.2851825E2,1.13213234E2,1.3769183E3,1.3938103E2,1.9484044E3,1.4573877E3,3.7909137E2,-3.1279095E2,-4.239451E1,-2.9421707E1,1.7298346E0,-5.5744556E1,-3.10025E1,5.2811737E1,1.1498267E1,-3.0001682E1,-2.0292194E0,-4.800799E1,-1.5357509E1,-6.529473E1,-5.4045734E1,-9.26699E0,3.670798E1,-2.7864752E1,-4.2250282E1,5.2312374E1,8.3756905E1,1.1189733E2,6.1554085E1,5.032519E1,9.3870186E1,4.6279397E0,3.2526302E1,-2.4276955E1,2.2411148E1],"categories":[],"categories_nodes":[],"categories_segments":[],"categories_sizes":[],"default_left":[0,0,0,0,0,0,0,0,0,0,0,0,0,0,0,0,0,0,0,0,0,0,0,0,0,0,0,0,0,0,0,0,0,0,0,0,0,0,0,0,0,0,0,0,0,0,0,0,0,0,0,0,0,0,0,0,0],"id":3,"left_children":[1,3,5,7,9,11,13,15,17,19,21,23,25,27,29,31,33,35,37,39,41,43,45,-1,47,-1,49,51,53,55,-1,-1,-1,-1,-1,-1,-1,-1,-1,-1,-1,-1,-1,-1,-1,-1,-1,-1,-1,-1,-1,-1,-1,-1,-1,-1,-1],"loss_changes":[1.05572506E9,2.2407795E8,3.4285946E8,7.742432E7,6.3980224E7,4.519744E7,5.6410104E7,1.76043E7,5.304604E7,6.824448E6,3.8107296E7,2.5238368E7,8.80992E6,3.686903E7,1.269556E6,7.659126E6,1.266924E6,1.6161472E7,4.38424E6,3.828656E6,1.880992E6,1.1642231E7,6.330464E6,0E0,1.2250368E7,0E0,4.306544E6,5.117392E6,1.8139108E7,1.2693395E6,0E0,0E0,0E0,0E0,0E0,0E0,0E0,0E0,0E0,0E0,0E0,0E0,0E0,0E0,0E0,0E0,0E0,0E0,0E0,0E0,0E0,0E0,0E0,0E0,0E0,0E0,0E0],"parents":[2147483647,0,0,1,1,2,2,3,3,4,4,5,5,6,6,7,7,8,8,9,9,10,10,11,11,12,12,13,13,14,14,15,15,16,16,17,17,18,18,19,19,20,20,21,21,22,22,24,24,26,26,27,27,28,28,29,29],"right_children":[2,4,6,8,10,12,14,16,18,20,22,24,26,28,30,32,34,36,38,40,42,44,46,-1,48,-1,50,52,54,56,-1,-1,-1,-1,-1,-1,-1,-1,-1,-1,-1,-1,-1,-1,-1,-1,-1,-1,-1,-1,-1,-1,-1,-1,-1,-1,-1],"split_conditions":[4.132766E3,7.3416664E1,4E0,2.5246123E3,1.9964286E3,5.935699E3,9.175E1,4E0,4E0,4E0,4E0,5.6416668E1,3E0,6.225E1,9.3083336E1,1.6635233E3,2.0378685E3,2.5881904E-1,3.2474397E3,1.8720139E3,1.468514E3,3.5737163E3,8.3666664E1,1.13213234E2,5E-1,1.3938103E2,6.3E1,5.727519E3,5.0782954E3,5.8405005E3,-4.239451E1,-2.9421707E1,1.7298346E0,-5.5744556E1,-3.10025E1,5.2811737E1,1.1498267E1,-3.0001682E1,-2.0292194E0,-4.800799E1,-1.5357509E1,-6.529473E1,-5.4045734E1,-9.26699E0,3.670798E1,-2.7864752E1,-4.2250282E1,5.2312374E1,8.3756905E1,1.1189733E2,6.1554085E1,5.032519E1,9.3870186E1,4.6279397E0,3.2526302E1,-2.4276955E1,2.2411148E1],"split_indices":[5,1,2,5,5,5,1,2,2,2,2,1,2,1,1,5,5,4,5,5,5,5,1,0,3,0,1,5,5,5,0,0,0,0,0,0,0,0,0,0,0,0,0,0,0,0,0,0,0,0,0,0,0,0,0,0,0],"split_type":[0,0,0,0,0,0,0,0,0,0,0,0,0,0,0,0,0,0,0,0,0,0,0,0,0,0,0,0,0,0,0,0,0,0,0,0,0,0,0,0,0,0,0,0,0,0,0,0,0,0,0,0,0,0,0,0,0],"sum_hessian":[1.755E3,1.172E3,5.83E2,3.25E2,8.47E2,2.76E2,3.07E2,1.25E2,2E2,3.94E2,4.53E2,1.87E2,8.9E1,2.69E2,3.8E1,8.4E1,4.1E1,1.4E2,6E1,1.28E2,2.66E2,1.13E2,3.4E2,4.6E1,1.41E2,5.6E1,3.3E1,3.6E1,2.33E2,7E0,3.1E1,3E1,5.4E1,2.9E1,1.2E1,1.09E2,3.1E1,2.1E1,3.9E1,1.17E2,1.1E1,1.49E2,1.17E2,9.8E1,1.5E1,1.4E2,2E2,6.9E1,7.2E1,2.2E1,1.1E1,1.9E1,1.7E1,1.14E2,1.19E2,6E0,1E0],"tree_param":{"num_deleted":"0","num_feature":"7","num_nodes":"57","size_leaf_vector":"1"}},{"base_weights":[-1.301501E1,-6.274394E2,9.157435E2,-1.714841E2,-9.222837E2,1.6536898E3,2.765056E2,-7.216094E2,2.0644461E2,-1.1201976E3,-6.7993536E2,1.3366035E3,2.3311392E3,-1.624621E2,5.5761914E2,-4.2862817E2,-8.8463025E2,-5.1432266E1,5.8088043E2,-6.097479E1,-9.8718896E2,-7.097428E2,-9.012394E1,1.6647678E3,1.0360469E3,1.3421637E2,1.8319646E3,-3.1822827E2,1.5975942E1,2.0014531E2,8.180569E2,-3.29443E1,-7.1945205E0,-5.7115734E1,-3.870897E1,8.899845E0,-1.7003736E1,4.1445274E1,8.584491E0,-4.4877113E1,-5.9545357E1,-3.122742E1,-4.8703358E1,9.776343E0,-2.7559397E1,6.650274E1,1.0454832E2,3.351826E1,7.078148E1,7.435323E1,1.1562805E2,-4.610506E-1,-1.9891169E1,2.5716894E1,-6.0115714E0,2.4959991E1,-1.192437E1,3.579603E1,1.149457E2],"categories":[],"categories_nodes":[],"categories_segments":[],"categories_sizes":[],"default_left":[0,0,0,0,0,0,0,0,0,0,0,0,0,0,0,0,0,0,0,0,0,0,0,0,0,0,0,0,0,0,0,0,0,0,0,0,0,0,0,0,0,0,0,0,0,0,0,0,0,0,0,0,0,0,0,0,0,0,0],"id":4,"left_children":[1,3,5,7,9,11,13,15,17,19,21,23,25,27,29,31,33,35,37,-1,39,41,43,45,47,-1,49,51,53,55,57,-1,-1,-1,-1,-1,-1,-1,-1,-1,-1,-1,-1,-1,-1,-1,-1,-1,-1,-1,-1,-1,-1,-1,-1,-1,-1,-1,-1],"loss_changes":[9.917969E8,1.4046173E8,3.2597523E8,8.580713E7,2.9695552E7,6.583821E7,4.5995304E7,7.64484E6,2.3686668E7,3.39232E6,4.999304E6,2.0072896E7,1.288896E7,4.063097E6,2.0969896E7,3.970103E6,2.161024E6,9.72909E6,1.0006636E7,0E0,1.743568E6,5.561824E6,2.0833216E6,1.2054944E7,1.543016E7,0E0,4.02016E6,1.914777E6,4.745599E6,1.2843038E7,1.816784E7,0E0,0E0,0E0,0E0,0E0,0E0,0E0,0E0,0E0,0E0,0E0,0E0,0E0,0E0,0E0,0E0,0E0,0E0,0E0,0E0,0E0,0E0,0E0,0E0,0E0,0E0,0E0,0E0],"parents":[2147483647,0,0,1,1,2,2,3,3,4,4,5,5,6,6,7,7,8,8,9,9,10,10,11,11,12,12,13,13,14,14,15,15,16,16,17,17,18,18,20,20,21,21,22,22,23,23,24,24,26,26,27,27,28,28,29,29,30,30],"right_children":[2,4,6,8,10,12,14,16,18,20,22,24,26,28,30,32,34,36,38,-1,40,42,44,46,48,-1,50,52,54,56,58,-1,-1,-1,-1,-1,-1,-1,-1,-1,-1,-1,-1,-1,-1,-1,-1,-1,-1,-1,-1,-1,-1,-1,-1,-1,-1,-1,-1],"split_conditions":[3.6767896E3,4E0,4E0,1.9342747E3,2.1789478E3,5.727519E3,4.5680947E3,-5E-1,2.942248E3,1.6159406E3,9E0,-2.5881904E-1,3E0,4.132766E3,1.5591666E1,1.3229216E3,1.0758542E3,2.5881904E-1,2.5881904E-1,-6.097479E1,5E0,5E0,-5E-1,8.660254E-1,4.7708096E3,1.3421637E2,1.8666666E1,1.2783334E1,-5E-1,5E0,1E0,-3.29443E1,-7.1945205E0,-5.7115734E1,-3.870897E1,8.899845E0,-1.7003736E1,4.1445274E1,8.584491E0,-4.4877113E1,-5.9545357E1,-3.122742E1,-4.8703358E1,9.776343E0,-2.7559397E1,6.650274E1,1.0454832E2,3.351826E1,7.078148E1,7.435323E1,1.1562805E2,-4.610506E-1,-1.9891169E1,2.5716894E1,-6.0115714E0,2.4959991E1,-1.192437E1,3.579603E1,1.149457E2],"split_indices":[5,2,2,5,5,5,5,4,5,5,2,4,2,5,0,5,5,4,4,0,2,2,3,3,5,0,0,0,4,2,3,0,0,0,0,0,0,0,0,0,0,0,0,0,0,0,0,0,0,0,0,0,0,0,0,0,0,0,0],"split_type":[0,0,0,0,0,0,0,0,0,0,0,0,0,0,0,0,0,0,0,0,0,0,0,0,0,0,0,0,0,0,0,0,0,0,0,0,0,0,0,0,0,0,0,0,0,0,0,0,0,0,0,0,0,0,0,0,0,0,0],"sum_hessian":[1.736E3,1.045E3,6.91E2,4.11E2,6.34E2,3.2E2,3.71E2,1.67E2,2.44E2,3.47E2,2.87E2,2.2E2,1E2,1.45E2,2.26E2,6.1E1,1.06E2,1.45E2,9.9E1,1.94E2,1.53E2,2.73E2,1.4E1,1.03E2,1.17E2,5.6E1,4.4E1,7.7E1,6.8E1,9.6E1,1.3E2,3.3E1,2.8E1,2.9E1,7.7E1,8.1E1,6.4E1,6.1E1,3.8E1,1.1E2,4.3E1,2.09E2,6.4E1,9E0,5E0,6E1,4.3E1,6.1E1,5.6E1,2.8E1,1.6E1,1.6E1,6.1E1,1.4E1,5.4E1,5.7E1,3.9E1,1.23E2,7E0],"tree_param":{"num_deleted":"0","num_feature":"7","num_nodes":"59","size_leaf_vector":"1"}},{"base_weights":[-1.3050665E1,-4.9776166E2,1.0247736E3,-7.388782E2,1.39467535E1,7.464395E2,1.8089093E3,-8.596054E2,-3.3446106E2,-3.9713177E2,3.6935306E2,8.924836E2,9.3772194E1,1.0400702E3,1.9905868E3,-9.7710425E2,-6.9646936E2,-5.471986E2,1.1083502E1,-5.997501E2,-1.6600381E2,-2.4032604E1,1.0070417E3,4.6077747E0,9.8183276E2,-3.3541092E2,3.9029584E2,5.1522577E2,1.4671074E3,1.1738953E3,2.2587117E3,-5.1851086E1,-3.6899014E1,-4.1057384E1,-2.3539036E1,-3.753268E1,-8.3006735E0,-2.1326044E1,1.4642446E1,-4.2281124E1,-2.0277946E1,-2.9667429E1,1.228445E1,-2.7597998E1,7.7909656E0,3.484087E0,5.9530872E1,1.1403763E1,-3.4715206E1,2.887383E1,6.1325195E1,-3.1898905E1,3.5149193E-1,-2.7923985E1,2.347387E1,-1.9415531E1,3.0375029E1,7.70691E1,3.1572855E1,6.0759808E1,-1.6283722E0,1.24669945E2,6.437731E1],"categories":[],"categories_nodes":[],"categories_segments":[],"categories_sizes":[],"default_left":[0,0,0,0,0,0,0,0,0,0,0,0,0,0,0,0,0,0,0,0,0,0,0,0,0,0,0,0,0,0,0,0,0,0,0,0,0,0,0,0,0,0,0,0,0,0,0,0,0,0,0,0,0,0,0,0,0,0,0,0,0,0,0],"id":5,"left_children":[1,3,5,7,9,11,13,15,17,19,21,23,25,27,29,31,33,35,37,39,41,43,45,47,49,51,53,55,57,59,61,-1,-1,-1,-1,-1,-1,-1,-1,-1,-1,-1,-1,-1,-1,-1,-1,-1,-1,-1,-1,-1,-1,-1,-1,-1,-1,-1,-1,-1,-1,-1,-1],"loss_changes":[8.8486285E8,1.4794458E8,1.2087072E8,3.950419E7,5.6395144E7,3.947336E7,1.8323072E7,1.1337952E7,1.3899512E7,8.283146E6,5.195172E7,2.6888672E7,9.930157E6,5.96795E6,2.296864E7,4.421312E6,7.098256E6,8.949204E6,9.125936E6,4.19294E6,1.5100234E7,1.2334395E7,1.351108E7,5.1562435E6,2.9763488E7,3.3200472E6,3.717966E6,1.4865032E6,1.9768E4,1.584244E6,1.6618656E7,0E0,0E0,0E0,0E0,0E0,0E0,0E0,0E0,0E0,0E0,0E0,0E0,0E0,0E0,0E0,0E0,0E0,0E0,0E0,0E0,0E0,0E0,0E0,0E0,0E0,0E0,0E0,0E0,0E0,0E0,0E0,0E0],"parents":[2147483647,0,0,1,1,2,2,3,3,4,4,5,5,6,6,7,7,8,8,9,9,10,10,11,11,12,12,13,13,14,14,15,15,16,16,17,17,18,18,19,19,20,20,21,21,22,22,23,23,24,24,25,25,26,26,27,27,28,28,29,29,30,30],"right_children":[2,4,6,8,10,12,14,16,18,20,22,24,26,28,30,32,34,36,38,40,42,44,46,48,50,52,54,56,58,60,62,-1,-1,-1,-1,-1,-1,-1,-1,-1,-1,-1,-1,-1,-1,-1,-1,-1,-1,-1,-1,-1,-1,-1,-1,-1,-1,-1,-1,-1,-1,-1,-1],"split_conditions":[2.2E1,1.2583333E1,4.2166668E1,1.555E1,1.2741667E1,5E-1,-5E-1,6E0,5E-1,9.883333E0,5E-1,7.7166667E0,1.2246469E-16,1.6283333E1,-8.660254E-1,8.660254E-1,1.2246469E-16,7.5833335E0,-7.0710677E-1,1.65E1,5E-1,-7.0710677E-1,-8.660254E-1,8.660254E-1,-7.0710677E-1,1.4125E1,6.5833335E0,-8.660254E-1,2.5881904E-1,4E0,2.5881904E-1,-5.1851086E1,-3.6899014E1,-4.1057384E1,-2.3539036E1,-3.753268E1,-8.3006735E0,-2.1326044E1,1.4642446E1,-4.2281124E1,-2.0277946E1,-2.9667429E1,1.228445E1,-2.7597998E1,7.7909656E0,3.484087E0,5.9530872E1,1.1403763E1,-3.4715206E1,2.887383E1,6.1325195E1,-3.1898905E1,3.5149193E-1,-2.7923985E1,2.347387E1,-1.9415531E1,3.0375029E1,7.70691E1,3.1572855E1,6.0759808E1,-1.6283722E0,1.24669945E2,6.437731E1],"split_indices":[6,6,6,0,0,4,3,6,3,0,3,0,3,0,4,3,3,6,4,6,3,4,4,3,4,0,0,4,4,2,4,0,0,0,0,0,0,0,0,0,0,0,0,0,0,0,0,0,0,0,0,0,0,0,0,0,0,0,0,0,0,0,0],"split_type":[0,0,0,0,0,0,0,0,0,0,0,0,0,0,0,0,0,0,0,0,0,0,0,0,0,0,0,0,0,0,0,0,0,0,0,0,0,0,0,0,0,0,0,0,0,0,0,0,0,0,0,0,0,0,0,0,0,0,0,0,0,0,0],"sum_hessian":[1.757E3,1.198E3,5.59E2,8.14E2,3.84E2,4.14E2,1.45E2,6.26E2,1.88E2,1.78E2,2.06E2,3.38E2,7.6E1,2.9E1,1.16E2,3.61E2,2.65E2,1.16E2,7.2E1,9.4E1,8.4E1,1.28E2,7.8E1,3.1E1,3.07E2,3.1E1,4.5E1,1.4E1,1.5E1,3E1,8.6E1,2.86E2,7.5E1,1.69E2,9.6E1,7.5E1,4.1E1,2.8E1,4.4E1,4E1,5.4E1,4.1E1,4.3E1,3.2E1,9.6E1,1.3E1,6.5E1,2.4E1,7E0,1.17E2,1.9E2,1.6E1,1.5E1,3E0,4.2E1,1E0,1.3E1,1.3E1,2E0,2.9E1,1E0,6.8E1,1.8E1],"tree_param":{"num_deleted":"0","num_feature":"7","num_nodes":"63","size_leaf_vector":"1"}},{"base_weights":[-8.288162E0,-5.566874E2,8.2265576E2,-8.6037915E2,5.3161484E1,1.5036427E3,2.6136478E2,-9.628955E2,-5.8661664E2,-6.0741644E2,1.869104E2,1.2580115E3,2.200248E3,-1.2567483E2,7.0129553E2,-1.100244E3,-8.260738E2,-8.6204425E2,-4.118811E2,-7.881444E2,-4.786553E2,-2.0027419E2,4.2678687E2,7.322358E2,1.390471E3,9.254073E2,2.3691482E3,-2.6188025E2,2.5500087E2,4.4228458E2,1.5559838E3,-5.9070446E1,-5.0123512E1,-4.642403E1,-3.6064392E1,-1.0752204E1,-4.3851486E1,-6.4553374E-1,-2.5836872E1,-4.211593E1,-7.310534E0,-3.1310694E1,-1.3411048E1,-2.0558374E1,-2.62463E0,1.1803291E1,3.547949E1,-3.2666428E0,4.4472622E1,5.554368E1,8.011389E1,2.6696325E1,7.385085E1,9.382018E1,1.2779488E2,-2.1599154E1,2.4262226E0,-9.049527E0,2.4842653E1,-2.4854109E1,2.8477736E1,5.543917E0,8.546074E1],"categories":[],"categories_nodes":[],"categories_segments":[],"categories_sizes":[],"default_left":[0,0,0,0,0,0,0,0,0,0,0,0,0,0,0,0,0,0,0,0,0,0,0,0,0,0,0,0,0,0,0,0,0,0,0,0,0,0,0,0,0,0,0,0,0,0,0,0,0,0,0,0,0,0,0,0,0,0,0,0,0,0,0],"id":6,"left_children":[1,3,5,7,9,11,13,15,17,19,21,23,25,27,29,31,33,35,37,39,41,43,45,47,49,51,53,55,57,59,61,-1,-1,-1,-1,-1,-1,-1,-1,-1,-1,-1,-1,-1,-1,-1,-1,-1,-1,-1,-1,-1,-1,-1,-1,-1,-1,-1,-1,-1,-1,-1,-1],"loss_changes":[7.9198976E8,1.9395651E8,2.6372922E8,1.9052672E7,3.0948232E7,5.061779E7,6.4790976E7,8.618816E6,8.933444E6,9.95726E5,2.7112526E7,1.5208896E7,1.5033216E7,1.0592348E7,3.871631E7,7.99648E5,2.098848E6,5.28872E5,5.013476E6,6.76697E5,9.80938E5,3.469025E6,9.541052E6,6.202276E6,9.175872E6,1.586773E6,1.645472E6,7.941069E6,5.783982E6,1.6781472E7,8.88932E6,0E0,0E0,0E0,0E0,0E0,0E0,0E0,0E0,0E0,0E0,0E0,0E0,0E0,0E0,0E0,0E0,0E0,0E0,0E0,0E0,0E0,0E0,0E0,0E0,0E0,0E0,0E0,0E0,0E0,0E0,0E0,0E0],"parents":[2147483647,0,0,1,1,2,2,3,3,4,4,5,5,6,6,7,7,8,8,9,9,10,10,11,11,12,12,13,13,14,14,15,15,16,16,17,17,18,18,19,19,20,20,21,21,22,22,23,23,24,24,25,25,26,26,27,27,28,28,29,29,30,30],"right_children":[2,4,6,8,10,12,14,16,18,20,22,24,26,28,30,32,34,36,38,40,42,44,46,48,50,52,54,56,58,60,62,-1,-1,-1,-1,-1,-1,-1,-1,-1,-1,-1,-1,-1,-1,-1,-1,-1,-1,-1,-1,-1,-1,-1,-1,-1,-1,-1,-1,-1,-1,-1,-1],"split_conditions":[3.6767896E3,1.65E1,4E0,2.6325815E3,1.7089216E3,5.935699E3,1.275E1,5.4166665E0,4.5E0,-5E-1,2.325E1,2.2416666E1,1.8333334E1,5.7946313E3,5.8405005E3,2E0,1.6883915E3,2.7139392E3,4E0,1.5791667E1,1.3942258E3,2.5246123E3,5E-1,3.9889473E3,4.5680947E3,6.2721777E3,2.975E1,8.583333E0,8.333333E-1,9.883333E0,1.1491667E1,-5.9070446E1,-5.0123512E1,-4.642403E1,-3.6064392E1,-1.0752204E1,-4.3851486E1,-6.4553374E-1,-2.5836872E1,-4.211593E1,-7.310534E0,-3.1310694E1,-1.3411048E1,-2.0558374E1,-2.62463E0,1.1803291E1,3.547949E1,-3.2666428E0,4.4472622E1,5.554368E1,8.011389E1,2.6696325E1,7.385085E1,9.382018E1,1.2779488E2,-2.1599154E1,2.4262226E0,-9.049527E0,2.4842653E1,-2.4854109E1,2.8477736E1,5.543917E0,8.546074E1],"split_indices":[5,6,2,5,5,5,6,6,6,3,6,6,6,5,5,6,5,5,2,0,5,5,3,5,5,5,6,6,6,0,0,0,0,0,0,0,0,0,0,0,0,0,0,0,0,0,0,0,0,0,0,0,0,0,0,0,0,0,0,0,0,0,0],"split_type":[0,0,0,0,0,0,0,0,0,0,0,0,0,0,0,0,0,0,0,0,0,0,0,0,0,0,0,0,0,0,0,0,0,0,0,0,0,0,0,0,0,0,0,0,0,0,0,0,0,0,0,0,0,0,0,0,0,0,0,0,0,0,0],"sum_hessian":[1.736E3,1.046E3,6.9E2,6.98E2,3.48E2,3.11E2,3.79E2,5.06E2,1.92E2,5.8E1,2.9E2,2.32E2,7.9E1,2.02E2,1.77E2,2.49E2,2.57E2,7.3E1,1.19E2,2.2E1,3.6E1,1.11E2,1.79E2,4.8E1,1.84E2,1E1,6.9E1,1.49E2,5.3E1,1.37E2,4E1,1.3E2,1.19E2,1.26E2,1.31E2,2E0,7.1E1,2.5E1,9.4E1,2E1,2E0,2E1,1.6E1,4.5E1,6.6E1,1.08E2,7.1E1,8E0,4E1,8.2E1,1.02E2,7E0,3E0,2.2E1,4.7E1,9.6E1,5.3E1,1.9E1,3.4E1,1.6E1,1.21E2,4E0,3.6E1],"tree_param":{"num_deleted":"0","num_feature":"7","num_nodes":"63","size_leaf_vector":"1"}},{"base_weights":[-5.837561E0,-4.4658777E2,9.2752625E2,-7.1471515E2,2.7983325E2,1.7949991E2,1.3848541E3,-8.812055E2,-4.5854605E2,-1.8772438E2,5.8688245E2,-4.088259E2,3.5669257E2,1.118052E3,1.9444402E3,-5.2666073E1,-7.5062555E2,-6.969591E2,-2.5465399E2,-3.5476492E2,2.1723386E2,4.7510962E2,1.5355505E3,-6.386652E2,-2.4735454E2,5.357283E2,-7.808033E1,-5.5513947E2,1.163717E3,1.4295575E3,2.249005E3,-4.4989647E1,-3.2769344E1,-4.568935E1,-3.0126257E1,-1.8474821E1,-4.8216767E0,-3.734341E1,-1.2046002E1,-8.23891E0,2.6716415E1,-8.286249E0,2.8416946E1,3.1986883E1,8.5976006E1,-3.7223316E1,-1.6791258E1,-2.6462385E1,4.4307323E0,1.3155457E1,3.7120102E1,-1.6034029E1,5.766137E0,-4.3614635E1,7.924784E0,6.297691E1,2.6273703E1,8.734838E1,3.8245224E1,1.1567946E2,5.9801838E1],"categories":[],"categories_nodes":[],"categories_segments":[],"categories_sizes":[],"default_left":[0,0,0,0,0,0,0,0,0,0,0,0,0,0,0,0,0,0,0,0,0,0,0,0,0,0,0,0,0,0,0,0,0,0,0,0,0,0,0,0,0,0,0,0,0,0,0,0,0,0,0,0,0,0,0,0,0,0,0,0,0],"id":7,"left_children":[1,3,5,7,9,11,13,15,17,19,21,23,25,27,29,-1,31,33,35,37,39,41,43,45,47,49,51,53,55,57,59,-1,-1,-1,-1,-1,-1,-1,-1,-1,-1,-1,-1,-1,-1,-1,-1,-1,-1,-1,-1,-1,-1,-1,-1,-1,-1,-1,-1,-1,-1],"loss_changes":[7.1950694E8,2.315908E8,1.9166573E8,3.661584E7,4.619396E7,2.2454686E7,4.9782016E7,1.100864E7,1.6544536E7,8.735556E6,1.98413E7,1.6976465E6,1.288541E7,1.8830688E7,1.4191424E7,0E0,3.700656E6,2.684624E6,3.362237E6,3.882209E6,4.691134E6,1.0549488E7,2.196004E6,3.90805E5,2.9828285E6,6.396828E6,2.3360438E6,1.7225765E6,1.3526624E7,7.94632E6,1.857184E6,0E0,0E0,0E0,0E0,0E0,0E0,0E0,0E0,0E0,0E0,0E0,0E0,0E0,0E0,0E0,0E0,0E0,0E0,0E0,0E0,0E0,0E0,0E0,0E0,0E0,0E0,0E0,0E0,0E0,0E0],"parents":[2147483647,0,0,1,1,2,2,3,3,4,4,5,5,6,6,7,7,8,8,9,9,10,10,11,11,12,12,13,13,14,14,16,16,17,17,18,18,19,19,20,20,21,21,22,22,23,23,24,24,25,25,26,26,27,27,28,28,29,29,30,30],"right_children":[2,4,6,8,10,12,14,16,18,20,22,24,26,28,30,-1,32,34,36,38,40,42,44,46,48,50,52,54,56,58,60,-1,-1,-1,-1,-1,-1,-1,-1,-1,-1,-1,-1,-1,-1,-1,-1,-1,-1,-1,-1,-1,-1,-1,-1,-1,-1,-1,-1,-1,-1],"split_conditions":[2.2E1,4.0528098E3,3.5123198E3,2.4012837E3,8.916667E0,1.9342747E3,4.2166668E1,5.4166665E0,8.666667E0,5.8405005E3,6.253126E3,1.252907E3,2.5881904E-1,7.7166667E0,5.038215E3,-5.2666073E1,1.481774E3,1.25E0,1.5666667E1,4.1666666E-1,8.333333E-1,1.0841666E1,1.35E1,1.6841667E1,1.2641666E1,2.975E1,1.2246469E-16,2.5881904E-1,5E-1,-2.5881904E-1,5E-1,-4.4989647E1,-3.2769344E1,-4.568935E1,-3.0126257E1,-1.8474821E1,-4.8216767E0,-3.734341E1,-1.2046002E1,-8.23891E0,2.6716415E1,-8.286249E0,2.8416946E1,3.1986883E1,8.5976006E1,-3.7223316E1,-1.6791258E1,-2.6462385E1,4.4307323E0,1.3155457E1,3.7120102E1,-1.6034029E1,5.766137E0,-4.3614635E1,7.924784E0,6.297691E1,2.6273703E1,8.734838E1,3.8245224E1,1.1567946E2,5.9801838E1],"split_indices":[6,5,5,5,6,5,6,6,6,5,5,5,4,0,5,0,5,6,6,6,6,0,6,0,0,6,3,4,4,4,4,0,0,0,0,0,0,0,0,0,0,0,0,0,0,0,0,0,0,0,0,0,0,0,0,0,0,0,0,0,0],"split_type":[0,0,0,0,0,0,0,0,0,0,0,0,0,0,0,0,0,0,0,0,0,0,0,0,0,0,0,0,0,0,0,0,0,0,0,0,0,0,0,0,0,0,0,0,0,0,0,0,0,0,0,0,0,0,0,0,0,0,0,0,0],"sum_hessian":[1.747E3,1.187E3,5.6E2,8.67E2,3.2E2,2.13E2,3.47E2,5.24E2,3.43E2,1.27E2,1.93E2,4.9E1,1.64E2,2.37E2,1.1E2,2.23E2,3.01E2,1.57E2,1.86E2,9E1,3.7E1,1.74E2,1.9E1,1.9E1,3E1,1.16E2,4.8E1,6E0,2.31E2,4.3E1,6.7E1,1.14E2,1.87E2,4.5E1,1.12E2,1.07E2,7.9E1,1.9E1,7.1E1,1.7E1,2E1,2.2E1,1.52E2,4E0,1.5E1,1.3E1,6E0,1.6E1,1.4E1,5.1E1,6.5E1,2.1E1,2.7E1,4E0,2E0,2E2,3.1E1,2.8E1,1.5E1,6.2E1,5E0],"tree_param":{"num_deleted":"0","num_feature":"7","num_nodes":"61","size_leaf_vector":"1"}},{"base_weights":[-1.8265694E1,-5.022442E2,7.497987E2,-1.253028E2,-7.425545E2,1.3997601E3,2.1374979E2,-6.382999E2,2.1993248E2,-9.246967E2,-5.18997E2,1.2004935E3,1.9427007E3,4.1280434E1,7.7429626E2,-4.025973E2,-7.557094E2,-3.5122234E1,4.921406E2,-5.0693104E1,-7.9574915E2,-6.7278687E2,-4.066551E2,1.4794489E3,8.2389374E2,1.10288E2,1.5414596E3,-1.7924063E2,2.2859846E2,9.576377E2,2.5312347E2,-3.0376862E1,-9.553439E0,-4.262411E1,-2.8821415E1,7.6117487E0,-1.3516416E1,4.2845486E1,1.1599672E1,-7.4828258E0,-4.084253E1,-4.060744E1,-2.8949217E1,-2.2970526E1,-6.993693E0,9.233416E1,6.141474E1,2.8944921E1,6.060795E1,5.6607693E1,1.0058619E2,-1.6546959E1,-2.115923E0,-2.0886515E1,1.5592448E1,2.2243269E1,6.1722004E1,-1.1239171E1,4.7233574E1],"categories":[],"categories_nodes":[],"categories_segments":[],"categories_sizes":[],"default_left":[0,0,0,0,0,0,0,0,0,0,0,0,0,0,0,0,0,0,0,0,0,0,0,0,0,0,0,0,0,0,0,0,0,0,0,0,0,0,0,0,0,0,0,0,0,0,0,0,0,0,0,0,0,0,0,0,0,0,0],"id":8,"left_children":[1,3,5,7,9,11,13,15,17,19,21,23,25,27,29,31,33,35,37,-1,39,41,43,45,47,-1,49,51,53,55,57,-1,-1,-1,-1,-1,-1,-1,-1,-1,-1,-1,-1,-1,-1,-1,-1,-1,-1,-1,-1,-1,-1,-1,-1,-1,-1,-1,-1],"loss_changes":[6.47181E8,9.664947E7,2.3418144E8,7.399305E7,2.6069056E7,3.0557568E7,3.573856E7,4.344944E6,1.7374274E7,3.309408E6,4.823136E6,2.2418368E7,5.043968E6,1.1772325E7,8.070672E6,2.398256E6,1.434404E6,5.7699355E6,1.1283332E7,0E0,1.936408E6,1.137692E6,2.37057E6,9.537472E6,8.620352E6,0E0,4.45928E6,2.7069825E6,8.416576E6,8.534784E6,8.14424E6,0E0,0E0,0E0,0E0,0E0,0E0,0E0,0E0,0E0,0E0,0E0,0E0,0E0,0E0,0E0,0E0,0E0,0E0,0E0,0E0,0E0,0E0,0E0,0E0,0E0,0E0,0E0,0E0],"parents":[2147483647,0,0,1,1,2,2,3,3,4,4,5,5,6,6,7,7,8,8,9,9,10,10,11,11,12,12,13,13,14,14,15,15,16,16,17,17,18,18,20,20,21,21,22,22,23,23,24,24,26,26,27,27,28,28,29,29,30,30],"right_children":[2,4,6,8,10,12,14,16,18,20,22,24,26,28,30,32,34,36,38,-1,40,42,44,46,48,-1,50,52,54,56,58,-1,-1,-1,-1,-1,-1,-1,-1,-1,-1,-1,-1,-1,-1,-1,-1,-1,-1,-1,-1,-1,-1,-1,-1,-1,-1,-1,-1],"split_conditions":[3.7804136E3,4E0,4E0,1.9252678E3,2.2338914E3,5.935699E3,5.874094E3,-5E-1,2.878832E3,1.6883915E3,1.2041667E1,1.2246469E-16,3E0,4.5680947E3,5E0,1.24108E3,1.481774E3,2.5881904E-1,-2.5881904E-1,-5.0693104E1,3.6E0,-2.5881904E-1,1.7008333E1,3E0,4.9984453E3,1.10288E2,1.7775E1,4.132766E3,9.883333E0,5E-1,1.7133333E1,-3.0376862E1,-9.553439E0,-4.262411E1,-2.8821415E1,7.6117487E0,-1.3516416E1,4.2845486E1,1.1599672E1,-7.4828258E0,-4.084253E1,-4.060744E1,-2.8949217E1,-2.2970526E1,-6.993693E0,9.233416E1,6.141474E1,2.8944921E1,6.060795E1,5.6607693E1,1.0058619E2,-1.6546959E1,-2.115923E0,-2.0886515E1,1.5592448E1,2.2243269E1,6.1722004E1,-1.1239171E1,4.7233574E1],"split_indices":[5,2,2,5,5,5,5,4,5,5,0,4,2,5,2,5,5,4,4,0,0,4,0,2,5,0,0,5,0,3,0,0,0,0,0,0,0,0,0,0,0,0,0,0,0,0,0,0,0,0,0,0,0,0,0,0,0,0,0],"split_type":[0,0,0,0,0,0,0,0,0,0,0,0,0,0,0,0,0,0,0,0,0,0,0,0,0,0,0,0,0,0,0,0,0,0,0,0,0,0,0,0,0,0,0,0,0,0,0,0,0,0,0,0,0,0,0,0,0,0,0],"sum_hessian":[1.739E3,1.067E3,6.72E2,4.16E2,6.51E2,3.03E2,3.69E2,1.67E2,2.49E2,3.57E2,2.94E2,2.24E2,7.9E1,2.83E2,8.6E1,5.7E1,1.1E2,1.29E2,1.2E2,2.07E2,1.5E2,1.22E2,1.72E2,1.27E2,9.7E1,4.5E1,3.4E1,1.3E2,1.53E2,6.3E1,2.3E1,2.8E1,2.9E1,6.9E1,4.1E1,7.2E1,5.7E1,4.9E1,7.1E1,5E0,1.45E2,4.6E1,7.6E1,1.43E2,2.9E1,4.9E1,7.8E1,6.1E1,3.6E1,2E1,1.4E1,6.1E1,6.9E1,1.7E1,1.36E2,2.3E1,4E1,1.4E1,9E0],"tree_param":{"num_deleted":"0","num_feature":"7","num_nodes":"59","size_leaf_vector":"1"}},{"base_weights":[1.2327028E1,-3.9136368E2,8.3969257E2,-6.9455005E2,1.4303171E2,1.4188582E3,3.4834534E2,-8.083271E2,-3.9220172E2,-2.2129254E2,4.0931436E2,1.0509045E3,1.7989132E3,-1.27252884E2,6.2216205E2,-4.8537724E1,-7.2957135E2,-5.717613E2,-1.490123E2,-4.638281E2,-5.217566E1,6.921432E2,8.319975E1,4.9089136E2,1.1942015E3,1.5544473E3,2.1394126E3,-5.4906067E2,3.182294E1,4.8780844E2,1.2440184E3,-4.1557934E1,-3.2400803E1,-4.2465466E1,-2.309196E1,1.9548412E1,-1.3266147E1,-3.3618027E1,-1.9674845E1,-1.9761503E1,5.7655787E0,4.3918457E1,3.4543583E0,9.033159E0,-7.571978E0,-4.3633566E0,3.074886E1,7.0631836E1,3.913598E1,8.674551E1,6.441616E1,1.1283767E2,7.221868E1,-3.5853867E1,-1.4691031E1,-7.1342697E0,2.2119486E1,2.1794928E1,7.874853E1,2.6980457E1,7.380108E1],"categories":[],"categories_nodes":[],"categories_segments":[],"categories_sizes":[],"default_left":[0,0,0,0,0,0,0,0,0,0,0,0,0,0,0,0,0,0,0,0,0,0,0,0,0,0,0,0,0,0,0,0,0,0,0,0,0,0,0,0,0,0,0,0,0,0,0,0,0,0,0,0,0,0,0,0,0,0,0,0,0],"id":9,"left_children":[1,3,5,7,9,11,13,15,17,19,21,23,25,27,29,-1,31,33,35,37,39,41,43,45,47,49,51,53,55,57,59,-1,-1,-1,-1,-1,-1,-1,-1,-1,-1,-1,-1,-1,-1,-1,-1,-1,-1,-1,-1,-1,-1,-1,-1,-1,-1,-1,-1,-1,-1],"loss_changes":[5.754762E8,1.8772011E8,1.6028864E8,2.51048E7,4.0836132E7,3.4328736E7,4.0058776E7,6.14832E6,8.822868E6,7.2768E6,2.2355428E7,1.016704E7,7.16272E6,7.5997075E6,1.5685144E7,0E0,2.485424E6,3.177264E6,5.6306145E6,8.06071E5,6.136042E6,1.5023112E7,2.634397E6,2.1341645E6,8.421808E6,1.462832E6,8.18224E5,1.118729E6,6.00985E6,8.455856E6,4.759976E6,0E0,0E0,0E0,0E0,0E0,0E0,0E0,0E0,0E0,0E0,0E0,0E0,0E0,0E0,0E0,0E0,0E0,0E0,0E0,0E0,0E0,0E0,0E0,0E0,0E0,0E0,0E0,0E0,0E0,0E0],"parents":[2147483647,0,0,1,1,2,2,3,3,4,4,5,5,6,6,7,7,8,8,9,9,10,10,11,11,12,12,13,13,14,14,16,16,17,17,18,18,19,19,20,20,21,21,22,22,23,23,24,24,25,25,26,26,27,27,28,28,29,29,30,30],"right_children":[2,4,6,8,10,12,14,16,18,20,22,24,26,28,30,-1,32,34,36,38,40,42,44,46,48,50,52,54,56,58,60,-1,-1,-1,-1,-1,-1,-1,-1,-1,-1,-1,-1,-1,-1,-1,-1,-1,-1,-1,-1,-1,-1,-1,-1,-1,-1,-1,-1,-1,-1],"split_conditions":[4.132766E3,1.625E1,4E0,2.8538591E3,2.5246123E3,5.4130093E3,8.916667E0,3.4166667E0,8.666667E0,2.3416666E1,-2.5881904E-1,2.2416666E1,4.3E1,4.1666666E-1,5.908694E3,-4.8537724E1,1.6159406E3,1.25E0,4E0,1.3942258E3,1.6503262E3,4E0,4E0,-7.0710677E-1,2.5881904E-1,1.2246469E-16,2.5881904E-1,5.7946313E3,5.8405005E3,3.575E1,1.1833333E1,-4.1557934E1,-3.2400803E1,-4.2465466E1,-2.309196E1,1.9548412E1,-1.3266147E1,-3.3618027E1,-1.9674845E1,-1.9761503E1,5.7655787E0,4.3918457E1,3.4543583E0,9.033159E0,-7.571978E0,-4.3633566E0,3.074886E1,7.0631836E1,3.913598E1,8.674551E1,6.441616E1,1.1283767E2,7.221868E1,-3.5853867E1,-1.4691031E1,-7.1342697E0,2.2119486E1,2.1794928E1,7.874853E1,2.6980457E1,7.380108E1],"split_indices":[5,6,2,5,5,5,6,6,6,6,4,6,6,6,5,0,5,6,2,5,5,2,2,4,4,4,4,5,5,6,6,0,0,0,0,0,0,0,0,0,0,0,0,0,0,0,0,0,0,0,0,0,0,0,0,0,0,0,0,0,0],"split_type":[0,0,0,0,0,0,0,0,0,0,0,0,0,0,0,0,0,0,0,0,0,0,0,0,0,0,0,0,0,0,0,0,0,0,0,0,0,0,0,0,0,0,0,0,0,0,0,0,0,0,0,0,0,0,0,0,0,0,0,0,0],"sum_hessian":[1.721E3,1.157E3,5.64E2,7.38E2,4.19E2,2.58E2,3.06E2,5.35E2,2.03E2,1.77E2,2.42E2,1.33E2,1.25E2,1.12E2,1.94E2,1.71E2,3.64E2,1.16E2,8.7E1,7.2E1,1.05E2,1.29E2,1.13E2,2.8E1,1.05E2,7.6E1,4.9E1,3E1,8.2E1,1.61E2,3.3E1,1.58E2,2.06E2,3.1E1,8.5E1,1.5E1,7.2E1,1.6E1,5.6E1,3.4E1,7.1E1,9.9E1,3E1,8E1,3.3E1,5E0,2.3E1,6.7E1,3.8E1,4.2E1,3.4E1,4E1,9E0,1.7E1,1.3E1,5.8E1,2.4E1,1.55E2,6E0,9E0,2.4E1],"tree_param":{"num_deleted":"0","num_feature":"7","num_nodes":"61","size_leaf_vector":"1"}},{"base_weights":[-3.7716625E0,-3.984641E2,8.121656E2,-6.092154E2,2.9469205E2,2.5028453E2,1.3183401E3,-7.468147E2,-3.8413696E2,-2.452224E2,5.2374567E2,-2.333116E2,4.3158978E2,1.0700859E3,1.7687532E3,-8.9088367E2,-6.3257965E2,3.0666182E1,-4.8719272E2,-3.2334045E2,3.4956174E2,1.5669226E2,8.138657E2,-6.023704E2,-7.571527E1,5.539498E2,-3.025313E1,1.300628E3,6.869507E2,1.4096202E3,2.0630786E3,-4.8319008E1,-4.0338833E1,-3.856214E1,-2.6751226E1,-1.0351043E1,1.2091425E1,-3.769175E1,-2.0364563E1,-2.774565E1,-9.171494E0,-3.2687066E0,4.9415455E1,4.7234263E0,3.7578255E1,5.3696926E1,1.1194386E1,-3.0794971E1,-7.95654E0,-1.37263155E1,7.065052E0,3.335467E1,1.9678653E0,-1.992722E1,1.05858135E1,7.414727E1,4.4945988E1,2.0915749E1,4.7577053E1,8.046097E1,4.6375156E1,1.0806168E2,7.026291E1],"categories":[],"categories_nodes":[],"categories_segments":[],"categories_sizes":[],"default_left":[0,0,0,0,0,0,0,0,0,0,0,0,0,0,0,0,0,0,0,0,0,0,0,0,0,0,0,0,0,0,0,0,0,0,0,0,0,0,0,0,0,0,0,0,0,0,0,0,0,0,0,0,0,0,0,0,0,0,0,0,0,0,0],"id":10,"left_children":[1,3,5,7,9,11,13,15,17,19,21,23,25,27,29,31,33,35,37,39,41,43,45,47,49,51,53,55,57,59,61,-1,-1,-1,-1,-1,-1,-1,-1,-1,-1,-1,-1,-1,-1,-1,-1,-1,-1,-1,-1,-1,-1,-1,-1,-1,-1,-1,-1,-1,-1,-1,-1],"loss_changes":[5.5810426E8,1.7080514E8,1.6036163E8,2.7462816E7,3.389017E7,2.3686216E7,3.1316896E7,8.570496E6,1.4634708E7,3.9230245E6,2.0318468E7,4.2584025E6,1.109294E7,1.624232E7,8.084864E6,7.6336E5,3.821408E6,3.513211E6,5.530564E6,2.2633725E6,2.7150018E6,3.1123082E6,1.6177344E7,3.3916E4,2.3254885E6,8.998284E6,3.827217E6,7.455552E6,4.932836E6,3.318952E6,5.1416E5,0E0,0E0,0E0,0E0,0E0,0E0,0E0,0E0,0E0,0E0,0E0,0E0,0E0,0E0,0E0,0E0,0E0,0E0,0E0,0E0,0E0,0E0,0E0,0E0,0E0,0E0,0E0,0E0,0E0,0E0,0E0,0E0],"parents":[2147483647,0,0,1,1,2,2,3,3,4,4,5,5,6,6,7,7,8,8,9,9,10,10,11,11,12,12,13,13,14,14,15,15,16,16,17,17,18,18,19,19,20,20,21,21,22,22,23,23,24,24,25,25,26,26,27,27,28,28,29,29,30,30],"right_children":[2,4,6,8,10,12,14,16,18,20,22,24,26,28,30,32,34,36,38,40,42,44,46,48,50,52,54,56,58,60,62,-1,-1,-1,-1,-1,-1,-1,-1,-1,-1,-1,-1,-1,-1,-1,-1,-1,-1,-1,-1,-1,-1,-1,-1,-1,-1,-1,-1,-1,-1,-1,-1],"split_conditions":[2.2E1,4.132766E3,3.969931E3,2.5246123E3,5.8333335E0,2.096172E3,4.2166668E1,5.5833335E0,4E0,6.488439E3,5E-1,1.252907E3,5E-1,1.2246469E-16,5.5495425E3,2E0,1.6159406E3,-5E-1,1.6666666E0,4.1666666E-1,8.333333E-1,8E0,1E0,4.2166668E1,1.2246469E-16,4E0,-5E-1,4E0,5E-1,1.2246469E-16,2.5881904E-1,-4.8319008E1,-4.0338833E1,-3.856214E1,-2.6751226E1,-1.0351043E1,1.2091425E1,-3.769175E1,-2.0364563E1,-2.774565E1,-9.171494E0,-3.2687066E0,4.9415455E1,4.7234263E0,3.7578255E1,5.3696926E1,1.1194386E1,-3.0794971E1,-7.95654E0,-1.37263155E1,7.065052E0,3.335467E1,1.9678653E0,-1.992722E1,1.05858135E1,7.414727E1,4.4945988E1,2.0915749E1,4.7577053E1,8.046097E1,4.6375156E1,1.0806168E2,7.026291E1],"split_indices":[6,5,5,5,6,5,6,6,2,5,3,5,4,4,5,6,5,3,6,6,6,2,3,6,3,2,3,2,3,4,4,0,0,0,0,0,0,0,0,0,0,0,0,0,0,0,0,0,0,0,0,0,0,0,0,0,0,0,0,0,0,0,0],"split_type":[0,0,0,0,0,0,0,0,0,0,0,0,0,0,0,0,0,0,0,0,0,0,0,0,0,0,0,0,0,0,0,0,0,0,0,0,0,0,0,0,0,0,0,0,0,0,0,0,0,0,0,0,0,0,0,0,0,0,0,0,0,0,0],"sum_hessian":[1.731E3,1.167E3,5.64E2,8.95E2,2.72E2,2.68E2,2.96E2,5.54E2,3.41E2,8.1E1,1.91E2,7.3E1,1.95E2,1.93E2,1.03E2,2.42E2,3.12E2,6.8E1,2.73E2,7.2E1,9E0,8.5E1,1.06E2,2.1E1,5.2E1,1.54E2,4.1E1,1.19E2,7.4E1,4.9E1,5.4E1,1.22E2,1.2E2,1.26E2,1.86E2,3.2E1,3.6E1,6.1E1,2.12E2,2.6E1,4.6E1,6E0,3E0,7.8E1,7E0,7.3E1,3.3E1,2E1,1E0,2.7E1,2.5E1,1.26E2,2.8E1,1.6E1,2.5E1,8E1,3.9E1,3.8E1,3.6E1,3.3E1,1.6E1,4.5E1,9E0],"tree_param":{"num_deleted":"0","num_feature":"7","num_nodes":"63","size_leaf_vector":"1"}},{"base_weights":[8.648463E0,-3.6228476E2,7.530758E2,-6.2249634E2,1.6451964E2,2.1219986E2,1.1943208E3,-7.2206537E2,-3.853188E2,-2.0496832E2,4.193438E2,-3.3076373E2,3.335616E2,9.698714E2,1.6647286E3,-8.498914E2,-6.2501196E2,-6.3385345E2,-2.641378E2,-1.0144848E2,-4.177962E1,5.2065265E2,-2.6327264E2,-4.519416E2,-1.3851767E2,5.6125745E2,3.37255E1,-5.2527637E2,1.00761206E3,1.3093784E3,1.0075565E2,-4.577893E1,-3.8566875E1,-3.3670105E1,-2.070329E1,-7.655185E0,-3.293908E1,-5.8103976E0,-2.2316664E1,-1.1808888E1,1.912338E1,1.2138751E1,4.0374317E1,6.03161E1,-1.7777283E1,-3.1765747E0,-2.471573E1,-1.7043074E1,1.2391663E0,1.8406744E1,4.187582E1,-6.0803175E-1,1.7223515E1,4.6120586E0,-4.2854774E1,5.3342903E1,1.0758493E1,8.077747E1,5.730035E1],"categories":[],"categories_nodes":[],"categories_segments":[],"categories_sizes":[],"default_left":[0,0,0,0,0,0,0,0,0,0,0,0,0,0,0,0,0,0,0,0,0,0,0,0,0,0,0,0,0,0,0,0,0,0,0,0,0,0,0,0,0,0,0,0,0,0,0,0,0,0,0,0,0,0,0,0,0,0,0],"id":11,"left_children":[1,3,5,7,9,11,13,15,17,19,21,23,25,27,29,31,33,35,37,39,-1,41,43,45,47,49,51,53,55,57,-1,-1,-1,-1,-1,-1,-1,-1,-1,-1,-1,-1,-1,-1,-1,-1,-1,-1,-1,-1,-1,-1,-1,-1,-1,-1,-1,-1,-1],"loss_changes":[4.7825875E8,1.5856762E8,1.3721405E8,1.8000192E7,3.614711E7,1.7243028E7,3.1855168E7,6.217664E6,6.78976E6,1.0164521E7,1.583528E7,1.0556045E6,1.452289E7,1.2774096E7,9.936896E6,4.9088E5,2.916184E6,7.97952E5,4.17962E6,8.957212E6,0E0,1.558548E7,4.4970195E6,4.45881E5,6.693065E5,6.147252E6,1.3302645E6,1.3084841E6,9.723648E6,7.99608E5,0E0,0E0,0E0,0E0,0E0,0E0,0E0,0E0,0E0,0E0,0E0,0E0,0E0,0E0,0E0,0E0,0E0,0E0,0E0,0E0,0E0,0E0,0E0,0E0,0E0,0E0,0E0,0E0,0E0],"parents":[2147483647,0,0,1,1,2,2,3,3,4,4,5,5,6,6,7,7,8,8,9,9,10,10,11,11,12,12,13,13,14,14,15,15,16,16,17,17,18,18,19,19,21,21,22,22,23,23,24,24,25,25,26,26,27,27,28,28,29,29],"right_children":[2,4,6,8,10,12,14,16,18,20,22,24,26,28,30,32,34,36,38,40,-1,42,44,46,48,50,52,54,56,58,-1,-1,-1,-1,-1,-1,-1,-1,-1,-1,-1,-1,-1,-1,-1,-1,-1,-1,-1,-1,-1,-1,-1,-1,-1,-1,-1,-1,-1],"split_conditions":[2.1666666E1,3.6623809E3,3.8517156E3,2.5827048E3,8.916667E0,1.7974047E3,4.2166668E1,5.4166665E0,5.4166665E0,9.5E1,8.8583336E1,5E-1,6.9583336E1,7.7166667E0,5.5495425E3,2E0,1.6166666E1,2.7139392E3,8.1083336E1,5.874094E3,-4.177962E1,5E-1,9.166667E0,2.05E0,1.2192621E3,3.136971E3,1.5591666E1,4.3323926E3,7.725E1,5.3666668E1,1.0075565E2,-4.577893E1,-3.8566875E1,-3.3670105E1,-2.070329E1,-7.655185E0,-3.293908E1,-5.8103976E0,-2.2316664E1,-1.1808888E1,1.912338E1,1.2138751E1,4.0374317E1,6.03161E1,-1.7777283E1,-3.1765747E0,-2.471573E1,-1.7043074E1,1.2391663E0,1.8406744E1,4.187582E1,-6.0803175E-1,1.7223515E1,4.6120586E0,-4.2854774E1,5.3342903E1,1.0758493E1,8.077747E1,5.730035E1],"split_indices":[6,5,5,5,6,5,6,6,6,1,1,3,1,0,5,6,6,5,1,5,0,3,6,0,5,5,0,5,1,1,0,0,0,0,0,0,0,0,0,0,0,0,0,0,0,0,0,0,0,0,0,0,0,0,0,0,0,0,0],"split_type":[0,0,0,0,0,0,0,0,0,0,0,0,0,0,0,0,0,0,0,0,0,0,0,0,0,0,0,0,0,0,0,0,0,0,0,0,0,0,0,0,0,0,0,0,0,0,0,0,0,0,0,0,0,0,0,0,0,0,0],"sum_hessian":[1.73E3,1.155E3,5.75E2,7.73E2,3.82E2,2.59E2,3.16E2,5.43E2,2.3E2,1.56E2,2.26E2,4.7E1,2.12E2,2.16E2,1E2,2.31E2,3.12E2,7.4E1,1.56E2,1.35E2,2.1E1,1.97E2,2.9E1,2.8E1,1.9E1,1.2E2,9.2E1,5E0,2.11E2,5.2E1,4.8E1,1.2E2,1.11E2,2.52E2,6E1,4E0,7E1,8.7E1,6.9E1,1.06E2,2.9E1,1.01E2,9.6E1,1E0,2.8E1,3E0,2.5E1,8E0,1.1E1,7.2E1,4.8E1,8.1E1,1.1E1,2E0,3E0,1.96E2,1.5E1,1.5E1,3.7E1],"tree_param":{"num_deleted":"0","num_feature":"7","num_nodes":"59","size_leaf_vector":"1"}},{"base_weights":[4.9529057E0,-3.6404312E2,7.4549884E2,-5.244815E2,-1.4916461E1,1.0434741E3,3.636426E2,-6.405133E2,-3.897336E2,1.499334E2,-3.9843143E2,8.325516E2,1.4614806E3,5.397931E2,-5.7733846E0,-7.302303E2,-5.1720715E2,-5.258023E2,-2.0264848E2,-2.5337694E2,2.8013245E2,-3.9781734E1,-3.2235815E2,6.247859E2,1.036456E3,4.5692318E1,1.6172979E3,6.6618744E2,1.0603696E2,-5.158497E1,9.119016E2,-4.3547634E1,-3.3528637E1,-2.1684368E1,-4.163966E1,-2.8085287E1,1.2960416E1,-3.578143E0,-2.494156E1,1.8474648E1,-1.5672159E1,4.1827053E1,8.459014E0,-8.830185E0,-2.4556133E1,1.2208732E1,3.8890182E1,3.4127853E1,5.850352E1,8.426502E1,1.1649856E1,2.7215101E1,7.3292946E1,-1.1155655E1,1.5622576E1,-3.871276E1,3.4582248E-1,5.151651E1,1.3915393E1],"categories":[],"categories_nodes":[],"categories_segments":[],"categories_sizes":[],"default_left":[0,0,0,0,0,0,0,0,0,0,0,0,0,0,0,0,0,0,0,0,0,0,0,0,0,0,0,0,0,0,0,0,0,0,0,0,0,0,0,0,0,0,0,0,0,0,0,0,0,0,0,0,0,0,0,0,0,0,0],"id":12,"left_children":[1,3,5,7,9,11,13,15,17,19,21,23,25,27,29,31,33,35,37,39,41,-1,43,45,47,-1,49,51,53,55,57,-1,-1,-1,-1,-1,-1,-1,-1,-1,-1,-1,-1,-1,-1,-1,-1,-1,-1,-1,-1,-1,-1,-1,-1,-1,-1,-1,-1],"loss_changes":[4.732819E8,6.474357E7,6.515997E7,1.2133328E7,2.313591E7,2.7261184E7,1.6531608E7,4.31288E6,9.286864E6,1.3513698E7,3.06734E6,8.545488E6,7.652448E6,9.359148E6,3.5363725E6,1.455992E6,4.43592E6,6.148912E6,6.059874E6,2.4728625E6,1.1835013E7,0E0,2.225494E6,6.216512E6,4.30824E6,0E0,7.326496E6,1.216542E7,2.7873665E6,3.3875332E6,1.33935E4,0E0,0E0,0E0,0E0,0E0,0E0,0E0,0E0,0E0,0E0,0E0,0E0,0E0,0E0,0E0,0E0,0E0,0E0,0E0,0E0,0E0,0E0,0E0,0E0,0E0,0E0,0E0,0E0],"parents":[2147483647,0,0,1,1,2,2,3,3,4,4,5,5,6,6,7,7,8,8,9,9,10,10,11,11,12,12,13,13,14,14,15,15,16,16,17,17,18,18,19,19,20,20,22,22,23,23,24,24,26,26,27,27,28,28,29,29,30,30],"right_children":[2,4,6,8,10,12,14,16,18,20,22,24,26,28,30,32,34,36,38,40,42,-1,44,46,48,-1,50,52,54,56,58,-1,-1,-1,-1,-1,-1,-1,-1,-1,-1,-1,-1,-1,-1,-1,-1,-1,-1,-1,-1,-1,-1,-1,-1,-1,-1,-1,-1],"split_conditions":[2.1666666E1,1.2583333E1,6.6083336E1,5.4166665E0,8.1833336E1,4.125E1,7.7083336E1,5E-1,1.2246469E-16,-7.0710677E-1,-8.660254E-1,5E-1,-8.660254E-1,5E-1,5E0,8.333333E-1,9.5E1,9E0,8.660254E-1,1.35E1,6.525E1,-3.9781734E1,8.8833336E1,-7.0710677E-1,-8.660254E-1,4.5692318E1,7.0710677E-1,1E0,8.660254E-1,-8.660254E-1,-5E-1,-4.3547634E1,-3.3528637E1,-2.1684368E1,-4.163966E1,-2.8085287E1,1.2960416E1,-3.578143E0,-2.494156E1,1.8474648E1,-1.5672159E1,4.1827053E1,8.459014E0,-8.830185E0,-2.4556133E1,1.2208732E1,3.8890182E1,3.4127853E1,5.850352E1,8.426502E1,1.1649856E1,2.7215101E1,7.3292946E1,-1.1155655E1,1.5622576E1,-3.871276E1,3.4582248E-1,5.151651E1,1.3915393E1],"split_indices":[6,6,1,6,1,6,1,3,3,4,3,3,4,4,2,6,1,2,4,6,1,0,1,4,4,0,4,3,3,4,4,0,0,0,0,0,0,0,0,0,0,0,0,0,0,0,0,0,0,0,0,0,0,0,0,0,0,0,0],"split_type":[0,0,0,0,0,0,0,0,0,0,0,0,0,0,0,0,0,0,0,0,0,0,0,0,0,0,0,0,0,0,0,0,0,0,0,0,0,0,0,0,0,0,0,0,0,0,0,0,0,0,0,0,0,0,0,0,0,0,0],"sum_hessian":[1.73E3,1.155E3,5.75E2,7.91E2,3.64E2,3.22E2,2.53E2,4.23E2,3.68E2,2.55E2,1.09E2,2.16E2,1.06E2,1.71E2,8.2E1,2.42E2,1.81E2,2.12E2,1.56E2,6.2E1,1.93E2,1.6E1,9.3E1,1.09E2,1.07E2,2.5E1,8.1E1,1.32E2,3.9E1,7.9E1,3E0,6.8E1,1.74E2,1.45E2,3.6E1,2.03E2,9E0,1.09E2,4.7E1,5E0,5.7E1,3.1E1,1.62E2,5.1E1,4.2E1,3.2E1,7.7E1,3.1E1,7.6E1,7.7E1,4E0,1.16E2,1.6E1,1.5E1,2.4E1,5E0,7.4E1,2E0,1E0],"tree_param":{"num_deleted":"0","num_feature":"7","num_nodes":"59","size_leaf_vector":"1"}},{"base_weights":[4.387767E0,-3.3132922E2,6.729448E2,-5.510753E2,-9.2940895E1,9.6828375E2,2.8426193E2,-6.070715E2,-2.1005144E2,-2.9571744E2,2.8220428E2,7.750115E2,1.341006E3,4.2435223E2,-5.574497E1,-5.518817E2,-7.433565E2,-4.007082E2,4.6340374E1,4.493205E2,-3.4264197E2,5.5626454E0,6.8672314E2,-3.1099036E2,8.172604E2,1.1041183E3,1.5209592E3,-5.345977E2,4.8390573E2,-1.0710459E2,4.413323E1,-2.9998001E1,-1.6533327E1,-3.8195267E1,-1.4541623E1,-3.1054976E1,-1.2866437E1,1.7392448E1,-1.0715113E1,-3.8858875E1,3.4194107E1,-2.3746954E1,-7.2531257E0,-3.4250226E0,3.327475E1,3.9305744E1,-1.5303311E1,-2.0676094E1,1.5956665E0,2.9600195E1,4.7687073E1,3.714498E1,6.533321E1,5.841772E1,8.1018326E1,-3.2978718E1,9.265747E-1,1.3018741E1,3.817866E1,-8.923248E0,1.5242263E1],"categories":[],"categories_nodes":[],"categories_segments":[],"categories_sizes":[],"default_left":[0,0,0,0,0,0,0,0,0,0,0,0,0,0,0,0,0,0,0,0,0,0,0,0,0,0,0,0,0,0,0,0,0,0,0,0,0,0,0,0,0,0,0,0,0,0,0,0,0,0,0,0,0,0,0,0,0,0,0,0,0],"id":13,"left_children":[1,3,5,7,9,11,13,15,17,19,21,23,25,27,29,31,33,35,37,39,41,43,45,47,49,51,53,55,57,59,-1,-1,-1,-1,-1,-1,-1,-1,-1,-1,-1,-1,-1,-1,-1,-1,-1,-1,-1,-1,-1,-1,-1,-1,-1,-1,-1,-1,-1,-1,-1],"loss_changes":[3.9277894E8,6.0977184E7,6.6878784E7,1.1444672E7,4.2683016E7,2.2876928E7,1.2122098E7,3.50096E6,4.271375E6,1.28796E7,2.2041812E7,1.0394144E7,3.095088E6,1.0538286E7,3.7092642E6,3.779344E6,1.14476E6,1.4201525E6,3.0608125E6,6.860664E6,8.896852E6,5.813029E6,8.134604E6,3.296228E5,5.983712E6,2.83378E6,2.44992E5,7.726335E5,1.042862E7,2.1709808E6,0E0,0E0,0E0,0E0,0E0,0E0,0E0,0E0,0E0,0E0,0E0,0E0,0E0,0E0,0E0,0E0,0E0,0E0,0E0,0E0,0E0,0E0,0E0,0E0,0E0,0E0,0E0,0E0,0E0,0E0,0E0],"parents":[2147483647,0,0,1,1,2,2,3,3,4,4,5,5,6,6,7,7,8,8,9,9,10,10,11,11,12,12,13,13,14,14,15,15,16,16,17,17,18,18,19,19,20,20,21,21,22,22,23,23,24,24,25,25,26,26,27,27,28,28,29,29],"right_children":[2,4,6,8,10,12,14,16,18,20,22,24,26,28,30,32,34,36,38,40,42,44,46,48,50,52,54,56,58,60,-1,-1,-1,-1,-1,-1,-1,-1,-1,-1,-1,-1,-1,-1,-1,-1,-1,-1,-1,-1,-1,-1,-1,-1,-1,-1,-1,-1,-1,-1,-1],"split_conditions":[2.1666666E1,9E0,6.6083336E1,1.6825E1,1.4825E1,4.2166668E1,7.725E1,9.1916664E1,5E-1,6.525E1,5E-1,7.7166667E0,5E-1,6.633333E0,5E0,8.660254E-1,9.8416664E1,2.6666667E0,1.7975E1,1.2246469E-16,1.5666667E1,1.9525E1,1.9941668E1,3.575E1,1.2246469E-16,2.1758333E1,1.5258333E1,7.5583336E1,5E-1,1.5291667E1,4.413323E1,-2.9998001E1,-1.6533327E1,-3.8195267E1,-1.4541623E1,-3.1054976E1,-1.2866437E1,1.7392448E1,-1.0715113E1,-3.8858875E1,3.4194107E1,-2.3746954E1,-7.2531257E0,-3.4250226E0,3.327475E1,3.9305744E1,-1.5303311E1,-2.0676094E1,1.5956665E0,2.9600195E1,4.7687073E1,3.714498E1,6.533321E1,5.841772E1,8.1018326E1,-3.2978718E1,9.265747E-1,1.3018741E1,3.817866E1,-8.923248E0,1.5242263E1],"split_indices":[6,6,1,0,0,6,1,1,3,1,3,0,3,0,2,3,1,6,0,3,6,0,0,6,3,0,0,1,3,0,0,0,0,0,0,0,0,0,0,0,0,0,0,0,0,0,0,0,0,0,0,0,0,0,0,0,0,0,0,0,0],"split_type":[0,0,0,0,0,0,0,0,0,0,0,0,0,0,0,0,0,0,0,0,0,0,0,0,0,0,0,0,0,0,0,0,0,0,0,0,0,0,0,0,0,0,0,0,0,0,0,0,0,0,0,0,0,0,0,0,0,0,0,0,0],"sum_hessian":[1.748E3,1.164E3,5.84E2,6.05E2,5.59E2,3.31E2,2.53E2,5.19E2,8.6E1,3.63E2,1.96E2,2.2E2,1.11E2,1.79E2,7.4E1,3.73E2,1.46E2,4.9E1,3.7E1,2.1E1,3.42E2,1.17E2,7.9E1,8E0,2.12E2,5.1E1,6E1,1E1,1.69E2,7.1E1,3E0,3.05E2,6.8E1,1.39E2,7E0,1.8E1,3.1E1,1.7E1,2E1,3E0,1.8E1,2.04E2,1.38E2,1.06E2,1.1E1,7.2E1,7E0,6E0,2E0,8.2E1,1.3E2,2E1,3.1E1,1.6E1,4.4E1,8E0,2E0,9.5E1,7.4E1,6.1E1,1E1],"tree_param":{"num_deleted":"0","num_feature":"7","num_nodes":"61","size_leaf_vector":"1"}},{"base_weights":[4.6392508E0,-3.2029858E2,6.727489E2,-5.2949695E2,-8.7572464E1,9.857677E2,3.5405466E2,-5.819223E2,-1.7031805E2,-2.5626523E2,3.2789282E2,8.037855E2,1.3627542E3,4.8473096E2,-9.963794E0,-5.204286E2,-6.9549945E2,-5.414644E2,-2.9037737E1,3.6797302E2,-3.2549008E2,-1.648888E2,5.0320135E2,-3.1201697E2,8.406636E2,5.059624E1,1.5604225E3,5.8018585E2,1.6958072E2,-1.1529129E2,5.09338E2,-3.689153E1,-2.3578688E1,-3.576977E1,-1.5696895E1,-2.8859121E1,-6.142814E0,-1.3874143E1,6.3092957E0,-1.7771788E1,3.4534973E1,-7.9831553E0,-2.197381E1,3.4067E1,-1.3457587E1,9.932915E0,3.723744E1,-2.7542444E1,2.4095917E-1,2.1534674E1,4.7882847E1,8.381559E1,2.4658432E1,1.3137561E1,3.973061E1,-1.1384199E-1,2.6746017E1,7.8135676E0,-1.797508E1,3.2529247E1,1.4443085E0],"categories":[],"categories_nodes":[],"categories_segments":[],"categories_sizes":[],"default_left":[0,0,0,0,0,0,0,0,0,0,0,0,0,0,0,0,0,0,0,0,0,0,0,0,0,0,0,0,0,0,0,0,0,0,0,0,0,0,0,0,0,0,0,0,0,0,0,0,0,0,0,0,0,0,0,0,0,0,0,0,0],"id":14,"left_children":[1,3,5,7,9,11,13,15,17,19,21,23,25,27,29,31,33,35,37,39,41,43,45,47,49,-1,51,53,55,57,59,-1,-1,-1,-1,-1,-1,-1,-1,-1,-1,-1,-1,-1,-1,-1,-1,-1,-1,-1,-1,-1,-1,-1,-1,-1,-1,-1,-1,-1,-1],"loss_changes":[3.7817626E8,5.701355E7,5.6512656E7,1.151904E7,3.905184E7,1.859424E7,1.3514304E7,3.395584E6,4.1791308E6,1.7232034E7,1.3991572E7,8.327432E6,4.80096E6,6.188888E6,4.215676E6,3.40132E6,1.187432E6,2.580305E5,2.3103232E6,9.584025E6,6.677836E6,3.9772875E6,8.605876E6,5.3234875E5,8.700672E6,0E0,6.223248E6,1.0681824E7,3.140537E6,4.3005565E6,8.6341725E5,0E0,0E0,0E0,0E0,0E0,0E0,0E0,0E0,0E0,0E0,0E0,0E0,0E0,0E0,0E0,0E0,0E0,0E0,0E0,0E0,0E0,0E0,0E0,0E0,0E0,0E0,0E0,0E0,0E0,0E0],"parents":[2147483647,0,0,1,1,2,2,3,3,4,4,5,5,6,6,7,7,8,8,9,9,10,10,11,11,12,12,13,13,14,14,15,15,16,16,17,17,18,18,19,19,20,20,21,21,22,22,23,23,24,24,26,26,27,27,28,28,29,29,30,30],"right_children":[2,4,6,8,10,12,14,16,18,20,22,24,26,28,30,32,34,36,38,40,42,44,46,48,50,-1,52,54,56,58,60,-1,-1,-1,-1,-1,-1,-1,-1,-1,-1,-1,-1,-1,-1,-1,-1,-1,-1,-1,-1,-1,-1,-1,-1,-1,-1,-1,-1,-1,-1],"split_conditions":[2.2E1,9E0,6.4416664E1,1.6933332E1,1.5658334E1,4.35E1,7.7083336E1,9.0333336E1,7.5416664E1,6.7416664E1,-8.660254E-1,7.7166667E0,-7.0710677E-1,5E-1,1.5291667E1,8.216666E0,1.575E1,8.583333E0,-5E-1,1.0841666E1,8.1083336E1,9.166667E0,1.4916667E1,1.2246469E-16,-8.660254E-1,5.059624E1,5E-1,-5E-1,3.8E1,1.1633333E1,1.74E1,-3.689153E1,-2.3578688E1,-3.576977E1,-1.5696895E1,-2.8859121E1,-6.142814E0,-1.3874143E1,6.3092957E0,-1.7771788E1,3.4534973E1,-7.9831553E0,-2.197381E1,3.4067E1,-1.3457587E1,9.932915E0,3.723744E1,-2.7542444E1,2.4095917E-1,2.1534674E1,4.7882847E1,8.381559E1,2.4658432E1,1.3137561E1,3.973061E1,-1.1384199E-1,2.6746017E1,7.8135676E0,-1.797508E1,3.2529247E1,1.4443085E0],"split_indices":[6,6,1,0,0,6,1,1,1,1,4,0,4,4,0,0,0,6,4,0,1,6,6,4,4,0,4,4,6,0,0,0,0,0,0,0,0,0,0,0,0,0,0,0,0,0,0,0,0,0,0,0,0,0,0,0,0,0,0,0,0],"split_type":[0,0,0,0,0,0,0,0,0,0,0,0,0,0,0,0,0,0,0,0,0,0,0,0,0,0,0,0,0,0,0,0,0,0,0,0,0,0,0,0,0,0,0,0,0,0,0,0,0,0,0,0,0,0,0,0,0,0,0,0,0],"sum_hessian":[1.74E3,1.171E3,5.69E2,6.16E2,5.55E2,2.86E2,2.83E2,5.37E2,7.9E1,3.95E2,1.6E2,1.95E2,9.1E1,2.08E2,7.5E1,3.52E2,1.85E2,2.1E1,5.8E1,3.9E1,3.56E2,4.2E1,1.18E2,6E0,1.89E2,3.5E1,5.6E1,1.59E2,4.9E1,6.3E1,1.2E1,6.2E1,2.9E2,1.75E2,1E1,1.9E1,2E0,2.2E1,3.6E1,1.2E1,2.7E1,1.46E2,2.1E2,4E0,3.8E1,5.3E1,6.5E1,3E0,3E0,4.3E1,1.46E2,5E1,6E0,6.5E1,9.4E1,3.4E1,1.5E1,3E1,3.3E1,9E0,3E0],"tree_param":{"num_deleted":"0","num_feature":"7","num_nodes":"61","size_leaf_vector":"1"}},{"base_weights":[1.11860285E1,-3.8319644E2,5.552576E2,-1.146856E2,-5.557801E2,9.8050665E2,1.618682E2,-4.943902E2,1.2954732E2,-6.906933E2,-3.8324954E2,7.7985547E2,1.3997671E3,2.608758E2,-4.7337015E2,-6.669905E2,-3.8827698E2,3.4691876E2,-4.9858704E1,-7.833458E2,-6.1007355E2,-4.0874286E2,2.0529228E2,1.214929E3,5.910017E2,1.1740482E3,8.353117E1,6.6291675E2,1.5093007E2,-1.3025174E2,-5.844032E2,-2.7166681E1,-3.63733E1,-8.47836E0,-2.2993698E1,5.6183295E0,3.031869E1,-9.202138E0,5.4468184E0,-3.9838707E1,-2.663411E1,-3.1208038E1,-1.2948885E1,-1.4007706E1,-2.6025726E1,-3.39425E1,1.7369123E1,6.410549E1,1.3112788E1,4.6826786E1,2.1103804E1,6.845443E1,3.500987E1,5.6063305E1,2.4892868E1,-1.9360876E0,1.987422E1,-2.1001719E1,1.0976789E1,-3.066294E1,-8.930091E0],"categories":[],"categories_nodes":[],"categories_segments":[],"categories_sizes":[],"default_left":[0,0,0,0,0,0,0,0,0,0,0,0,0,0,0,0,0,0,0,0,0,0,0,0,0,0,0,0,0,0,0,0,0,0,0,0,0,0,0,0,0,0,0,0,0,0,0,0,0,0,0,0,0,0,0,0,0,0,0,0,0],"id":15,"left_children":[1,3,5,7,9,11,13,15,17,19,21,23,25,27,29,31,33,35,37,39,41,43,45,47,49,51,-1,53,55,57,59,-1,-1,-1,-1,-1,-1,-1,-1,-1,-1,-1,-1,-1,-1,-1,-1,-1,-1,-1,-1,-1,-1,-1,-1,-1,-1,-1,-1,-1,-1],"loss_changes":[3.7528515E8,4.6925616E7,1.2279832E8,3.697312E7,1.4096992E7,2.8604544E7,2.4211672E7,2.598188E6,9.49375E6,2.09912E6,4.179972E6,1.9083792E7,4.947136E6,1.4575238E7,1.904948E6,3.848E4,1.472259E6,6.625994E6,2.8752898E6,1.04032E5,7.73144E5,3.619796E6,1.743356E6,4.271856E6,9.52754E6,5.048672E6,0E0,4.813262E6,1.2266374E7,1.5112854E6,3.47147E5,0E0,0E0,0E0,0E0,0E0,0E0,0E0,0E0,0E0,0E0,0E0,0E0,0E0,0E0,0E0,0E0,0E0,0E0,0E0,0E0,0E0,0E0,0E0,0E0,0E0,0E0,0E0,0E0,0E0,0E0],"parents":[2147483647,0,0,1,1,2,2,3,3,4,4,5,5,6,6,7,7,8,8,9,9,10,10,11,11,12,12,13,13,14,14,15,15,16,16,17,17,18,18,19,19,20,20,21,21,22,22,23,23,24,24,25,25,27,27,28,28,29,29,30,30],"right_children":[2,4,6,8,10,12,14,16,18,20,22,24,26,28,30,32,34,36,38,40,42,44,46,48,50,52,-1,54,56,58,60,-1,-1,-1,-1,-1,-1,-1,-1,-1,-1,-1,-1,-1,-1,-1,-1,-1,-1,-1,-1,-1,-1,-1,-1,-1,-1,-1,-1,-1,-1],"split_conditions":[3.5926355E3,4E0,6.95E1,1.8085575E3,2.165549E3,5.874094E3,9.1916664E1,1.1352013E3,-2.5881904E-1,1.3942258E3,9E0,5.6416668E1,8.660254E-1,4E0,9.3916664E1,-7.0710677E-1,7.3416664E1,5E-1,2.690419E3,9.8166664E1,9.7833336E1,8.3666664E1,5.725E1,2.5881904E-1,3E0,4E0,8.353117E1,-2.5881904E-1,4.9984453E3,4.922501E3,6.253126E3,-2.7166681E1,-3.63733E1,-8.47836E0,-2.2993698E1,5.6183295E0,3.031869E1,-9.202138E0,5.4468184E0,-3.9838707E1,-2.663411E1,-3.1208038E1,-1.2948885E1,-1.4007706E1,-2.6025726E1,-3.39425E1,1.7369123E1,6.410549E1,1.3112788E1,4.6826786E1,2.1103804E1,6.845443E1,3.500987E1,5.6063305E1,2.4892868E1,-1.9360876E0,1.987422E1,-2.1001719E1,1.0976789E1,-3.066294E1,-8.930091E0],"split_indices":[5,2,1,5,5,5,1,5,4,5,2,1,3,2,1,4,1,3,5,1,1,1,1,4,2,2,0,4,5,5,5,0,0,0,0,0,0,0,0,0,0,0,0,0,0,0,0,0,0,0,0,0,0,0,0,0,0,0,0,0,0],"split_type":[0,0,0,0,0,0,0,0,0,0,0,0,0,0,0,0,0,0,0,0,0,0,0,0,0,0,0,0,0,0,0,0,0,0,0,0,0,0,0,0,0,0,0,0,0,0,0,0,0,0,0,0,0,0,0,0,0,0,0,0,0],"sum_hessian":[1.747E3,1.013E3,7.34E2,3.97E2,6.16E2,3.52E2,3.82E2,1.55E2,2.42E2,3.44E2,2.72E2,2.4E2,1.12E2,3.31E2,5.1E1,5.7E1,9.8E1,1.09E2,1.33E2,1.56E2,1.88E2,2.61E2,1.1E1,7.1E1,1.69E2,6.4E1,4.8E1,7E1,2.61E2,1.3E1,3.8E1,2.2E1,3.5E1,2.5E1,7.3E1,5.8E1,5.1E1,7.2E1,6.1E1,1.46E2,1E1,1.8E2,8E0,1.23E2,1.38E2,1E0,1E1,6.6E1,5E0,5.4E1,1.15E2,4.4E1,2E1,1.7E1,5.3E1,1.48E2,1.13E2,7E0,6E0,3.5E1,3E0],"tree_param":{"num_deleted":"0","num_feature":"7","num_nodes":"61","size_leaf_vector":"1"}},{"base_weights":[2.0094967E1,-3.7161014E2,5.3408203E2,-5.58132E2,2.2813839E1,9.397904E2,1.7232558E2,-6.588813E2,-4.6698706E2,-4.0576788E2,1.2565112E2,6.1901306E2,1.1610182E3,-3.536695E1,4.405995E2,-7.3591364E2,-6.075716E2,-5.2800165E2,-2.4301295E2,-4.8112146E2,-2.6035233E2,-1.4008054E2,2.5777783E2,3.200365E2,7.148215E2,1.4115355E3,9.0174615E2,-4.3828604E2,4.7139996E1,-2.8496306E0,7.100111E2,-1.796519E1,-3.7124966E1,-3.534056E1,-2.6552927E1,-3.5861736E1,-2.4589018E1,6.820296E0,-1.6850397E1,-2.5646452E1,-3.728672E0,-2.2682816E1,-7.3714156E0,1.3137041E1,-1.0823068E1,4.2808495E0,2.124697E1,3.080593E1,1.1520671E1,-2.1184195E1,3.700308E1,6.096208E1,7.67138E1,5.452754E-1,5.0349857E1,-2.736479E1,-6.0481257E0,-5.4055915E0,1.1063131E1,5.8708525E0,-2.7691721E1,2.204538E0,4.0489155E1],"categories":[],"categories_nodes":[],"categories_segments":[],"categories_sizes":[],"default_left":[0,0,0,0,0,0,0,0,0,0,0,0,0,0,0,0,0,0,0,0,0,0,0,0,0,0,0,0,0,0,0,0,0,0,0,0,0,0,0,0,0,0,0,0,0,0,0,0,0,0,0,0,0,0,0,0,0,0,0,0,0,0,0],"id":16,"left_children":[1,3,5,7,9,11,13,15,17,19,21,23,25,27,29,31,33,35,37,39,41,43,45,47,49,51,53,55,57,59,61,-1,-1,-1,-1,-1,-1,-1,-1,-1,-1,-1,-1,-1,-1,-1,-1,-1,-1,-1,-1,-1,-1,-1,-1,-1,-1,-1,-1,-1,-1,-1,-1],"loss_changes":[3.4588438E8,7.174222E7,1.0888637E8,5.771344E6,1.3890278E7,2.411904E7,2.1968666E7,7.86048E5,4.668336E6,5.43152E5,8.954113E6,3.924676E6,1.2107328E7,7.433989E6,2.0550916E7,3.084E4,1.09012E6,1.532208E6,2.792057E6,4.66069E5,4.351775E5,2.6721375E6,4.855993E6,8.3986225E5,3.44578E6,5.60368E5,9.74024E6,1.2482695E6,5.0520315E6,4.4385265E6,7.073396E6,0E0,0E0,0E0,0E0,0E0,0E0,0E0,0E0,0E0,0E0,0E0,0E0,0E0,0E0,0E0,0E0,0E0,0E0,0E0,0E0,0E0,0E0,0E0,0E0,0E0,0E0,0E0,0E0,0E0,0E0,0E0,0E0],"parents":[2147483647,0,0,1,1,2,2,3,3,4,4,5,5,6,6,7,7,8,8,9,9,10,10,11,11,12,12,13,13,14,14,15,15,16,16,17,17,18,18,19,19,20,20,21,21,22,22,23,23,24,24,25,25,26,26,27,27,28,28,29,29,30,30],"right_children":[2,4,6,8,10,12,14,16,18,20,22,24,26,28,30,32,34,36,38,40,42,44,46,48,50,52,54,56,58,60,62,-1,-1,-1,-1,-1,-1,-1,-1,-1,-1,-1,-1,-1,-1,-1,-1,-1,-1,-1,-1,-1,-1,-1,-1,-1,-1,-1,-1,-1,-1,-1,-1],"split_conditions":[3.5341602E3,1.625E1,4E0,5.25E0,1.7828867E3,4.7708096E3,1.275E1,1.25E0,2.8173274E3,1.4883333E1,2.3E1,2.2166666E1,3E0,4.1666666E-1,4.677844E3,4E0,1.3942258E3,1.035317E3,4E0,1E0,1.1352013E3,1.7416666E1,2.7689019E3,1.3416667E1,7.4333334E0,5.5495425E3,-5E-1,8.660254E-1,5E-1,2.4583334E1,1.0841666E1,-1.796519E1,-3.7124966E1,-3.534056E1,-2.6552927E1,-3.5861736E1,-2.4589018E1,6.820296E0,-1.6850397E1,-2.5646452E1,-3.728672E0,-2.2682816E1,-7.3714156E0,1.3137041E1,-1.0823068E1,4.2808495E0,2.124697E1,3.080593E1,1.1520671E1,-2.1184195E1,3.700308E1,6.096208E1,7.67138E1,5.452754E-1,5.0349857E1,-2.736479E1,-6.0481257E0,-5.4055915E0,1.1063131E1,5.8708525E0,-2.7691721E1,2.204538E0,4.0489155E1],"split_indices":[5,6,2,6,5,5,6,6,5,0,6,6,2,6,5,2,5,5,2,3,5,6,5,6,0,5,3,3,3,6,0,0,0,0,0,0,0,0,0,0,0,0,0,0,0,0,0,0,0,0,0,0,0,0,0,0,0,0,0,0,0,0,0],"split_type":[0,0,0,0,0,0,0,0,0,0,0,0,0,0,0,0,0,0,0,0,0,0,0,0,0,0,0,0,0,0,0,0,0,0,0,0,0,0,0,0,0,0,0,0,0,0,0,0,0,0,0,0,0,0,0,0,0,0,0,0,0,0,0],"sum_hessian":[1.716E3,9.74E2,7.42E2,6.61E2,3.13E2,3.49E2,3.93E2,3.11E2,3.5E2,6E1,2.53E2,1.44E2,2.05E2,2.22E2,1.71E2,1.19E2,1.92E2,2.74E2,7.6E1,3.8E1,2.2E1,8.4E1,1.69E2,3.6E1,1.08E2,1.02E2,1.03E2,3.7E1,1.85E2,6.5E1,1.06E2,3E0,1.16E2,8E1,1.12E2,4.1E1,2.33E2,1.5E1,6.1E1,3.5E1,3E0,7E0,1.5E1,1.3E1,7.1E1,8.4E1,8.5E1,7E0,2.9E1,2E0,1.06E2,4.4E1,5.8E1,1.1E1,9.2E1,2.7E1,1E1,9.8E1,8.7E1,5.4E1,1.1E1,1.4E1,9.2E1],"tree_param":{"num_deleted":"0","num_feature":"7","num_nodes":"63","size_leaf_vector":"1"}},{"base_weights":[-2.3019499E-1,-3.8968182E2,4.1059973E2,-4.7777655E2,-2.0759209E2,2.793607E2,1.0742808E3,-5.320252E2,-3.1033612E2,-3.9431924E2,3.5170513E1,1.0967655E2,5.793955E2,1.1874951E3,5.409153E2,-4.8184253E2,-6.143726E2,-5.376063E2,-2.5517992E2,-5.0644064E2,-1.12808395E2,-5.1344525E2,1.5500853E2,-2.7185123E2,1.9566328E2,2.733147E2,7.496427E2,8.194184E2,1.4279742E3,-1.1346096E1,6.143568E2,-3.0168036E1,-1.9691088E1,-2.7418753E1,-3.6879868E1,-2.7688337E1,-2.5319061E0,-1.7458914E1,-1.6170477E0,-3.512261E1,-2.2277065E1,-2.1133272E1,-1.0072147E0,-3.5307128E0,-2.651821E1,-4.351533E0,1.1995355E1,-5.3819375E0,-2.3654907E1,-2.016229E0,2.008782E1,-7.2064614E0,2.6608427E1,2.8098038E1,5.474314E1,2.8830091E1,4.81797E1,3.757104E1,7.884666E1,3.9983715E1,7.188125E0],"categories":[],"categories_nodes":[],"categories_segments":[],"categories_sizes":[],"default_left":[0,0,0,0,0,0,0,0,0,0,0,0,0,0,0,0,0,0,0,0,0,0,0,0,0,0,0,0,0,0,0,0,0,0,0,0,0,0,0,0,0,0,0,0,0,0,0,0,0,0,0,0,0,0,0,0,0,0,0,0,0],"id":17,"left_children":[1,3,5,7,9,11,13,15,17,19,21,23,25,27,29,31,33,35,37,39,41,43,45,47,49,51,53,55,57,-1,59,-1,-1,-1,-1,-1,-1,-1,-1,-1,-1,-1,-1,-1,-1,-1,-1,-1,-1,-1,-1,-1,-1,-1,-1,-1,-1,-1,-1,-1,-1],"loss_changes":[2.7551722E8,1.4081184E7,7.26904E7,5.239536E6,1.3159675E7,3.5625176E7,7.690736E6,1.555296E6,1.718048E6,5.119266E6,8.429206E6,1.4783231E7,1.2978792E7,8.83208E6,1.605581E6,2.789388E6,9.4552E5,1.923065E5,2.5232345E6,1.083656E6,1.3696918E6,1.348695E5,2.1785015E6,2.6919985E6,1.786542E7,1.0017941E7,9.88096E6,1.089776E6,5.567216E6,0E0,1.978061E6,0E0,0E0,0E0,0E0,0E0,0E0,0E0,0E0,0E0,0E0,0E0,0E0,0E0,0E0,0E0,0E0,0E0,0E0,0E0,0E0,0E0,0E0,0E0,0E0,0E0,0E0,0E0,0E0,0E0,0E0],"parents":[2147483647,0,0,1,1,2,2,3,3,4,4,5,5,6,6,7,7,8,8,9,9,10,10,11,11,12,12,13,13,14,14,15,15,16,16,17,17,18,18,19,19,20,20,21,21,22,22,23,23,24,24,25,25,26,26,27,27,28,28,30,30],"right_children":[2,4,6,8,10,12,14,16,18,20,22,24,26,28,30,32,34,36,38,40,42,44,46,48,50,52,54,56,58,-1,60,-1,-1,-1,-1,-1,-1,-1,-1,-1,-1,-1,-1,-1,-1,-1,-1,-1,-1,-1,-1,-1,-1,-1,-1,-1,-1,-1,-1,-1,-1],"split_conditions":[1.5E1,9E0,4.2166668E1,1.5108334E1,1.2246469E-16,1.5841666E1,2.5881904E-1,7.0710677E-1,1E0,1.435E1,9.675E0,8E0,-7.0710677E-1,-7.0710677E-1,9.883333E0,-2.5881904E-1,7E0,1.7508333E1,5E0,-2.5881904E-1,-8.660254E-1,9.166667E0,5E-1,1.2246469E-16,5E-1,2.3416666E1,5E-1,5E-1,-5E-1,-1.1346096E1,7.0710677E-1,-3.0168036E1,-1.9691088E1,-2.7418753E1,-3.6879868E1,-2.7688337E1,-2.5319061E0,-1.7458914E1,-1.6170477E0,-3.512261E1,-2.2277065E1,-2.1133272E1,-1.0072147E0,-3.5307128E0,-2.651821E1,-4.351533E0,1.1995355E1,-5.3819375E0,-2.3654907E1,-2.016229E0,2.008782E1,-7.2064614E0,2.6608427E1,2.8098038E1,5.474314E1,2.8830091E1,4.81797E1,3.757104E1,7.884666E1,3.9983715E1,7.188125E0],"split_indices":[6,6,6,0,3,0,4,4,6,0,0,0,4,4,0,4,2,0,2,4,4,6,3,3,3,6,3,3,3,0,4,0,0,0,0,0,0,0,0,0,0,0,0,0,0,0,0,0,0,0,0,0,0,0,0,0,0,0,0,0,0],"split_type":[0,0,0,0,0,0,0,0,0,0,0,0,0,0,0,0,0,0,0,0,0,0,0,0,0,0,0,0,0,0,0,0,0,0,0,0,0,0,0,0,0,0,0,0,0,0,0,0,0,0,0,0,0,0,0,0,0,0,0,0,0],"sum_hessian":[1.72E3,8.83E2,8.37E2,5.94E2,2.89E2,7E2,1.37E2,4.47E2,1.47E2,1.63E2,1.26E2,4.48E2,2.52E2,1.12E2,2.5E1,2.82E2,1.65E2,2.7E1,1.2E2,1.16E2,4.7E1,2.2E1,1.04E2,8.2E1,3.66E2,9.1E1,1.61E2,4.6E1,6.6E1,2E0,2.3E1,1.16E2,1.66E2,1.11E2,5.4E1,2.6E1,1E0,8.4E1,3.6E1,2.5E1,9.1E1,1E1,3.7E1,1E0,2.1E1,2.7E1,7.7E1,4.6E1,3.6E1,1.71E2,1.95E2,3.5E1,5.6E1,1.06E2,5.5E1,1.9E1,2.7E1,1.3E1,5.3E1,1.6E1,7E0],"tree_param":{"num_deleted":"0","num_feature":"7","num_nodes":"61","size_leaf_vector":"1"}},{"base_weights":[2.9131346E0,-3.5491486E2,4.6686478E2,-5.084026E2,-3.440171E1,8.7291113E2,1.6450876E2,-6.291051E2,-4.418738E2,-3.98467E2,7.436939E1,7.041971E2,1.2148374E3,2.5499272E2,-4.0979004E2,-6.425709E2,-3.7063995E2,-5.548589E2,-3.725413E2,-4.8309912E2,-2.2364236E2,-6.8696075E1,3.0948404E2,3.3493445E2,8.16499E2,5.571009E2,1.3342129E3,3.4203094E1,4.2690292E2,-5.3987775E2,-4.8987125E1,-1.8527882E1,-3.268269E1,-2.9706415E1,-3.1138084E0,-2.5964964E1,-3.447612E1,-2.2201958E1,-9.612431E0,-5.891084E0,-2.609651E1,-1.5782824E1,-2.242707E0,-1.972359E0,-2.4443016E1,2.3869894E1,-4.1668277E0,-1.6629395E-1,3.7190212E1,4.8005955E1,2.340959E1,3.5376583E1,1.2237232E0,5.3829945E1,7.444414E1,-5.44334E-1,3.3732388E1,1.1208758E1,3.5341816E1,-3.115676E1,-5.3917325E-1,6.975343E0,-1.690969E1],"categories":[],"categories_nodes":[],"categories_segments":[],"categories_sizes":[],"default_left":[0,0,0,0,0,0,0,0,0,0,0,0,0,0,0,0,0,0,0,0,0,0,0,0,0,0,0,0,0,0,0,0,0,0,0,0,0,0,0,0,0,0,0,0,0,0,0,0,0,0,0,0,0,0,0,0,0,0,0,0,0,0,0],"id":18,"left_children":[1,3,5,7,9,11,13,15,17,19,21,23,25,27,29,31,33,35,37,39,41,43,45,47,49,51,53,55,57,59,61,-1,-1,-1,-1,-1,-1,-1,-1,-1,-1,-1,-1,-1,-1,-1,-1,-1,-1,-1,-1,-1,-1,-1,-1,-1,-1,-1,-1,-1,-1,-1,-1],"loss_changes":[2.9052576E8,4.858701E7,9.340757E7,5.086176E6,1.2741164E7,1.7893008E7,2.2865092E7,5.79744E5,3.193048E6,9.86846E5,8.363183E6,8.849696E6,7.5796E6,1.4370716E7,2.789714E6,4.2704E5,9.2781975E5,4.22472E5,3.420864E6,6.33526E5,4.135685E5,1.8855635E6,6.240026E6,7.3326095E6,7.954504E6,1.424905E6,1.94328E6,4.8298885E6,1.1929352E7,1.931526E6,9.739137E5,0E0,0E0,0E0,0E0,0E0,0E0,0E0,0E0,0E0,0E0,0E0,0E0,0E0,0E0,0E0,0E0,0E0,0E0,0E0,0E0,0E0,0E0,0E0,0E0,0E0,0E0,0E0,0E0,0E0,0E0,0E0,0E0],"parents":[2147483647,0,0,1,1,2,2,3,3,4,4,5,5,6,6,7,7,8,8,9,9,10,10,11,11,12,12,13,13,14,14,15,15,16,16,17,17,18,18,19,19,20,20,21,21,22,22,23,23,24,24,25,25,26,26,27,27,28,28,29,29,30,30],"right_children":[2,4,6,8,10,12,14,16,18,20,22,24,26,28,30,32,34,36,38,40,42,44,46,48,50,52,54,56,58,60,62,-1,-1,-1,-1,-1,-1,-1,-1,-1,-1,-1,-1,-1,-1,-1,-1,-1,-1,-1,-1,-1,-1,-1,-1,-1,-1,-1,-1,-1,-1,-1,-1],"split_conditions":[3.5341602E3,1.6166666E1,6.7416664E1,1.481774E3,1.8396116E3,5.8233857E3,9.175E1,1.4083333E1,4.75E0,1.542257E3,3.1E1,2.2E1,1.9833334E1,1.275E1,1.5158334E1,4.5833335E0,8.6416664E1,9.4583336E1,2.8173274E3,6.0666668E1,1.2641666E1,3.3589963E3,2.5881904E-1,4.922501E3,1.2246469E-16,1.7741667E1,3.1E1,6.51125E3,4.922501E3,5.972347E3,9.3916664E1,-1.8527882E1,-3.268269E1,-2.9706415E1,-3.1138084E0,-2.5964964E1,-3.447612E1,-2.2201958E1,-9.612431E0,-5.891084E0,-2.609651E1,-1.5782824E1,-2.242707E0,-1.972359E0,-2.4443016E1,2.3869894E1,-4.1668277E0,-1.6629395E-1,3.7190212E1,4.8005955E1,2.340959E1,3.5376583E1,1.2237232E0,5.3829945E1,7.444414E1,-5.44334E-1,3.3732388E1,1.1208758E1,3.5341816E1,-3.115676E1,-5.3917325E-1,6.975343E0,-1.690969E1],"split_indices":[5,6,1,5,5,5,1,6,6,5,6,6,6,6,0,0,1,1,5,1,0,5,4,5,4,0,6,5,5,5,1,0,0,0,0,0,0,0,0,0,0,0,0,0,0,0,0,0,0,0,0,0,0,0,0,0,0,0,0,0,0,0,0],"split_type":[0,0,0,0,0,0,0,0,0,0,0,0,0,0,0,0,0,0,0,0,0,0,0,0,0,0,0,0,0,0,0,0,0,0,0,0,0,0,0,0,0,0,0,0,0,0,0,0,0,0,0,0,0,0,0,0,0,0,0,0,0,0,0],"sum_hessian":[1.748E3,9.87E2,7.61E2,6.67E2,3.2E2,3.24E2,4.37E2,2.34E2,4.33E2,7.3E1,2.47E2,2.19E2,1.05E2,3.78E2,5.9E1,2.21E2,1.3E1,1.62E2,2.71E2,4.8E1,2.5E1,1.54E2,9.3E1,5.2E1,1.67E2,1.7E1,8.8E1,1.66E2,2.12E2,4.3E1,1.6E1,1E1,2.11E2,7E0,6E0,1.32E2,3E1,1.93E2,7.8E1,5E0,4.3E1,1.6E1,9E0,1.45E2,9E0,6.5E1,2.8E1,2.9E1,2.3E1,1.17E2,5E1,1.3E1,4E0,3.6E1,5.2E1,1.56E2,1E1,1.24E2,8.8E1,3.7E1,6E0,1E1,6E0],"tree_param":{"num_deleted":"0","num_feature":"7","num_nodes":"63","size_leaf_vector":"1"}},{"base_weights":[1.6825026E1,-3.1902405E2,4.8061545E2,-9.472715E1,-4.6802625E2,8.6690326E2,1.537434E2,-3.5356927E2,1.1046675E2,-6.0953644E2,-3.6676752E2,5.6322675E2,1.0004487E3,2.4497382E2,-4.5273758E2,-5.802416E2,-2.6297095E2,2.7325436E2,-1.2352485E2,-6.765354E2,-5.6112964E2,-4.0018228E2,-1.8025906E1,6.650863E2,7.253462E1,1.2644966E3,8.052706E2,5.869457E2,1.391227E2,-5.24983E2,1.0234848E1,-3.0322699E1,-1.1151967E1,-5.85977E0,-1.6983492E1,5.209418E0,2.3860744E1,-9.785512E0,1.0097239E0,-3.404463E1,-6.129651E0,-1.3621501E1,-2.855985E1,-2.3071661E1,-1.3611152E1,8.208154E0,-1.4846503E1,4.1881153E1,2.4067762E1,-1.8336048E0,2.4561392E1,6.734979E1,4.4182476E1,5.897163E1,3.363276E1,4.6218563E1,1.9562109E1,9.398802E-1,2.0781773E1,-3.2560627E1,-1.8796404E1,1.0392475E1,-1.9420305E1],"categories":[],"categories_nodes":[],"categories_segments":[],"categories_sizes":[],"default_left":[0,0,0,0,0,0,0,0,0,0,0,0,0,0,0,0,0,0,0,0,0,0,0,0,0,0,0,0,0,0,0,0,0,0,0,0,0,0,0,0,0,0,0,0,0,0,0,0,0,0,0,0,0,0,0,0,0,0,0,0,0,0,0],"id":19,"left_children":[1,3,5,7,9,11,13,15,17,19,21,23,25,27,29,31,33,35,37,39,41,43,45,47,49,51,53,55,57,59,61,-1,-1,-1,-1,-1,-1,-1,-1,-1,-1,-1,-1,-1,-1,-1,-1,-1,-1,-1,-1,-1,-1,-1,-1,-1,-1,-1,-1,-1,-1,-1,-1],"loss_changes":[2.6962432E8,3.3510064E7,9.166261E7,2.1390414E7,8.416912E6,1.2941184E7,2.1966068E7,3.502844E6,8.604214E6,4.31184E5,4.117988E6,5.149852E6,1.083512E7,1.2370492E7,1.74465E6,3.32892E5,1.402518E6,4.536491E6,9.6877475E5,1.5788E5,2.83264E5,2.40594E6,1.6747694E6,2.32304E6,8.867725E5,1.826016E6,5.905312E6,4.987212E6,8.775844E6,6.01873E5,7.109484E5,0E0,0E0,0E0,0E0,0E0,0E0,0E0,0E0,0E0,0E0,0E0,0E0,0E0,0E0,0E0,0E0,0E0,0E0,0E0,0E0,0E0,0E0,0E0,0E0,0E0,0E0,0E0,0E0,0E0,0E0,0E0,0E0],"parents":[2147483647,0,0,1,1,2,2,3,3,4,4,5,5,6,6,7,7,8,8,9,9,10,10,11,11,12,12,13,13,14,14,15,15,16,16,17,17,18,18,19,19,20,20,21,21,22,22,23,23,24,24,25,25,26,26,27,27,28,28,29,29,30,30],"right_children":[2,4,6,8,10,12,14,16,18,20,22,24,26,28,30,32,34,36,38,40,42,44,46,48,50,52,54,56,58,60,62,-1,-1,-1,-1,-1,-1,-1,-1,-1,-1,-1,-1,-1,-1,-1,-1,-1,-1,-1,-1,-1,-1,-1,-1,-1,-1,-1,-1,-1,-1,-1,-1],"split_conditions":[3.6767896E3,4E0,6.8666664E1,1.9964286E3,1.9072235E3,4.7365063E3,9.1166664E1,1.1067665E3,2.5881904E-1,1.0542367E3,1.6883333E1,5E-1,3E0,4E0,1.7133333E1,1.8216667E1,-5E-1,2.942248E3,8.660254E-1,9.875E1,4.5833335E0,3.0304802E3,1.8991667E1,1.5258333E1,4.538314E3,2.5881904E-1,5.6416668E1,1.2246469E-16,5.440247E3,5.0666763E3,1.7616667E1,-3.0322699E1,-1.1151967E1,-5.85977E0,-1.6983492E1,5.209418E0,2.3860744E1,-9.785512E0,1.0097239E0,-3.404463E1,-6.129651E0,-1.3621501E1,-2.855985E1,-2.3071661E1,-1.3611152E1,8.208154E0,-1.4846503E1,4.1881153E1,2.4067762E1,-1.8336048E0,2.4561392E1,6.734979E1,4.4182476E1,5.897163E1,3.363276E1,4.6218563E1,1.9562109E1,9.398802E-1,2.0781773E1,-3.2560627E1,-1.8796404E1,1.0392475E1,-1.9420305E1],"split_indices":[5,2,1,5,5,5,1,5,4,5,0,4,2,2,0,0,4,5,4,1,0,5,0,0,5,4,1,4,5,5,0,0,0,0,0,0,0,0,0,0,0,0,0,0,0,0,0,0,0,0,0,0,0,0,0,0,0,0,0,0,0,0,0],"split_type":[0,0,0,0,0,0,0,0,0,0,0,0,0,0,0,0,0,0,0,0,0,0,0,0,0,0,0,0,0,0,0,0,0,0,0,0,0,0,0,0,0,0,0,0,0,0,0,0,0,0,0,0,0,0,0,0,0,0,0,0,0,0,0],"sum_hessian":[1.729E3,1.003E3,7.26E2,4.01E2,6.02E2,3.32E2,3.94E2,1.77E2,2.24E2,2.49E2,3.53E2,1.03E2,2.29E2,3.43E2,5.1E1,4.9E1,1.28E2,1.32E2,9.2E1,9.9E1,1.5E2,3.22E2,3.1E1,8.5E1,1.8E1,9.5E1,1.34E2,8E1,2.63E2,4.4E1,7E0,4.5E1,4E0,4.5E1,8.3E1,7.3E1,5.9E1,6.1E1,3.1E1,9.8E1,1E0,6E0,1.44E2,2.16E2,1.06E2,1.9E1,1.2E1,4.2E1,4.3E1,1.5E1,3E0,7.6E1,1.9E1,3.3E1,1.01E2,2.8E1,5.2E1,1.84E2,7.9E1,2.2E1,2.2E1,5E0,2E0],"tree_param":{"num_deleted":"0","num_feature":"7","num_nodes":"63","size_leaf_vector":"1"}},{"base_weights":[-4.847025E0,-3.0945224E2,4.3374063E2,-4.5952573E2,-1.4394973E1,8.538125E1,7.3935126E2,-5.136431E2,-3.1545126E2,-3.4601575E2,8.441267E1,-1.5444028E2,2.7882535E2,5.8943933E2,1.0861929E3,-3.1363626E1,-4.7118024E2,-4.4768307E2,-2.3525365E2,-4.940649E2,-2.3393893E2,2.0384544E2,-1.2305015E2,-2.698298E2,1.5419487E2,4.6785744E1,4.6180157E2,-4.802596E2,6.238038E2,1.180541E3,3.7850262E2,-3.3254066E1,-2.2308674E1,-2.5328012E1,-9.705216E0,-1.8830698E1,-5.173502E0,-3.134793E1,-1.909711E1,-1.102774E0,-1.9896017E1,1.6505616E0,2.2440214E1,-9.243918E0,4.598907E0,-1.0652424E1,-2.9682667E1,1.3172378E1,-2.1485197E1,1.4604123E1,-3.7265847E0,2.8503408E1,-8.8030405E0,2.7908838E0,-4.6014248E1,3.4990665E1,9.127765E0,4.2663635E1,6.413085E1,1.7018013E0,3.3782818E1],"categories":[],"categories_nodes":[],"categories_segments":[],"categories_sizes":[],"default_left":[0,0,0,0,0,0,0,0,0,0,0,0,0,0,0,0,0,0,0,0,0,0,0,0,0,0,0,0,0,0,0,0,0,0,0,0,0,0,0,0,0,0,0,0,0,0,0,0,0,0,0,0,0,0,0,0,0,0,0,0,0],"id":20,"left_children":[1,3,5,7,9,11,13,15,17,19,21,23,25,27,29,-1,31,33,35,37,39,41,43,45,47,49,51,53,55,57,59,-1,-1,-1,-1,-1,-1,-1,-1,-1,-1,-1,-1,-1,-1,-1,-1,-1,-1,-1,-1,-1,-1,-1,-1,-1,-1,-1,-1,-1,-1],"loss_changes":[2.3566413E8,4.608915E7,7.690915E7,5.217872E6,1.1563074E7,1.576997E7,1.9378096E7,2.116952E6,1.920174E6,1.228442E6,6.7646615E6,5.454821E6,7.960447E6,1.026144E7,7.231616E6,0E0,1.487624E6,9.61704E5,2.2151375E6,2.67151E5,1.6589812E6,7.224775E6,1.3464861E6,1.914493E6,2.79249E6,2.521506E6,7.351584E6,2.1743568E6,8.693024E6,2.279616E6,1.5123965E6,0E0,0E0,0E0,0E0,0E0,0E0,0E0,0E0,0E0,0E0,0E0,0E0,0E0,0E0,0E0,0E0,0E0,0E0,0E0,0E0,0E0,0E0,0E0,0E0,0E0,0E0,0E0,0E0,0E0,0E0],"parents":[2147483647,0,0,1,1,2,2,3,3,4,4,5,5,6,6,7,7,8,8,9,9,10,10,11,11,12,12,13,13,14,14,16,16,17,17,18,18,19,19,20,20,21,21,22,22,23,23,24,24,25,25,26,26,27,27,28,28,29,29,30,30],"right_children":[2,4,6,8,10,12,14,16,18,20,22,24,26,28,30,-1,32,34,36,38,40,42,44,46,48,50,52,54,56,58,60,-1,-1,-1,-1,-1,-1,-1,-1,-1,-1,-1,-1,-1,-1,-1,-1,-1,-1,-1,-1,-1,-1,-1,-1,-1,-1,-1,-1,-1,-1],"split_conditions":[3.6767896E3,1.65E1,2.0083334E1,2.6325815E3,1.8205159E3,8.916667E0,4.1583332E1,2E0,4.4166665E0,1.3229216E3,2.5881904E-1,5.8405005E3,4.639223E3,7.7166667E0,5E-1,-3.1363626E1,8.8610016E2,7.0710677E-1,1.2783334E1,2.325E1,-7.0710677E-1,3.15E1,1.435E1,9.5E1,9.5E1,-5E-1,8.4583336E1,2.375E1,5E-1,4.814242E3,4.454093E3,-3.3254066E1,-2.2308674E1,-2.5328012E1,-9.705216E0,-1.8830698E1,-5.173502E0,-3.134793E1,-1.909711E1,-1.102774E0,-1.9896017E1,1.6505616E0,2.2440214E1,-9.243918E0,4.598907E0,-1.0652424E1,-2.9682667E1,1.3172378E1,-2.1485197E1,1.4604123E1,-3.7265847E0,2.8503408E1,-8.8030405E0,2.7908838E0,-4.6014248E1,3.4990665E1,9.127765E0,4.2663635E1,6.413085E1,1.7018013E0,3.3782818E1],"split_indices":[5,6,6,5,5,6,6,6,6,5,4,5,5,0,4,0,5,4,0,6,4,6,0,1,1,4,1,6,4,5,5,0,0,0,0,0,0,0,0,0,0,0,0,0,0,0,0,0,0,0,0,0,0,0,0,0,0,0,0,0,0],"split_type":[0,0,0,0,0,0,0,0,0,0,0,0,0,0,0,0,0,0,0,0,0,0,0,0,0,0,0,0,0,0,0,0,0,0,0,0,0,0,0,0,0,0,0,0,0,0,0,0,0,0,0,0,0,0,0,0,0,0,0,0,0],"sum_hessian":[1.762E3,1.04E3,7.22E2,6.89E2,3.51E2,3.38E2,3.84E2,4.99E2,1.9E2,8E1,2.71E2,1.51E2,1.87E2,2.7E2,1.14E2,1.32E2,3.67E2,7E1,1.2E2,3.3E1,4.7E1,1.72E2,9.9E1,1.1E2,4.1E1,8.3E1,1.04E2,8E0,2.62E2,1E2,1.4E1,3.9E1,3.28E2,5.6E1,1.4E1,5.7E1,6.3E1,1.3E1,2E1,2.1E1,2.6E1,1.02E2,7E1,7.7E1,2.2E1,9.5E1,1.5E1,3.5E1,6E0,2.7E1,5.6E1,8.9E1,1.5E1,4E0,4E0,2.23E2,3.9E1,2.6E1,7.4E1,7E0,7E0],"tree_param":{"num_deleted":"0","num_feature":"7","num_nodes":"61","size_leaf_vector":"1"}},{"base_weights":[-5.542606E0,-2.3937282E2,4.7402417E2,-3.6475735E2,1.4018858E2,7.6940796E2,1.2873308E2,-4.5479053E2,-2.113839E2,-2.1719226E2,2.5436891E2,2.3170142E2,8.731185E2,2.2024123E2,-4.5693634E2,-5.676863E2,-3.9878806E2,3.6133747E1,-2.6714117E2,-3.706788E2,-3.926049E1,3.732171E2,-7.335265E0,7.3848834E2,9.008294E1,6.8682135E2,1.1405863E3,6.680878E1,4.5218484E2,-5.72258E2,-3.098226E2,-1.7999517E1,-2.9562551E1,-2.4502779E1,-1.6654408E1,-7.9986887E0,1.0368785E1,-1.18296995E1,-3.512236E1,-2.8818176E1,-1.4830871E1,-1.3257289E1,2.0220299E0,1.1208241E1,2.700527E1,-2.4689577E0,4.7405235E1,1.1593631E1,4.9742924E1,-1.5109015E1,1.0492506E1,2.4104826E1,4.2806953E1,4.7400444E1,6.574664E1,2.8415174E1,1.5922475E0,1.1309669E1,3.341731E1,-1.41004E1,-3.1542871E1,1.0086893E1,-1.7589066E1],"categories":[],"categories_nodes":[],"categories_segments":[],"categories_sizes":[],"default_left":[0,0,0,0,0,0,0,0,0,0,0,0,0,0,0,0,0,0,0,0,0,0,0,0,0,0,0,0,0,0,0,0,0,0,0,0,0,0,0,0,0,0,0,0,0,0,0,0,0,0,0,0,0,0,0,0,0,0,0,0,0,0,0],"id":21,"left_children":[1,3,5,7,9,11,13,15,17,19,21,23,25,27,29,31,33,35,37,39,41,43,45,47,49,51,53,55,57,59,61,-1,-1,-1,-1,-1,-1,-1,-1,-1,-1,-1,-1,-1,-1,-1,-1,-1,-1,-1,-1,-1,-1,-1,-1,-1,-1,-1,-1,-1,-1,-1,-1],"loss_changes":[1.9500792E8,5.568516E7,5.8037184E7,1.204172E7,1.1929754E7,1.6917824E7,1.4249326E7,3.269912E6,4.52255E6,1.9244665E6,6.876514E6,3.593765E6,1.202256E7,8.119369E6,4.334555E5,6.73024E5,2.073372E6,2.0816665E6,3.384204E6,4.079055E5,6.22835E5,3.65994E6,2.8587452E6,1.198012E6,1.9896031E6,4.92544E6,2.245248E6,2.4191525E6,4.29423E6,1.452545E5,4.5732712E5,0E0,0E0,0E0,0E0,0E0,0E0,0E0,0E0,0E0,0E0,0E0,0E0,0E0,0E0,0E0,0E0,0E0,0E0,0E0,0E0,0E0,0E0,0E0,0E0,0E0,0E0,0E0,0E0,0E0,0E0,0E0,0E0],"parents":[2147483647,0,0,1,1,2,2,3,3,4,4,5,5,6,6,7,7,8,8,9,9,10,10,11,11,12,12,13,13,14,14,15,15,16,16,17,17,18,18,19,19,20,20,21,21,22,22,23,23,24,24,25,25,26,26,27,27,28,28,29,29,30,30],"right_children":[2,4,6,8,10,12,14,16,18,20,22,24,26,28,30,32,34,36,38,40,42,44,46,48,50,52,54,56,58,60,62,-1,-1,-1,-1,-1,-1,-1,-1,-1,-1,-1,-1,-1,-1,-1,-1,-1,-1,-1,-1,-1,-1,-1,-1,-1,-1,-1,-1,-1,-1,-1,-1],"split_conditions":[4.132766E3,2.1666666E1,6.9583336E1,2.5246123E3,2.096172E3,1.7666666E1,9.3916664E1,1.252907E3,4E0,1.6735636E3,7.3166664E1,5.9083332E1,5.8233857E3,5.440247E3,5.370922E3,3E0,6.3333335E0,-5E-1,9.5416664E1,2.4E1,0E0,3.2182178E3,5E0,8.660254E-1,4E0,3.125E1,3.1E1,3E0,1.325E1,0E0,5.689297E3,-1.7999517E1,-2.9562551E1,-2.4502779E1,-1.6654408E1,-7.9986887E0,1.0368785E1,-1.18296995E1,-3.512236E1,-2.8818176E1,-1.4830871E1,-1.3257289E1,2.0220299E0,1.1208241E1,2.700527E1,-2.4689577E0,4.7405235E1,1.1593631E1,4.9742924E1,-1.5109015E1,1.0492506E1,2.4104826E1,4.2806953E1,4.7400444E1,6.574664E1,2.8415174E1,1.5922475E0,1.1309669E1,3.341731E1,-1.41004E1,-3.1542871E1,1.0086893E1,-1.7589066E1],"split_indices":[5,6,1,5,5,6,1,5,2,5,1,1,5,5,5,2,6,3,1,6,3,5,2,3,2,6,6,2,6,3,5,0,0,0,0,0,0,0,0,0,0,0,0,0,0,0,0,0,0,0,0,0,0,0,0,0,0,0,0,0,0,0,0],"split_type":[0,0,0,0,0,0,0,0,0,0,0,0,0,0,0,0,0,0,0,0,0,0,0,0,0,0,0,0,0,0,0,0,0,0,0,0,0,0,0,0,0,0,0,0,0,0,0,0,0,0,0,0,0,0,0,0,0,0,0,0,0,0,0],"sum_hessian":[1.737E3,1.168E3,5.69E2,8.78E2,2.9E2,3.06E2,2.63E2,5.52E2,3.26E2,7E1,2.2E2,5E1,2.56E2,2.28E2,3.5E1,1.8E2,3.72E2,6E1,2.66E2,3.7E1,3.3E1,1.51E2,6.9E1,1E1,4E1,1.53E2,1.03E2,1.38E2,9E1,1.8E1,1.7E1,2E1,1.6E2,1.53E2,2.19E2,2.8E1,3.2E1,2.5E2,1.6E1,8E0,2.9E1,8E0,2.5E1,8.1E1,7E1,6.7E1,2E0,4E0,6E0,9E0,3.1E1,7.1E1,8.2E1,5.2E1,5.1E1,8E0,1.3E2,4.5E1,4.5E1,4E0,1.4E1,1E0,1.6E1],"tree_param":{"num_deleted":"0","num_feature":"7","num_nodes":"63","size_leaf_vector":"1"}},{"base_weights":[-1.2440216E1,-2.5347711E2,4.7342798E2,-3.593911E2,7.258684E1,1.451469E2,7.5163074E2,-4.173217E2,-1.8180756E2,-2.2493837E2,1.8578444E2,-1.1846355E2,2.7245953E2,5.1994073E2,9.5880975E2,-4.5423856E2,-2.6360422E2,1.7341122E2,-2.4645773E2,-3.4411163E2,-8.036029E1,3.2170798E2,-1.3000441E2,-1.776922E2,3.0690646E2,-3.1381992E2,3.4817908E2,-6.7599255E2,5.491448E2,1.0859951E3,6.49651E2,-2.6472013E1,-2.0296734E1,-3.1521683E1,-1.1047843E1,2.5804245E1,4.5634958E-1,-2.359043E1,-8.927364E0,1.2115227E0,-1.8617153E1,-8.8381433E-1,-2.9654211E1,2.2137432E1,-1.3849853E1,-1.376662E1,-2.5392442E0,-2.0312989E0,-1.4852608E1,-4.0469146E0,3.9425392E1,-2.7074125E1,-4.621408E-1,5.5371013E0,2.4940067E1,4.4299316E-2,-4.5095703E1,3.430572E1,1.40276E1,6.2607723E1,4.2413403E1,-9.381189E0,3.5354305E1],"categories":[],"categories_nodes":[],"categories_segments":[],"categories_sizes":[],"default_left":[0,0,0,0,0,0,0,0,0,0,0,0,0,0,0,0,0,0,0,0,0,0,0,0,0,0,0,0,0,0,0,0,0,0,0,0,0,0,0,0,0,0,0,0,0,0,0,0,0,0,0,0,0,0,0,0,0,0,0,0,0,0,0],"id":22,"left_children":[1,3,5,7,9,11,13,15,17,19,21,23,25,27,29,31,33,35,37,39,41,43,45,47,49,51,53,55,57,59,61,-1,-1,-1,-1,-1,-1,-1,-1,-1,-1,-1,-1,-1,-1,-1,-1,-1,-1,-1,-1,-1,-1,-1,-1,-1,-1,-1,-1,-1,-1,-1,-1],"loss_changes":[2.030754E8,4.005185E7,5.240491E7,8.925704E6,9.640344E6,8.925926E6,1.4429872E7,3.619936E6,5.0261325E6,1.333504E6,8.926912E6,2.2464208E6,8.05558E6,5.575204E6,5.703712E6,1.71032E6,1.894461E6,1.9093498E6,2.731637E6,4.561715E5,1.1786812E6,1.0630449E7,7.113246E5,1.247669E6,2.1184722E6,1.451152E6,5.631126E6,6.1248475E5,5.178712E6,3.440912E6,2.53711E6,0E0,0E0,0E0,0E0,0E0,0E0,0E0,0E0,0E0,0E0,0E0,0E0,0E0,0E0,0E0,0E0,0E0,0E0,0E0,0E0,0E0,0E0,0E0,0E0,0E0,0E0,0E0,0E0,0E0,0E0,0E0,0E0],"parents":[2147483647,0,0,1,1,2,2,3,3,4,4,5,5,6,6,7,7,8,8,9,9,10,10,11,11,12,12,13,13,14,14,15,15,16,16,17,17,18,18,19,19,20,20,21,21,22,22,23,23,24,24,25,25,26,26,27,27,28,28,29,29,30,30],"right_children":[2,4,6,8,10,12,14,16,18,20,22,24,26,28,30,32,34,36,38,40,42,44,46,48,50,52,54,56,58,60,62,-1,-1,-1,-1,-1,-1,-1,-1,-1,-1,-1,-1,-1,-1,-1,-1,-1,-1,-1,-1,-1,-1,-1,-1,-1,-1,-1,-1,-1,-1,-1,-1],"split_conditions":[4.132766E3,2.1666666E1,2.0083334E1,2.9948384E3,2.096172E3,5.8333335E0,5.342983E3,1.45E1,4E0,1.6735636E3,2.5881904E-1,6.488439E3,1.0941667E1,7.4333334E0,4E0,1.4322655E3,1.0758542E3,-2.5881904E-1,1.6666666E0,-9.659258E-1,4E0,4E0,2.9111553E3,5E0,8.333333E-1,5.342983E3,5.0782954E3,-7.0710677E-1,2.5881904E-1,1.2246469E-16,9.883333E0,-2.6472013E1,-2.0296734E1,-3.1521683E1,-1.1047843E1,2.5804245E1,4.5634958E-1,-2.359043E1,-8.927364E0,1.2115227E0,-1.8617153E1,-8.8381433E-1,-2.9654211E1,2.2137432E1,-1.3849853E1,-1.376662E1,-2.5392442E0,-2.0312989E0,-1.4852608E1,-4.0469146E0,3.9425392E1,-2.7074125E1,-4.621408E-1,5.5371013E0,2.4940067E1,4.4299316E-2,-4.5095703E1,3.430572E1,1.40276E1,6.2607723E1,4.2413403E1,-9.381189E0,3.5354305E1],"split_indices":[5,6,6,5,5,6,5,6,2,5,4,5,0,0,2,5,5,4,6,4,2,2,5,2,6,5,5,4,4,4,0,0,0,0,0,0,0,0,0,0,0,0,0,0,0,0,0,0,0,0,0,0,0,0,0,0,0,0,0,0,0,0,0],"split_type":[0,0,0,0,0,0,0,0,0,0,0,0,0,0,0,0,0,0,0,0,0,0,0,0,0,0,0,0,0,0,0,0,0,0,0,0,0,0,0,0,0,0,0,0,0,0,0,0,0,0,0,0,0,0,0,0,0,0,0,0,0,0,0],"sum_hessian":[1.732E3,1.158E3,5.74E2,8.74E2,2.84E2,2.64E2,3.1E2,6.58E2,2.16E2,7.8E1,2.06E2,8.6E1,1.78E2,1.48E2,1.62E2,5.29E2,1.29E2,3.3E1,1.83E2,4.2E1,3.6E1,1.44E2,6.2E1,7.6E1,1E1,2E1,1.58E2,3E0,1.45E2,1.13E2,4.9E1,2.03E2,3.26E2,1.2E1,1.17E2,1E1,2.3E1,4.1E1,1.42E2,3E0,3.9E1,3.3E1,3E0,1.2E2,2.4E1,2.1E1,4.1E1,3.6E1,4E1,6E0,4E0,1.1E1,9E0,6.2E1,9.6E1,1E0,2E0,9.5E1,5E1,6.4E1,4.9E1,3E0,4.6E1],"tree_param":{"num_deleted":"0","num_feature":"7","num_nodes":"63","size_leaf_vector":"1"}},{"base_weights":[-2.927062E0,-2.8222998E2,3.646779E2,-3.6722272E2,5.5339417E1,8.629517E1,6.3990314E2,-4.1624976E2,-2.2219684E2,-2.5146547E2,1.3796376E2,-1.12285645E2,2.5706042E2,4.4147574E2,9.250948E2,-5.18829E2,-3.7481888E2,-3.3207147E2,-1.07946495E2,-1.3590347E2,-3.4604532E2,2.352863E2,-1.6752318E2,-2.0584512E2,1.9851472E2,4.4943817E1,4.324639E2,5.6793414E2,1.6865279E2,1.0481785E3,6.1065344E2,-1.5127513E1,-2.6826303E1,-2.6358397E1,-1.7011559E1,-1.861079E1,-1.275858E0,-1.9782873E1,-2.0392196E0,-1.0919157E1,8.585405E0,-8.662366E0,-2.0540823E1,7.398244E0,2.7432722E1,-1.9786808E1,4.2197877E-1,-2.2008198E1,-7.2957177E0,-9.986283E0,1.3624549E1,1.0648573E1,-4.581756E0,6.2585087E0,3.280885E1,4.295882E1,2.0551723E1,1.2445121E1,-4.519115E0,6.0001728E1,4.0954704E1,2.6323385E1,5.9784138E1],"categories":[],"categories_nodes":[],"categories_segments":[],"categories_sizes":[],"default_left":[0,0,0,0,0,0,0,0,0,0,0,0,0,0,0,0,0,0,0,0,0,0,0,0,0,0,0,0,0,0,0,0,0,0,0,0,0,0,0,0,0,0,0,0,0,0,0,0,0,0,0,0,0,0,0,0,0,0,0,0,0,0,0],"id":23,"left_children":[1,3,5,7,9,11,13,15,17,19,21,23,25,27,29,31,33,35,37,39,41,43,45,47,49,51,53,55,57,59,61,-1,-1,-1,-1,-1,-1,-1,-1,-1,-1,-1,-1,-1,-1,-1,-1,-1,-1,-1,-1,-1,-1,-1,-1,-1,-1,-1,-1,-1,-1,-1,-1],"loss_changes":[1.7978091E8,2.85678E7,5.7867976E7,5.560112E6,5.1299535E6,1.2813199E7,2.1095728E7,2.325752E6,2.512455E6,4.22954E5,4.766607E6,5.1295695E6,7.533382E6,7.701384E6,5.358816E6,4.80692E5,2.065408E6,1.258064E6,1.9355141E6,5.703039E5,1.862505E5,3.2298315E6,1.5694622E6,1.8315665E6,1.2622965E6,2.153776E6,7.548628E6,6.684008E6,1.5399812E6,2.843728E6,1.636064E6,0E0,0E0,0E0,0E0,0E0,0E0,0E0,0E0,0E0,0E0,0E0,0E0,0E0,0E0,0E0,0E0,0E0,0E0,0E0,0E0,0E0,0E0,0E0,0E0,0E0,0E0,0E0,0E0,0E0,0E0,0E0,0E0],"parents":[2147483647,0,0,1,1,2,2,3,3,4,4,5,5,6,6,7,7,8,8,9,9,10,10,11,11,12,12,13,13,14,14,15,15,16,16,17,17,18,18,19,19,20,20,21,21,22,22,23,23,24,24,25,25,26,26,27,27,28,28,29,29,30,30],"right_children":[2,4,6,8,10,12,14,16,18,20,22,24,26,28,30,32,34,36,38,40,42,44,46,48,50,52,54,56,58,60,62,-1,-1,-1,-1,-1,-1,-1,-1,-1,-1,-1,-1,-1,-1,-1,-1,-1,-1,-1,-1,-1,-1,-1,-1,-1,-1,-1,-1,-1,-1,-1,-1],"split_conditions":[3.5341602E3,2.325E1,2.0083334E1,1.3083333E1,1.7974047E3,9.416667E0,5.342983E3,1.252907E3,2.2644688E3,-8.660254E-1,5E-1,5.8405005E3,4.639223E3,2.5881904E-1,4E0,3E0,1.25E0,9.659258E-1,-8.660254E-1,1.5919932E3,2.5833334E1,8.660254E-1,0E0,4.1666666E-1,5E-1,1.3833333E1,5E-1,3E0,4E0,1.2246469E-16,4.125E1,-1.5127513E1,-2.6826303E1,-2.6358397E1,-1.7011559E1,-1.861079E1,-1.275858E0,-1.9782873E1,-2.0392196E0,-1.0919157E1,8.585405E0,-8.662366E0,-2.0540823E1,7.398244E0,2.7432722E1,-1.9786808E1,4.2197877E-1,-2.2008198E1,-7.2957177E0,-9.986283E0,1.3624549E1,1.0648573E1,-4.581756E0,6.2585087E0,3.280885E1,4.295882E1,2.0551723E1,1.2445121E1,-4.519115E0,6.0001728E1,4.0954704E1,2.6323385E1,5.9784138E1],"split_indices":[5,6,6,6,5,6,5,5,5,4,4,5,5,4,2,2,6,4,3,5,6,3,3,6,3,6,3,2,2,4,6,0,0,0,0,0,0,0,0,0,0,0,0,0,0,0,0,0,0,0,0,0,0,0,0,0,0,0,0,0,0,0,0],"split_type":[0,0,0,0,0,0,0,0,0,0,0,0,0,0,0,0,0,0,0,0,0,0,0,0,0,0,0,0,0,0,0,0,0,0,0,0,0,0,0,0,0,0,0,0,0,0,0,0,0,0,0,0,0,0,0,0,0,0,0,0,0,0,0],"sum_hessian":[1.749E3,9.94E2,7.55E2,7.94E2,2E2,3.76E2,3.79E2,5.92E2,2.02E2,4.2E1,1.58E2,1.74E2,2.02E2,2.25E2,1.54E2,1.67E2,4.25E2,1.02E2,1E2,2E1,2.2E1,1.2E2,3.8E1,1.34E2,4E1,9.2E1,1.1E2,1.53E2,7.2E1,1.09E2,4.5E1,1.4E1,1.53E2,7.6E1,3.49E2,9E1,1.2E1,1.8E1,8.2E1,1.6E1,4E0,7E0,1.5E1,9.5E1,2.5E1,1.6E1,2.2E1,2.6E1,1.08E2,6E0,3.4E1,4.1E1,5.1E1,4.7E1,6.3E1,5.2E1,1.01E2,5.5E1,1.7E1,6.3E1,4.6E1,4.1E1,4E0],"tree_param":{"num_deleted":"0","num_feature":"7","num_nodes":"63","size_leaf_vector":"1"}},{"base_weights":[8.800527E0,-2.1961865E2,4.1130804E2,-3.3231076E2,-7.7914856E1,5.6179425E2,1.1263281E2,-3.6619485E2,-1.13536156E2,-2.1374524E2,1.3897063E2,4.3188626E2,8.5026544E2,2.7511087E2,-1.5227223E2,-3.278148E2,-4.37272E2,-3.9905978E2,1.208302E1,-3.1878714E2,-5.9094276E1,-2.5195969E2,3.704418E2,2.202449E2,5.371201E2,4.0356512E2,9.138968E2,1.9980423E2,7.4513635E2,-2.8774643E2,1.19276054E2,-1.9655258E1,-1.2939287E1,-2.2531538E1,-1.0300898E1,-9.472059E0,-2.4084955E1,-9.327344E0,1.0846558E1,-1.9521307E1,-2.7354E0,-1.3744258E1,3.5017838E0,7.197641E0,-1.51849E1,2.023302E1,-2.52181E1,-8.619587E-1,2.052728E1,-1.0313266E1,2.9349691E1,6.6918664E0,3.0298182E1,2.9543684E1,5.0667645E1,-9.181243E0,1.3840097E1,1.2649597E1,5.1766E1,-2.3139662E1,4.8891406E0,-1.9008149E0,1.3964192E1],"categories":[],"categories_nodes":[],"categories_segments":[],"categories_sizes":[],"default_left":[0,0,0,0,0,0,0,0,0,0,0,0,0,0,0,0,0,0,0,0,0,0,0,0,0,0,0,0,0,0,0,0,0,0,0,0,0,0,0,0,0,0,0,0,0,0,0,0,0,0,0,0,0,0,0,0,0,0,0,0,0,0,0],"id":24,"left_children":[1,3,5,7,9,11,13,15,17,19,21,23,25,27,29,31,33,35,37,39,41,43,45,47,49,51,53,55,57,59,61,-1,-1,-1,-1,-1,-1,-1,-1,-1,-1,-1,-1,-1,-1,-1,-1,-1,-1,-1,-1,-1,-1,-1,-1,-1,-1,-1,-1,-1,-1,-1,-1],"loss_changes":[1.612619E8,1.7843308E7,2.847776E7,4.576704E6,1.4671146E7,1.5447112E7,9.252721E6,1.327016E6,3.0535375E6,4.952079E6,1.7467244E7,6.407352E6,3.326328E6,4.558792E6,3.0509195E6,1.493728E6,4.81764E5,3.591375E5,2.4818055E6,3.421784E6,3.5023852E6,1.518555E6,3.826179E6,4.4812235E6,7.35078E6,9.015645E5,3.031536E6,3.4755135E6,2.308691E6,3.756965E6,7.153215E5,0E0,0E0,0E0,0E0,0E0,0E0,0E0,0E0,0E0,0E0,0E0,0E0,0E0,0E0,0E0,0E0,0E0,0E0,0E0,0E0,0E0,0E0,0E0,0E0,0E0,0E0,0E0,0E0,0E0,0E0,0E0,0E0],"parents":[2147483647,0,0,1,1,2,2,3,3,4,4,5,5,6,6,7,7,8,8,9,9,10,10,11,11,12,12,13,13,14,14,15,15,16,16,17,17,18,18,19,19,20,20,21,21,22,22,23,23,24,24,25,25,26,26,27,27,28,28,29,29,30,30],"right_children":[2,4,6,8,10,12,14,16,18,20,22,24,26,28,30,32,34,36,38,40,42,44,46,48,50,52,54,56,58,60,62,-1,-1,-1,-1,-1,-1,-1,-1,-1,-1,-1,-1,-1,-1,-1,-1,-1,-1,-1,-1,-1,-1,-1,-1,-1,-1,-1,-1,-1,-1,-1,-1],"split_conditions":[2.0083334E1,9E0,7E1,1.6883333E1,5E-1,4.2166668E1,5E-1,9.0333336E1,7.5416664E1,1.435E1,1.1058333E1,-7.0710677E-1,-5E-1,1.7091667E1,8.660254E-1,0E0,1.575E1,6.925E1,5E-1,1.6166666E1,-7.0710677E-1,1.0416667E1,1.9941668E1,5E-1,7.7166667E0,1.6041666E1,-8.660254E-1,-8.660254E-1,2.525E1,1.54E1,1.1833333E1,-1.9655258E1,-1.2939287E1,-2.2531538E1,-1.0300898E1,-9.472059E0,-2.4084955E1,-9.327344E0,1.0846558E1,-1.9521307E1,-2.7354E0,-1.3744258E1,3.5017838E0,7.197641E0,-1.51849E1,2.023302E1,-2.52181E1,-8.619587E-1,2.052728E1,-1.0313266E1,2.9349691E1,6.6918664E0,3.0298182E1,2.9543684E1,5.0667645E1,-9.181243E0,1.3840097E1,1.2649597E1,5.1766E1,-2.3139662E1,4.8891406E0,-1.9008149E0,1.3964192E1],"split_indices":[6,6,1,0,3,6,4,1,1,0,0,4,3,0,3,3,0,1,3,6,4,6,0,3,0,0,4,4,6,0,0,0,0,0,0,0,0,0,0,0,0,0,0,0,0,0,0,0,0,0,0,0,0,0,0,0,0,0,0,0,0,0,0],"split_type":[0,0,0,0,0,0,0,0,0,0,0,0,0,0,0,0,0,0,0,0,0,0,0,0,0,0,0,0,0,0,0,0,0,0,0,0,0,0,0,0,0,0,0,0,0,0,0,0,0,0,0,0,0,0,0,0,0,0,0,0,0,0,0],"sum_hessian":[1.752E3,1.118E3,6.34E2,6.22E2,4.96E2,4.21E2,2.13E2,5.38E2,8.4E1,3.05E2,1.91E2,2.92E2,1.29E2,1.32E2,8.1E1,3.53E2,1.85E2,2.5E1,5.9E1,1.81E2,1.24E2,7.1E1,1.2E2,9.8E1,1.94E2,1.7E1,1.12E2,1.15E2,1.7E1,5.4E1,2.7E1,1.79E2,1.74E2,1.74E2,1.1E1,8E0,1.7E1,3E1,2.9E1,1.42E2,3.9E1,4.6E1,7.8E1,8E0,6.3E1,1.16E2,4E0,4.4E1,5.4E1,1.2E1,1.82E2,8E0,9E0,2.8E1,8.4E1,1.9E1,9.6E1,7E0,1E1,3.7E1,1.7E1,1.4E1,1.3E1],"tree_param":{"num_deleted":"0","num_feature":"7","num_nodes":"63","size_leaf_vector":"1"}},{"base_weights":[-1.5449923E0,-2.3429173E2,3.635236E2,-3.1741562E2,8.1511986E1,6.4554425E2,1.2091799E2,-3.8124173E2,-1.8636237E2,-2.8746445E2,1.6284453E2,5.3974396E2,9.190421E2,-4.6934196E1,3.1441605E2,-4.6463583E2,-3.2701852E2,9.694937E0,-2.4191144E2,3.70856E1,-3.1406274E2,2.4575857E1,2.568952E2,1.9965514E2,6.2785657E2,-3.5586102E2,9.688108E2,-1.7487239E2,6.92664E1,-3.9306607E2,4.0484238E2,-2.7161493E1,-2.1294708E1,-2.5135395E1,-1.4409792E1,-8.94289E0,9.3263235E0,-1.4671564E1,-3.322274E0,3.808716E-1,2.2184591E0,-1.3461245E1,-2.7807379E1,-1.7516478E0,3.0857656E1,-1.7415164E0,1.8088509E1,1.3905187E1,-2.7315668E1,2.3204649E1,3.8105984E1,6.441044E0,-4.524767E1,2.7625538E1,4.997404E1,-1.0767932E1,2.984759E1,-5.6992583E0,1.533922E1,-3.424449E1,-7.0721374E0,9.246966E0,3.3493507E1],"categories":[],"categories_nodes":[],"categories_segments":[],"categories_sizes":[],"default_left":[0,0,0,0,0,0,0,0,0,0,0,0,0,0,0,0,0,0,0,0,0,0,0,0,0,0,0,0,0,0,0,0,0,0,0,0,0,0,0,0,0,0,0,0,0,0,0,0,0,0,0,0,0,0,0,0,0,0,0,0,0,0,0],"id":25,"left_children":[1,3,5,7,9,11,13,15,17,19,21,23,25,27,29,31,33,35,37,39,41,43,45,47,49,51,53,55,57,59,61,-1,-1,-1,-1,-1,-1,-1,-1,-1,-1,-1,-1,-1,-1,-1,-1,-1,-1,-1,-1,-1,-1,-1,-1,-1,-1,-1,-1,-1,-1,-1,-1],"loss_changes":[1.4971474E8,2.827176E7,4.6857904E7,7.055616E6,6.799015E6,8.67672E6,1.2032012E7,2.434576E6,3.062661E6,3.65579E5,2.3994755E6,6.796816E6,5.864936E6,2.9705455E6,1.116283E7,4.4764E5,2.24238E6,2.133912E6,1.960258E6,5.2055566E2,2.6274425E5,2.7061555E6,3.3780185E6,3.019421E6,3.670008E6,1.1811175E6,5.2028E5,3.0971442E6,4.605151E6,1.37172E6,8.793018E6,0E0,0E0,0E0,0E0,0E0,0E0,0E0,0E0,0E0,0E0,0E0,0E0,0E0,0E0,0E0,0E0,0E0,0E0,0E0,0E0,0E0,0E0,0E0,0E0,0E0,0E0,0E0,0E0,0E0,0E0,0E0,0E0],"parents":[2147483647,0,0,1,1,2,2,3,3,4,4,5,5,6,6,7,7,8,8,9,9,10,10,11,11,12,12,13,13,14,14,15,15,16,16,17,17,18,18,19,19,20,20,21,21,22,22,23,23,24,24,25,25,26,26,27,27,28,28,29,29,30,30],"right_children":[2,4,6,8,10,12,14,16,18,20,22,24,26,28,30,32,34,36,38,40,42,44,46,48,50,52,54,56,58,60,62,-1,-1,-1,-1,-1,-1,-1,-1,-1,-1,-1,-1,-1,-1,-1,-1,-1,-1,-1,-1,-1,-1,-1,-1,-1,-1,-1,-1,-1,-1,-1,-1],"split_conditions":[3.82787E3,2.3E1,4E0,2.5246123E3,1.7974047E3,5.874094E3,1.3083333E1,1.3942258E3,4E0,2.05E0,-5E-1,2.2416666E1,1.625E1,5E-1,9.883333E0,8.7245856E2,2E0,-5E-1,1.4083333E1,2E0,4E0,1.7866667E1,1.0341666E1,2.05E1,5E-1,1.5841666E1,1.8333334E1,9E0,1.4883333E1,5.038215E3,5E-1,-2.7161493E1,-2.1294708E1,-2.5135395E1,-1.4409792E1,-8.94289E0,9.3263235E0,-1.4671564E1,-3.322274E0,3.808716E-1,2.2184591E0,-1.3461245E1,-2.7807379E1,-1.7516478E0,3.0857656E1,-1.7415164E0,1.8088509E1,1.3905187E1,-2.7315668E1,2.3204649E1,3.8105984E1,6.441044E0,-4.524767E1,2.7625538E1,4.997404E1,-1.0767932E1,2.984759E1,-5.6992583E0,1.533922E1,-3.424449E1,-7.0721374E0,9.246966E0,3.3493507E1],"split_indices":[5,6,2,5,5,5,6,5,2,0,3,6,6,3,0,5,6,3,6,2,2,0,0,0,3,0,6,2,0,5,3,0,0,0,0,0,0,0,0,0,0,0,0,0,0,0,0,0,0,0,0,0,0,0,0,0,0,0,0,0,0,0,0],"split_type":[0,0,0,0,0,0,0,0,0,0,0,0,0,0,0,0,0,0,0,0,0,0,0,0,0,0,0,0,0,0,0,0,0,0,0,0,0,0,0,0,0,0,0,0,0,0,0,0,0,0,0,0,0,0,0,0,0,0,0,0,0,0,0],"sum_hessian":[1.76E3,1.075E3,6.85E2,8.51E2,2.24E2,3.16E2,3.69E2,5.71E2,2.8E2,4E1,1.84E2,2.3E2,8.6E1,1.98E2,1.71E2,2.22E2,3.49E2,6.2E1,2.18E2,3E0,3.7E1,7.5E1,1.09E2,4.8E1,1.82E2,3E0,8.3E1,9.4E1,1.04E2,1.9E1,1.52E2,6.9E1,1.53E2,6.1E1,2.88E2,3E1,3.2E1,1.68E2,5E1,1E0,2E0,3.3E1,4E0,6.9E1,6E0,2.9E1,8E1,4.4E1,4E0,8.4E1,9.8E1,2E0,1E0,7E0,7.6E1,9E1,4E0,5.9E1,4.5E1,8E0,1.1E1,8.4E1,6.8E1],"tree_param":{"num_deleted":"0","num_feature":"7","num_nodes":"63","size_leaf_vector":"1"}},{"base_weights":[-6.7576766E0,-1.8802734E2,3.6871848E2,-3.0207565E2,-5.835786E1,4.751774E2,2.5933834E1,-3.2826315E2,-1.1924869E2,-1.8569646E2,1.3946817E2,2.9222296E2,6.358894E2,2.2812052E0,3.97037E1,-3.949569E2,-2.8594617E2,-2.6309845E2,8.924183E1,2.2198158E2,-2.225138E2,-1.2132632E1,3.9355118E2,7.418253E1,4.4367816E2,-1.8310385E2,6.7447485E2,-7.194343E1,2.7789124E2,-2.5057913E1,-1.7196081E1,-1.6844976E1,-1.1352787E1,-1.7520166E1,-6.3858347E0,1.1393441E1,-1.8622557E1,-6.159684E0,2.879782E1,-1.6851776E1,-7.8091707E0,-4.1403606E1,1.6118603E0,2.32874E1,-1.5721934E1,-2.0866713E1,1.121386E1,1.1178286E1,3.115507E1,1.1638124E1,-1.8407454E1,3.10931E1,5.268334E1,7.1265664E0,-9.879423E0,2.2010513E1,2.8368845E0],"categories":[],"categories_nodes":[],"categories_segments":[],"categories_sizes":[],"default_left":[0,0,0,0,0,0,0,0,0,0,0,0,0,0,0,0,0,0,0,0,0,0,0,0,0,0,0,0,0,0,0,0,0,0,0,0,0,0,0,0,0,0,0,0,0,0,0,0,0,0,0,0,0,0,0,0,0],"id":26,"left_children":[1,3,5,7,9,11,13,15,17,19,21,23,25,27,-1,29,31,33,35,37,39,41,43,45,47,49,51,53,55,-1,-1,-1,-1,-1,-1,-1,-1,-1,-1,-1,-1,-1,-1,-1,-1,-1,-1,-1,-1,-1,-1,-1,-1,-1,-1,-1,-1],"loss_changes":[1.1727285E8,1.7166704E7,2.045996E7,2.919708E6,1.3754932E7,1.2398656E7,2.432772E6,1.411096E6,2.3927928E6,5.032589E6,8.247881E6,6.637806E6,7.296976E6,2.699866E6,0E0,9.49582E5,9.25728E5,5.107635E5,2.1969722E6,3.4920875E6,2.264221E6,4.9141135E6,4.235618E6,6.2906185E6,4.560398E6,9.321859E5,3.673984E6,2.830722E6,9.8015175E5,0E0,0E0,0E0,0E0,0E0,0E0,0E0,0E0,0E0,0E0,0E0,0E0,0E0,0E0,0E0,0E0,0E0,0E0,0E0,0E0,0E0,0E0,0E0,0E0,0E0,0E0,0E0,0E0],"parents":[2147483647,0,0,1,1,2,2,3,3,4,4,5,5,6,6,7,7,8,8,9,9,10,10,11,11,12,12,13,13,15,15,16,16,17,17,18,18,19,19,20,20,21,21,22,22,23,23,24,24,25,25,26,26,27,27,28,28],"right_children":[2,4,6,8,10,12,14,16,18,20,22,24,26,28,-1,30,32,34,36,38,40,42,44,46,48,50,52,54,56,-1,-1,-1,-1,-1,-1,-1,-1,-1,-1,-1,-1,-1,-1,-1,-1,-1,-1,-1,-1,-1,-1,-1,-1,-1,-1,-1,-1],"split_conditions":[2.2E1,9E0,7.3166664E1,1.6933332E1,1.435E1,5E-1,5E0,1.6666666E0,